svm_type c_svc
kernel_type rbf
gamma 6.44704e-05
nr_class 2
total_sv 4609
rho 0.99323
label 1 -1
nr_sv 2259 2350
SV
1 71:1 5301:1 10491:1 11041:1 11701:1 12501:1 13051:1 13601:1 14241:1 14971:1 
1 2821:1 3441:1 3451:1 4141:1 7981:1 8621:1 8631:1 9341:1 10491:1 11041:1 11861:1 12511:1 13051:1 13601:1 14241:1 14971:1 
1 691:1 3411:1 5871:1 8591:1 10511:1 11041:1 11861:1 12571:1 13051:1 13601:1 14241:1 14971:1 
1 2781:1 7901:1 10671:1 11061:1 11861:1 12411:1 13051:1 13601:1 14241:1 14971:1 
1 181:1 3371:1 5351:1 8611:1 10671:1 11221:1 11861:1 12411:1 13051:1 13601:1 14241:1 14971:1 
1 2701:1 3391:1 3401:1 7911:1 8581:1 8591:1 10671:1 11201:1 11861:1 12411:1 13051:1 13601:1 14241:1 14971:1 
1 231:1 3371:1 5291:1 8551:1 10671:1 11041:1 11841:1 12411:1 13051:1 13601:1 14241:1 14971:1 
1 2711:1 3131:1 3331:1 4451:1 7901:1 8301:1 8541:1 9661:1 10671:1 11061:1 11681:1 12411:1 13051:1 13601:1 14241:1 14991:1 
1 1611:1 4411:1 6821:1 9621:1 10671:1 11221:1 11681:1 12431:1 13051:1 13601:1 14241:1 15151:1 
1 4101:1 4371:1 9331:1 9611:1 10671:1 11221:1 11681:1 12561:1 13051:1 13601:1 14241:1 15151:1 
1 171:1 691:1 731:1 1641:1 5301:1 5861:1 5871:1 6821:1 10651:1 11221:1 11701:1 12321:1 13071:1 13601:1 14241:1 15151:1 
1 2701:1 3321:1 7871:1 8511:1 10491:1 11241:1 11861:1 12321:1 13231:1 13601:1 14241:1 15151:1 
1 181:1 3291:1 5261:1 8551:1 10521:1 11381:1 11841:1 12321:1 13231:1 13601:1 14241:1 15151:1 
1 3091:1 3331:1 3361:1 8221:1 8511:1 8541:1 10761:1 11241:1 11681:1 12321:1 13231:1 13601:1 14241:1 15131:1 
1 721:1 3291:1 5871:1 8521:1 10781:1 11381:1 11681:1 12321:1 13231:1 13601:1 14241:1 14971:1 
1 731:1 1341:1 3011:1 3301:1 5911:1 6511:1 8211:1 8481:1 10921:1 11241:1 11681:1 12321:1 13211:1 13601:1 14241:1 14971:1 
1 731:1 1641:1 5991:1 6851:1 10741:1 11401:1 11691:1 12321:1 13051:1 13601:1 14241:1 14971:1 
1 771:1 3001:1 5991:1 8261:1 10581:1 11401:1 11771:1 12321:1 13051:1 13601:1 14251:1 14971:1 
1 141:1 5301:1 10561:1 11401:1 11771:1 12321:1 13051:1 13601:1 14361:1 14971:1 
1 851:1 3051:1 4401:1 6031:1 8301:1 9571:1 10401:1 11401:1 11771:1 12321:1 13051:1 13601:1 14581:1 14991:1 
1 4091:1 9401:1 10401:1 11401:1 11771:1 12321:1 13051:1 13601:1 14421:1 15151:1 
1 3321:1 4361:1 4441:1 8511:1 9571:1 9651:1 10401:1 11421:1 11771:1 12321:1 13051:1 13601:1 14421:1 15151:1 
1 181:1 391:1 3091:1 5331:1 5561:1 8311:1 10401:1 11581:1 11771:1 12321:1 13071:1 13601:1 14421:1 15131:1 
1 1681:1 3291:1 3791:1 4321:1 6861:1 8551:1 8981:1 9531:1 10411:1 11561:1 11771:1 12321:1 13231:1 13601:1 14421:1 14991:1 
1 431:1 991:1 1691:1 5641:1 6181:1 6851:1 10481:1 11401:1 11771:1 12321:1 13211:1 13601:1 14421:1 15151:1 
1 2671:1 3331:1 4111:1 7951:1 8511:1 9311:1 10401:1 11391:1 11771:1 12331:1 13051:1 13601:1 14421:1 15151:1 
1 211:1 891:1 3101:1 3781:1 5341:1 6041:1 8271:1 9021:1 10401:1 11311:1 11771:1 12411:1 13051:1 13601:1 14411:1 15151:1 
1 511:1 2751:1 3061:1 3751:1 5641:1 7941:1 8261:1 8941:1 10401:1 11311:1 11771:1 12441:1 13051:1 13601:1 14331:1 15121:1 
1 221:1 1351:1 1651:1 5331:1 6591:1 6861:1 10401:1 11311:1 11771:1 12681:1 13071:1 13601:1 14361:1 14881:1 
1 851:1 3051:1 6101:1 8221:1 10401:1 11311:1 11761:1 12681:1 13231:1 13601:1 14601:1 14881:1 
1 211:1 511:1 1311:1 3711:1 5291:1 5641:1 6511:1 8931:1 10401:1 11311:1 11681:1 12681:1 13231:1 13601:1 14571:1 14891:1 
1 1681:1 7091:1 10401:1 11311:1 11681:1 12681:1 13231:1 13601:1 14331:1 14971:1 
1 511:1 1351:1 1431:1 3701:1 5631:1 6471:1 6551:1 9071:1 10411:1 11311:1 11681:1 12681:1 13231:1 13601:1 14351:1 14961:1 
1 3791:1 4281:1 4361:1 8981:1 9451:1 9621:1 10491:1 11311:1 11681:1 12681:1 13231:1 13601:1 14511:1 14911:1 
1 171:1 1391:1 1941:1 3011:1 5251:1 6511:1 7111:1 8231:1 10481:1 11311:1 11681:1 12681:1 13231:1 13611:1 14511:1 15151:1 
1 1971:1 2741:1 3261:1 4071:1 7161:1 7901:1 8441:1 9271:1 10411:1 11321:1 11681:1 12641:1 13231:1 13691:1 14511:1 15151:1 
1 131:1 1031:1 1981:1 3021:1 5261:1 6171:1 7151:1 8411:1 10491:1 11401:1 11681:1 12321:1 13261:1 13681:1 14511:1 15151:1 
1 1021:1 2701:1 4031:1 6431:1 7871:1 9231:1 10481:1 11401:1 11681:1 12321:1 13501:1 13601:1 14511:1 15151:1 
1 141:1 1031:1 5311:1 6171:1 10411:1 11401:1 11681:1 12321:1 13471:1 13601:1 14511:1 15151:1 
1 1021:1 4791:1 6431:1 10011:1 10481:1 11401:1 11681:1 12321:1 13231:1 13601:1 14511:1 15151:1 
1 191:1 5251:1 10401:1 11401:1 11681:1 12321:1 13231:1 13601:1 14511:1 15151:1 
1 4751:1 9881:1 10401:1 11421:1 11681:1 12321:1 13231:1 13601:1 14511:1 15151:1 
1 131:1 501:1 1941:1 3291:1 5211:1 5671:1 7131:1 8521:1 10421:1 11561:1 11681:1 12321:1 13231:1 13601:1 14491:1 15151:1 
1 3301:1 4621:1 8491:1 9801:1 10581:1 11401:1 11681:1 12321:1 13231:1 13601:1 14331:1 15151:1 
1 541:1 1021:1 1921:1 3751:1 5681:1 6181:1 7141:1 8981:1 10581:1 11401:1 11681:1 12331:1 13211:1 13601:1 14351:1 15131:1 
1 1031:1 2671:1 3271:1 3671:1 6171:1 7861:1 8491:1 8891:1 10581:1 11391:1 11681:1 12411:1 13071:1 13601:1 14511:1 14971:1 
1 991:1 1931:1 6181:1 7131:1 10581:1 11311:1 11681:1 12411:1 13231:1 13601:1 14511:1 14971:1 
1 1951:1 3271:1 4721:1 7171:1 8531:1 9951:1 10581:1 11311:1 11681:1 12431:1 13231:1 13611:1 14511:1 14971:1 
1 551:1 1021:1 1961:1 5671:1 6141:1 7181:1 10581:1 11311:1 11681:1 12591:1 13211:1 13691:1 14491:1 14971:1 
1 4641:1 4691:1 4771:1 9861:1 9871:1 9991:1 10581:1 11311:1 11681:1 12591:1 13051:1 13691:1 14331:1 14961:1 
1 541:1 4611:1 5551:1 9881:1 10581:1 11311:1 11681:1 12591:1 13051:1 13711:1 14331:1 14881:1 
1 2661:1 3311:1 3751:1 4621:1 7871:1 8571:1 8941:1 9871:1 10581:1 11341:1 11681:1 12571:1 13051:1 13841:1 14331:1 14881:1 
1 421:1 1031:1 1991:1 4541:1 5591:1 6171:1 7211:1 9841:1 10601:1 11561:1 11681:1 12411:1 13091:1 13601:1 14331:1 14881:1 
1 2031:1 2671:1 3711:1 7171:1 7871:1 8861:1 10761:1 11391:1 11681:1 12411:1 13391:1 13621:1 14331:1 14881:1 
1 4731:1 10061:1 10761:1 11311:1 11681:1 12411:1 13231:1 13781:1 14331:1 14881:1 
1 3351:1 4691:1 4781:1 8571:1 9871:1 10031:1 10761:1 11311:1 11681:1 12401:1 13231:1 13781:1 14331:1 14881:1 
1 4611:1 9891:1 10761:1 11311:1 11681:1 12321:1 13231:1 13781:1 14331:1 14881:1 
1 2671:1 3351:1 4631:1 7951:1 8611:1 9891:1 10761:1 11311:1 11681:1 12321:1 13231:1 13761:1 14331:1 14881:1 
1 461:1 2011:1 5581:1 7311:1 10761:1 11311:1 11681:1 12321:1 13201:1 13601:1 14351:1 14881:1 
1 2131:1 2751:1 7301:1 7971:1 10761:1 11311:1 11681:1 12321:1 12961:1 13601:1 14491:1 14901:1 
1 451:1 581:1 4601:1 5541:1 5681:1 9871:1 10761:1 11311:1 11681:1 12321:1 12971:1 13601:1 14331:1 15061:1 
1 4771:1 4791:1 9981:1 10001:1 10761:1 11311:1 11681:1 12321:1 13051:1 13601:1 14331:1 15081:1 
1 551:1 1991:1 5561:1 7171:1 10761:1 11311:1 11681:1 12321:1 13071:1 13601:1 14321:1 15241:1 
1 2121:1 2771:1 7421:1 7941:1 10761:1 11311:1 11681:1 12321:1 13231:1 13601:1 14241:1 15241:1 
1 431:1 3631:1 5511:1 9071:1 10761:1 11291:1 11681:1 12321:1 13231:1 13601:1 14241:1 15241:1 
1 2741:1 3391:1 4611:1 4631:1 7901:1 8571:1 9851:1 9861:1 10761:1 11151:1 11681:1 12321:1 13231:1 13621:1 14241:1 15211:1 
1 91:1 3661:1 4611:1 5261:1 8931:1 9861:1 10761:1 11291:1 11681:1 12331:1 13231:1 13781:1 14241:1 14971:1 
1 411:1 4581:1 5581:1 9831:1 10761:1 11151:1 11681:1 12411:1 13211:1 13781:1 14241:1 14971:1 
1 451:1 991:1 2321:1 4601:1 5571:1 6181:1 7521:1 9901:1 10761:1 11311:1 11681:1 12411:1 13071:1 13781:1 14241:1 14971:1 
1 2701:1 3351:1 3701:1 4741:1 7891:1 8611:1 8921:1 9991:1 10761:1 11311:1 11681:1 12401:1 13231:1 13761:1 14241:1 14961:1 
1 141:1 1031:1 4591:1 5271:1 6221:1 9841:1 10751:1 11291:1 11681:1 12321:1 13231:1 13601:1 14241:1 14881:1 
1 441:1 5591:1 10671:1 11131:1 11681:1 12321:1 13251:1 13601:1 14241:1 14881:1 
1 151:1 461:1 2331:1 5271:1 5541:1 7511:1 10671:1 11131:1 11681:1 12321:1 13391:1 13601:1 14241:1 14881:1 
1 411:1 5621:1 10671:1 11131:1 11681:1 12321:1 13211:1 13601:1 14241:1 14881:1 
1 151:1 381:1 3391:1 5301:1 5501:1 8611:1 10671:1 11131:1 11681:1 12321:1 13041:1 13601:1 14261:1 14881:1 
1 2691:1 4641:1 4721:1 4731:1 7851:1 9861:1 9941:1 10001:1 10671:1 11131:1 11681:1 12321:1 12961:1 13621:1 14421:1 14891:1 
1 181:1 491:1 3391:1 5261:1 5641:1 8651:1 10671:1 11131:1 11681:1 12321:1 12981:1 13781:1 14401:1 14991:1 
1 2321:1 2651:1 3691:1 4601:1 7521:1 7891:1 8961:1 9821:1 10671:1 11131:1 11681:1 12331:1 13161:1 13761:1 14241:1 15151:1 
1 371:1 511:1 5491:1 5621:1 10671:1 11131:1 11681:1 12411:1 13321:1 13601:1 14241:1 15151:1 
1 2331:1 2691:1 4681:1 7531:1 7851:1 9861:1 10671:1 11131:1 11681:1 12411:1 13301:1 13621:1 14241:1 15151:1 
1 491:1 1071:1 4571:1 4581:1 5541:1 6221:1 9821:1 10061:1 10671:1 11121:1 11681:1 12411:1 13161:1 13781:1 14241:1 15151:1 
1 4561:1 9791:1 10671:1 11041:1 11681:1 12411:1 13321:1 13781:1 14241:1 15151:1 
1 4531:1 9821:1 10671:1 11041:1 11681:1 12411:1 13321:1 13781:1 14241:1 15151:1 
1 4561:1 9791:1 10671:1 11041:1 11681:1 12411:1 13321:1 13781:1 14241:1 15151:1 
1 4561:1 10061:1 10671:1 11041:1 11681:1 12411:1 13321:1 13781:1 14241:1 15151:1 
1 4531:1 9751:1 10671:1 11041:1 11681:1 12411:1 13321:1 13781:1 14241:1 15151:1 
1 71:1 991:1 5311:1 6181:1 10491:1 11041:1 11681:1 12411:1 13051:1 13601:1 14241:1 14971:1 
1 2831:1 3451:1 7911:1 8631:1 10491:1 11041:1 11681:1 12411:1 13051:1 13601:1 14241:1 14991:1 
1 191:1 391:1 691:1 991:1 5311:1 5561:1 5871:1 6181:1 10511:1 11041:1 11681:1 12411:1 13071:1 13601:1 14241:1 15151:1 
1 431:1 2711:1 3451:1 4451:1 5601:1 7911:1 8631:1 9661:1 10671:1 11041:1 11681:1 12431:1 13211:1 13601:1 14241:1 15151:1 
1 191:1 471:1 691:1 5271:1 5591:1 5911:1 10671:1 11041:1 11681:1 12591:1 13071:1 13601:1 14241:1 15151:1 
1 731:1 2711:1 5911:1 7901:1 10651:1 11061:1 11681:1 12591:1 13231:1 13601:1 14241:1 15151:1 
1 151:1 461:1 5301:1 5551:1 10491:1 11221:1 11701:1 12591:1 13211:1 13601:1 14241:1 15151:1 
1 771:1 2701:1 5921:1 7901:1 10511:1 11201:1 11861:1 12591:1 13051:1 13621:1 14241:1 15151:1 
1 421:1 771:1 781:1 1641:1 5541:1 5901:1 5911:1 6851:1 10651:1 11041:1 11861:1 12591:1 13071:1 13781:1 14241:1 15151:1 
1 2701:1 3411:1 7891:1 8651:1 9701:1 10491:1 11041:1 11861:1 12591:1 13231:1 13761:1 14241:1 15151:1 
1 181:1 771:1 3431:1 5351:1 5871:1 8651:1 10511:1 11041:1 11861:1 12571:1 13231:1 13601:1 14241:1 15171:1 
1 411:1 5621:1 10671:1 11041:1 11861:1 12411:1 13211:1 13601:1 14241:1 15331:1 
1 231:1 761:1 3431:1 5351:1 5981:1 8641:1 10671:1 11041:1 11841:1 12411:1 13051:1 13601:1 14261:1 15311:1 
1 3151:1 4101:1 4461:1 8361:1 9291:1 9671:1 10671:1 11041:1 11681:1 12431:1 13051:1 13601:1 14421:1 15151:1 
1 1031:1 1601:1 6221:1 6891:1 10671:1 11041:1 11681:1 12591:1 13071:1 13601:1 14421:1 15151:1 
1 3151:1 4101:1 4461:1 8351:1 9381:1 10671:1 11041:1 11681:1 12591:1 13231:1 13601:1 14421:1 15151:1 
1 731:1 4051:1 5991:1 9331:1 10651:1 11041:1 11691:1 12571:1 13231:1 13601:1 14421:1 15151:1 
1 3141:1 3421:1 3831:1 8361:1 8681:1 8981:1 10491:1 11041:1 11771:1 12431:1 13231:1 13601:1 14421:1 15151:1 
1 491:1 841:1 1721:1 3411:1 5631:1 5991:1 6931:1 8591:1 10491:1 11041:1 11771:1 12591:1 13231:1 13601:1 14461:1 15131:1 
1 501:1 2691:1 4401:1 5671:1 7941:1 9611:1 10491:1 11041:1 11771:1 12591:1 13231:1 13601:1 14761:1 15001:1 
1 231:1 1681:1 3751:1 5351:1 6901:1 9021:1 10491:1 11041:1 11801:1 12571:1 13231:1 13601:1 14571:1 15241:1 
1 1731:1 3151:1 3371:1 3831:1 6891:1 8321:1 8551:1 9021:1 10491:1 11041:1 12041:1 12411:1 13231:1 13601:1 14331:1 15261:1 
1 541:1 3111:1 5681:1 8281:1 10491:1 11041:1 12041:1 12411:1 13231:1 13601:1 14351:1 15401:1 
1 551:1 2741:1 3791:1 5721:1 7991:1 9061:1 10491:1 11041:1 12041:1 12411:1 13231:1 13601:1 14491:1 15241:1 
1 1641:1 4421:1 6851:1 9731:1 10491:1 11041:1 12041:1 12401:1 13231:1 13601:1 14331:1 15241:1 
1 851:1 4451:1 6101:1 9711:1 10491:1 11041:1 12041:1 12321:1 13231:1 13601:1 14321:1 15241:1 
1 851:1 4091:1 6041:1 9401:1 10491:1 11041:1 12041:1 12321:1 13231:1 13601:1 14241:1 15241:1 
1 591:1 2791:1 5771:1 7941:1 10491:1 11041:1 12041:1 12321:1 13231:1 13601:1 14241:1 15241:1 
1 1681:1 6981:1 10491:1 11041:1 12061:1 12321:1 13231:1 13601:1 14241:1 15241:1 
1 2741:1 3071:1 4761:1 7951:1 8361:1 10031:1 10491:1 11041:1 12221:1 12321:1 13231:1 13601:1 14241:1 15211:1 
1 3471:1 8741:1 10491:1 11041:1 12221:1 12321:1 13231:1 13601:1 14241:1 14971:1 
1 2751:1 3011:1 3511:1 7941:1 8181:1 8731:1 10491:1 11041:1 12221:1 12341:1 13231:1 13611:1 14241:1 14971:1 
1 231:1 1031:1 2081:1 5351:1 6221:1 7311:1 10511:1 11041:1 12191:1 12501:1 13231:1 13691:1 14281:1 14971:1 
1 2131:1 2971:1 7321:1 8301:1 10671:1 11041:1 11951:1 12501:1 13231:1 13681:1 14581:1 14991:1 
1 1071:1 2041:1 6291:1 7261:1 10671:1 11041:1 11951:1 12501:1 13211:1 13601:1 14441:1 15151:1 
1 2131:1 3151:1 7271:1 8361:1 10671:1 11041:1 11931:1 12501:1 13051:1 13601:1 14601:1 15151:1 
1 1931:1 2091:1 7231:1 7311:1 10671:1 11041:1 11791:1 12501:1 13051:1 13601:1 14601:1 15151:1 
1 901:1 3151:1 3511:1 4781:1 6081:1 8351:1 8731:1 10051:1 10671:1 11041:1 11931:1 12521:1 13051:1 13601:1 14601:1 15151:1 
1 1071:1 1141:1 6301:1 6341:1 10651:1 11041:1 11791:1 12681:1 13051:1 13601:1 14581:1 15151:1 
1 2131:1 4791:1 7351:1 10011:1 10491:1 11041:1 11931:1 12681:1 13051:1 13601:1 14421:1 15151:1 
1 231:1 1151:1 1191:1 2141:1 5351:1 6291:1 6301:1 7331:1 10491:1 11041:1 11781:1 12681:1 13051:1 13601:1 14431:1 15151:1 
1 3141:1 3511:1 3821:1 8311:1 8731:1 9021:1 10491:1 11041:1 11861:1 12681:1 13051:1 13601:1 14511:1 15131:1 
1 1341:1 6561:1 10481:1 11041:1 11861:1 12681:1 13051:1 13601:1 14511:1 14971:1 
1 1141:1 2151:1 3101:1 3791:1 6431:1 7371:1 8351:1 9061:1 10401:1 11041:1 11861:1 12681:1 13051:1 13601:1 14481:1 14991:1 
1 1401:1 4721:1 6651:1 9941:1 10401:1 11041:1 11881:1 12681:1 13051:1 13601:1 14241:1 15151:1 
1 1491:1 2741:1 4771:1 6611:1 7971:1 10041:1 10401:1 11041:1 12021:1 12681:1 13051:1 13601:1 14241:1 15151:1 
1 1151:1 1921:1 6291:1 7221:1 10401:1 11041:1 11881:1 12681:1 13051:1 13601:1 14241:1 15151:1 
1 2081:1 3091:1 4681:1 7271:1 8221:1 9901:1 10401:1 11041:1 12041:1 12681:1 13051:1 13601:1 14241:1 15131:1 
1 1341:1 1931:1 1941:1 6481:1 7151:1 7161:1 10401:1 11041:1 12041:1 12681:1 13051:1 13601:1 14241:1 14971:1 
1 3011:1 4641:1 8181:1 9881:1 10401:1 11041:1 12041:1 12681:1 13051:1 13631:1 14241:1 14971:1 
1 1941:1 7211:1 10401:1 11041:1 12041:1 12681:1 13071:1 13871:1 14241:1 14971:1 
1 4621:1 4731:1 9891:1 9941:1 9951:1 10401:1 11041:1 12041:1 12681:1 13231:1 13851:1 14241:1 14991:1 
1 1141:1 4631:1 6221:1 9891:1 10411:1 11041:1 12021:1 12681:1 13231:1 13691:1 14241:1 15151:1 
1 3141:1 4781:1 8231:1 10001:1 10491:1 11041:1 11861:1 12681:1 13231:1 13711:1 14241:1 15151:1 
1 4631:1 10061:1 10491:1 11041:1 11861:1 12681:1 13231:1 13871:1 14241:1 15151:1 
1 1071:1 3021:1 6431:1 8201:1 10481:1 11051:1 11861:1 12681:1 13231:1 13851:1 14241:1 15151:1 
1 231:1 2191:1 5071:1 5391:1 7371:1 10301:1 10401:1 11131:1 11841:1 12701:1 13231:1 13691:1 14241:1 15151:1 
1 5031:1 10171:1 10401:1 11131:1 11681:1 12841:1 13231:1 13691:1 14241:1 15151:1 
1 271:1 2091:1 5061:1 5381:1 7321:1 10321:1 10401:1 11131:1 11681:1 12681:1 13231:1 13691:1 14261:1 15131:1 
1 4901:1 5001:1 10091:1 10231:1 10401:1 11131:1 11681:1 12681:1 13231:1 13691:1 14421:1 14971:1 
1 71:1 5261:1 10521:1 11041:1 11681:1 12411:1 13051:1 13601:1 14241:1 14971:1 
1 2831:1 3151:1 3831:1 7951:1 8321:1 9021:1 10761:1 11041:1 11681:1 12411:1 13051:1 13601:1 14241:1 14991:1 
1 141:1 691:1 5311:1 5871:1 10751:1 11041:1 11681:1 12411:1 13051:1 13601:1 14241:1 15151:1 
1 3111:1 3451:1 3791:1 4131:1 8321:1 8631:1 9021:1 9331:1 10671:1 11041:1 11681:1 12451:1 13051:1 13601:1 14241:1 15131:1 
1 191:1 711:1 1291:1 5301:1 5891:1 6491:1 10671:1 11041:1 11681:1 12771:1 13071:1 13601:1 14261:1 14971:1 
1 3111:1 3411:1 8301:1 8581:1 10671:1 11041:1 11681:1 12751:1 13231:1 13601:1 14421:1 14971:1 
1 181:1 751:1 5311:1 5961:1 10671:1 11041:1 11681:1 12591:1 13211:1 13601:1 14411:1 14971:1 
1 3461:1 3771:1 3791:1 8631:1 8981:1 9011:1 10671:1 11041:1 11681:1 12591:1 13051:1 13601:1 14331:1 15011:1 
1 371:1 5621:1 10671:1 11041:1 11681:1 12591:1 13051:1 13601:1 14331:1 15331:1 
1 2751:1 7891:1 10671:1 11041:1 11681:1 12591:1 13051:1 13601:1 14331:1 15331:1 
1 191:1 491:1 3411:1 5261:1 5661:1 8621:1 10671:1 11041:1 11681:1 12591:1 13081:1 13601:1 14351:1 15311:1 
1 531:1 2691:1 3361:1 5701:1 7971:1 8541:1 10671:1 11041:1 11681:1 12591:1 13321:1 13601:1 14491:1 15181:1 
1 821:1 3751:1 5971:1 8971:1 10671:1 11041:1 11681:1 12591:1 13321:1 13601:1 14321:1 15401:1 
1 3091:1 3741:1 8321:1 9021:1 10671:1 11041:1 11681:1 12591:1 13321:1 13601:1 14241:1 15241:1 
1 141:1 831:1 1601:1 5301:1 5921:1 6781:1 10671:1 11041:1 11681:1 12591:1 13311:1 13601:1 14261:1 15241:1 
1 3111:1 3401:1 4461:1 8301:1 8581:1 9721:1 10671:1 11041:1 11681:1 12591:1 13231:1 13601:1 14421:1 15241:1 
1 1311:1 6551:1 10671:1 11041:1 11681:1 12591:1 13251:1 13601:1 14421:1 15241:1 
1 731:1 3091:1 5911:1 8261:1 10651:1 11041:1 11681:1 12571:1 13411:1 13601:1 14421:1 15241:1 
1 771:1 1331:1 5891:1 6531:1 10531:1 11041:1 11681:1 12411:1 13411:1 13601:1 14421:1 15241:1 
1 1371:1 3321:1 4091:1 6571:1 8511:1 9291:1 10831:1 11051:1 11681:1 12431:1 13411:1 13601:1 14421:1 15241:1 
1 181:1 1391:1 5351:1 6531:1 10671:1 11131:1 11681:1 12591:1 13411:1 13601:1 14421:1 15241:1 
1 1411:1 3051:1 3361:1 3791:1 6611:1 8251:1 8541:1 9021:1 10671:1 11131:1 11681:1 12591:1 13411:1 13601:1 14421:1 15241:1 
1 781:1 3781:1 6041:1 9021:1 10671:1 11131:1 11681:1 12591:1 13391:1 13601:1 14441:1 15221:1 
1 1451:1 3041:1 6761:1 8271:1 10671:1 11131:1 11681:1 12611:1 13231:1 13601:1 14601:1 15061:1 
1 231:1 3791:1 5301:1 8941:1 10671:1 11131:1 11681:1 12771:1 13231:1 13601:1 14601:1 15061:1 
1 1661:1 3061:1 6841:1 8151:1 10651:1 11151:1 11681:1 12751:1 13231:1 13601:1 14601:1 15061:1 
1 751:1 3711:1 5921:1 8901:1 10481:1 11311:1 11681:1 12591:1 13251:1 13601:1 14601:1 15061:1 
1 1371:1 3321:1 4401:1 6541:1 8511:1 9611:1 10401:1 11311:1 11681:1 12591:1 13391:1 13611:1 14601:1 15061:1 
1 181:1 1021:1 1381:1 5251:1 6211:1 6551:1 10401:1 11311:1 11681:1 12591:1 13231:1 13691:1 14571:1 15061:1 
1 3791:1 4361:1 8981:1 9491:1 10401:1 11311:1 11681:1 12611:1 13231:1 13691:1 14331:1 15061:1 
1 131:1 781:1 1061:1 3291:1 5211:1 5961:1 6251:1 8741:1 10401:1 11311:1 11681:1 12771:1 13261:1 13681:1 14351:1 15061:1 
1 1621:1 7091:1 10401:1 11311:1 11681:1 12771:1 13501:1 13601:1 14511:1 15061:1 
1 91:1 991:1 1391:1 5231:1 6131:1 6511:1 10401:1 11311:1 11681:1 12771:1 13481:1 13601:1 14511:1 15061:1 
1 981:1 6431:1 10401:1 11311:1 11681:1 12771:1 13321:1 13601:1 14511:1 15061:1 
1 111:1 1351:1 1671:1 3671:1 5231:1 6501:1 6841:1 8861:1 10421:1 11311:1 11681:1 12771:1 13311:1 13611:1 14511:1 15061:1 
1 1641:1 4561:1 6821:1 9781:1 10581:1 11311:1 11681:1 12771:1 13231:1 13691:1 14511:1 15061:1 
1 111:1 1611:1 2941:1 5181:1 6771:1 8111:1 10581:1 11291:1 11681:1 12771:1 13231:1 13691:1 14511:1 15061:1 
1 1651:1 3291:1 3631:1 4761:1 6861:1 8501:1 8861:1 9981:1 10601:1 11131:1 11681:1 12771:1 13231:1 13681:1 14511:1 15061:1 
1 61:1 3631:1 5171:1 9071:1 10731:1 11121:1 11681:1 12771:1 13231:1 13601:1 14511:1 15061:1 
1 2011:1 2901:1 3281:1 4721:1 7421:1 8151:1 8511:1 9941:1 10481:1 11071:1 11681:1 12771:1 13231:1 13601:1 14511:1 15061:1 
1 51:1 821:1 4521:1 5161:1 6011:1 9821:1 10401:1 11311:1 11681:1 12771:1 13231:1 13601:1 14511:1 15061:1 
1 4681:1 9881:1 10401:1 11331:1 11681:1 12771:1 13231:1 13601:1 14511:1 15061:1 
1 41:1 1921:1 2941:1 5181:1 7141:1 8191:1 10421:1 11471:1 11681:1 12771:1 13231:1 13601:1 14511:1 15061:1 
1 571:1 5651:1 10581:1 11311:1 11681:1 12771:1 13231:1 13601:1 14511:1 15061:1 
1 1101:1 4621:1 6221:1 9891:1 10601:1 11291:1 11681:1 12771:1 13211:1 13601:1 14511:1 15061:1 
1 901:1 2981:1 6031:1 8231:1 10761:1 11151:1 11681:1 12771:1 13051:1 13601:1 14491:1 15061:1 
1 1991:1 7281:1 10761:1 11311:1 11681:1 12771:1 13051:1 13601:1 14351:1 15061:1 
1 3021:1 3751:1 4631:1 8281:1 8971:1 9881:1 10761:1 11311:1 11681:1 12751:1 13051:1 13601:1 14511:1 15061:1 
1 871:1 2101:1 5961:1 7361:1 10761:1 11311:1 11681:1 12591:1 13051:1 13601:1 14511:1 15061:1 
1 821:1 3071:1 3741:1 5921:1 8271:1 8931:1 10761:1 11311:1 11681:1 12611:1 13071:1 13601:1 14491:1 15081:1 
1 781:1 1021:1 1941:1 5891:1 6211:1 7161:1 10761:1 11311:1 11681:1 12771:1 13231:1 13601:1 14331:1 15241:1 
1 2181:1 3061:1 4791:1 7421:1 8321:1 10011:1 10761:1 11311:1 11681:1 12771:1 13231:1 13601:1 14321:1 15241:1 
1 751:1 4621:1 5921:1 9871:1 10781:1 11291:1 11681:1 12771:1 13211:1 13601:1 14241:1 15241:1 
1 3291:1 3701:1 4611:1 8591:1 8941:1 9861:1 10941:1 11121:1 11681:1 12751:1 13051:1 13601:1 14241:1 15241:1 
1 1061:1 1071:1 1981:1 6201:1 7151:1 10941:1 11041:1 11681:1 12591:1 13051:1 13601:1 14241:1 15241:1 
1 521:1 5771:1 10941:1 11041:1 11681:1 12591:1 13051:1 13601:1 14241:1 15241:1 
1 781:1 1971:1 3711:1 5891:1 7161:1 8901:1 10941:1 11041:1 11681:1 12591:1 13071:1 13601:1 14241:1 15241:1 
1 891:1 2771:1 6101:1 7941:1 10941:1 11041:1 11681:1 12591:1 13231:1 13601:1 14241:1 15241:1 
1 751:1 3351:1 5921:1 8741:1 10941:1 11041:1 11681:1 12591:1 13231:1 13601:1 14241:1 15241:1 
1 2741:1 7871:1 10941:1 11061:1 11681:1 12591:1 13231:1 13601:1 14241:1 15211:1 
1 61:1 781:1 5271:1 5911:1 10891:1 11221:1 11681:1 12591:1 13231:1 13601:1 14241:1 14971:1 
1 3051:1 3111:1 5101:1 8271:1 8301:1 10331:1 10491:1 11221:1 11681:1 12611:1 13231:1 13601:1 14241:1 14991:1 
1 151:1 771:1 4921:1 5311:1 5921:1 10201:1 10511:1 11221:1 11681:1 12771:1 13231:1 13601:1 14241:1 15151:1 
1 5071:1 5111:1 10291:1 10301:1 10671:1 11221:1 11681:1 12771:1 13231:1 13601:1 14241:1 15171:1 
1 191:1 781:1 3061:1 5271:1 5961:1 8281:1 10651:1 11221:1 11691:1 12751:1 13231:1 13601:1 14241:1 15331:1 
1 3731:1 4931:1 5021:1 5031:1 8921:1 10211:1 10261:1 10301:1 10491:1 11241:1 11771:1 12591:1 13231:1 13601:1 14241:1 15311:1 
1 821:1 4941:1 5841:1 10201:1 10511:1 11381:1 11761:1 12591:1 13231:1 13601:1 14241:1 15151:1 
1 3071:1 5031:1 8191:1 10261:1 10671:1 11221:1 11681:1 12571:1 13231:1 13601:1 14241:1 15151:1 
1 151:1 1051:1 5261:1 6221:1 10701:1 11221:1 11681:1 12411:1 13231:1 13601:1 14241:1 15151:1 
1 1051:1 2981:1 3091:1 4931:1 6241:1 8181:1 8261:1 10191:1 10921:1 11241:1 11681:1 12411:1 13231:1 13601:1 14241:1 15131:1 
1 141:1 2971:1 5211:1 8141:1 10761:1 11381:1 11681:1 12411:1 13231:1 13601:1 14241:1 14971:1 
1 3051:1 4991:1 8241:1 10251:1 10761:1 11221:1 11681:1 12411:1 13231:1 13601:1 14241:1 14991:1 
1 1091:1 4921:1 6271:1 10271:1 10761:1 11221:1 11681:1 12411:1 13231:1 13601:1 14241:1 15151:1 
1 1071:1 3031:1 6301:1 8321:1 10761:1 11221:1 11681:1 12411:1 13211:1 13601:1 14241:1 15171:1 
1 1961:1 7241:1 10761:1 11221:1 11681:1 12411:1 13071:1 13601:1 14241:1 15331:1 
1 1151:1 6431:1 10761:1 11221:1 11681:1 12411:1 13231:1 13601:1 14241:1 15331:1 
1 1121:1 1981:1 3691:1 6281:1 7171:1 8881:1 10761:1 11221:1 11681:1 12411:1 13211:1 13601:1 14241:1 15331:1 
1 4991:1 5001:1 10181:1 10281:1 10761:1 11221:1 11681:1 12431:1 13051:1 13611:1 14241:1 15331:1 
1 701:1 1931:1 5851:1 7191:1 10741:1 11221:1 11681:1 12591:1 13071:1 13691:1 14241:1 15331:1 
1 2061:1 3111:1 7231:1 8231:1 10581:1 11221:1 11681:1 12591:1 13211:1 13711:1 14241:1 15311:1 
1 1921:1 7201:1 10581:1 11221:1 11681:1 12591:1 13051:1 13871:1 14241:1 15151:1 
1 5041:1 10151:1 10581:1 11221:1 11681:1 12591:1 13051:1 13871:1 14241:1 15151:1 
1 711:1 1991:1 2051:1 5841:1 7161:1 7311:1 10601:1 11221:1 11681:1 12591:1 13071:1 13871:1 14251:1 15151:1 
1 4881:1 10071:1 10761:1 11221:1 11681:1 12591:1 13231:1 13871:1 14331:1 15151:1 
1 71:1 5351:1 10491:1 11041:1 11681:1 12411:1 13051:1 13601:1 14261:1 14971:1 
1 2831:1 3151:1 3451:1 7991:1 8361:1 8631:1 10491:1 11041:1 11681:1 12441:1 13051:1 13601:1 14421:1 14991:1 
1 371:1 691:1 991:1 1641:1 5541:1 5871:1 6181:1 6851:1 10511:1 11041:1 11681:1 12681:1 13071:1 13601:1 14421:1 15151:1 
1 2791:1 3451:1 7911:1 8631:1 10671:1 11041:1 11681:1 12671:1 13231:1 13601:1 14421:1 15151:1 
1 231:1 1681:1 3151:1 5391:1 6891:1 8321:1 10671:1 11041:1 11681:1 12611:1 13231:1 13601:1 14401:1 15151:1 
1 2711:1 3111:1 3831:1 7911:1 8311:1 8981:1 10671:1 11041:1 11681:1 12751:1 13231:1 13601:1 14241:1 15171:1 
1 271:1 1611:1 3751:1 5351:1 6821:1 8941:1 10671:1 11041:1 11681:1 12591:1 13231:1 13601:1 14261:1 15311:1 
1 2711:1 3711:1 7891:1 8931:1 10671:1 11041:1 11681:1 12591:1 13231:1 13601:1 14421:1 15171:1 
1 231:1 681:1 3701:1 5301:1 5861:1 8891:1 10671:1 11041:1 11681:1 12591:1 13231:1 13611:1 14421:1 15311:1 
1 3101:1 3411:1 3661:1 8301:1 8671:1 8941:1 10671:1 11041:1 11681:1 12591:1 13231:1 13681:1 14421:1 15151:1 
1 3711:1 8891:1 10671:1 11041:1 11681:1 12591:1 13231:1 13611:1 14421:1 15151:1 
1 3661:1 8981:1 10671:1 11041:1 11681:1 12611:1 13231:1 13681:1 14421:1 15151:1 
1 181:1 411:1 1601:1 5311:1 5501:1 6851:1 10671:1 11041:1 11681:1 12771:1 13211:1 13601:1 14401:1 15151:1 
1 1721:1 2691:1 6941:1 7941:1 10671:1 11041:1 11681:1 12771:1 13051:1 13601:1 14241:1 15181:1 
1 191:1 1681:1 3751:1 5351:1 6891:1 8941:1 10671:1 11041:1 11701:1 12751:1 13051:1 13601:1 14241:1 15421:1 
1 1771:1 2741:1 3711:1 6951:1 7951:1 8931:1 10671:1 11041:1 11861:1 12611:1 13051:1 13601:1 14251:1 15391:1 
1 231:1 3411:1 5331:1 8591:1 10671:1 11041:1 11841:1 12771:1 13051:1 13601:1 14361:1 15131:1 
1 1781:1 2751:1 3831:1 6991:1 7941:1 9061:1 10671:1 11041:1 11681:1 12771:1 13051:1 13601:1 14581:1 15001:1 
1 211:1 371:1 1821:1 3371:1 5291:1 5541:1 7001:1 8551:1 10671:1 11041:1 11681:1 12771:1 13071:1 13601:1 14411:1 15241:1 
1 1831:1 2741:1 3831:1 7091:1 7901:1 8981:1 10671:1 11041:1 11681:1 12771:1 13231:1 13621:1 14321:1 15231:1 
1 3331:1 8501:1 10671:1 11041:1 11681:1 12771:1 13231:1 13781:1 14241:1 15151:1 
1 731:1 3091:1 5911:1 8261:1 10651:1 11041:1 11681:1 12751:1 13231:1 13781:1 14241:1 15151:1 
1 771:1 1611:1 5871:1 6821:1 10511:1 11041:1 11681:1 12591:1 13231:1 13781:1 14241:1 15151:1 
1 731:1 2701:1 3051:1 5881:1 7891:1 8181:1 10651:1 11051:1 11681:1 12591:1 13231:1 13761:1 14241:1 15151:1 
1 171:1 741:1 1601:1 5261:1 5891:1 6811:1 10511:1 11131:1 11681:1 12591:1 13261:1 13601:1 14241:1 15151:1 
1 411:1 2691:1 5621:1 7941:1 10671:1 11131:1 11681:1 12591:1 13481:1 13601:1 14241:1 15181:1 
1 491:1 1721:1 5581:1 6931:1 10671:1 11131:1 11681:1 12591:1 13321:1 13601:1 14241:1 15421:1 
1 2741:1 3281:1 7911:1 8421:1 10671:1 11131:1 11681:1 12591:1 13321:1 13601:1 14241:1 15391:1 
1 141:1 451:1 5301:1 5491:1 10671:1 11131:1 11681:1 12591:1 13291:1 13601:1 14261:1 15151:1 
1 751:1 2711:1 3701:1 5891:1 7871:1 8891:1 10651:1 11181:1 11681:1 12571:1 13071:1 13601:1 14421:1 15151:1 
1 181:1 751:1 5271:1 5881:1 10491:1 11581:1 11681:1 12411:1 13211:1 13601:1 14401:1 15151:1 
1 1341:1 3451:1 6761:1 8631:1 10481:1 11581:1 11681:1 12431:1 13051:1 13601:1 14241:1 15151:1 
1 151:1 361:1 3201:1 3661:1 5261:1 5531:1 8461:1 8881:1 10421:1 11561:1 11681:1 12591:1 13051:1 13601:1 14241:1 15151:1 
1 4101:1 4441:1 4461:1 9301:1 9661:1 9671:1 10581:1 11401:1 11681:1 12591:1 13051:1 13601:1 14241:1 15151:1 
1 401:1 741:1 3241:1 5541:1 5911:1 8501:1 10581:1 11401:1 11681:1 12591:1 13071:1 13601:1 14241:1 15151:1 
1 2671:1 2971:1 3651:1 7871:1 8211:1 8921:1 10581:1 11361:1 11681:1 12591:1 13231:1 13621:1 14241:1 15151:1 
1 141:1 771:1 1031:1 1631:1 5251:1 5901:1 6171:1 6841:1 10571:1 11041:1 11681:1 12591:1 13231:1 13781:1 14241:1 15151:1 
1 1031:1 1341:1 2671:1 6141:1 6541:1 7821:1 10491:1 11041:1 11681:1 12591:1 13211:1 13781:1 14241:1 15151:1 
1 761:1 991:1 1671:1 5911:1 6221:1 6841:1 10491:1 11041:1 11681:1 12591:1 13071:1 13781:1 14241:1 15151:1 
1 411:1 1651:1 5501:1 6811:1 10491:1 11041:1 11681:1 12591:1 13211:1 13781:1 14241:1 15151:1 
1 371:1 1021:1 1621:1 5541:1 6181:1 6801:1 10481:1 11041:1 11681:1 12591:1 13071:1 13781:1 14241:1 15151:1 
1 411:1 1381:1 2621:1 5551:1 6501:1 7851:1 10401:1 11041:1 11681:1 12591:1 13231:1 13781:1 14241:1 15151:1 
1 3001:1 8181:1 10401:1 11051:1 11681:1 12591:1 13231:1 13781:1 14241:1 15151:1 
1 771:1 2651:1 3691:1 5951:1 7891:1 8891:1 10401:1 11151:1 11681:1 12591:1 13231:1 13761:1 14241:1 15151:1 
1 131:1 421:1 1651:1 2971:1 5211:1 5541:1 6831:1 8141:1 10441:1 11291:1 11681:1 12591:1 13251:1 13601:1 14241:1 15151:1 
1 811:1 2691:1 6101:1 7941:1 10761:1 11131:1 11681:1 12591:1 13411:1 13601:1 14241:1 15181:1 
1 1031:1 3661:1 6221:1 9071:1 10781:1 11121:1 11681:1 12591:1 13411:1 13601:1 14241:1 15421:1 
1 2741:1 4061:1 7891:1 9221:1 10941:1 11051:1 11681:1 12591:1 13411:1 13601:1 14241:1 15391:1 
1 1071:1 3981:1 6211:1 9401:1 10941:1 11121:1 11681:1 12591:1 13391:1 13601:1 14241:1 15151:1 
1 411:1 5621:1 10941:1 11041:1 11681:1 12591:1 13211:1 13601:1 14241:1 15151:1 
1 491:1 5561:1 10941:1 11041:1 11681:1 12591:1 13071:1 13601:1 14241:1 15151:1 
1 2691:1 3281:1 7911:1 8471:1 10941:1 11041:1 11681:1 12591:1 13231:1 13601:1 14241:1 15151:1 
1 431:1 1061:1 5541:1 6241:1 10941:1 11041:1 11681:1 12591:1 13231:1 13601:1 14241:1 15151:1 
1 1091:1 2711:1 4771:1 6281:1 7891:1 10021:1 10941:1 11041:1 11681:1 12591:1 13231:1 13601:1 14241:1 15151:1 
1 1131:1 6221:1 10941:1 11041:1 11681:1 12591:1 13251:1 13601:1 14241:1 15151:1 
1 411:1 5621:1 10941:1 11041:1 11681:1 12591:1 13391:1 13601:1 14241:1 15151:1 
1 491:1 4721:1 5691:1 9941:1 10941:1 11041:1 11681:1 12591:1 13231:1 13601:1 14241:1 15151:1 
1 2691:1 7901:1 10941:1 11061:1 11681:1 12591:1 13231:1 13601:1 14241:1 15151:1 
1 561:1 5581:1 10941:1 11221:1 11681:1 12591:1 13231:1 13601:1 14241:1 15151:1 
1 1341:1 3251:1 3751:1 6491:1 8421:1 8941:1 10941:1 11221:1 11681:1 12591:1 13211:1 13601:1 14241:1 15131:1 
1 451:1 1331:1 5461:1 6501:1 10941:1 11221:1 11681:1 12591:1 13071:1 13601:1 14241:1 14971:1 
1 1071:1 2701:1 3711:1 6211:1 7871:1 8981:1 10921:1 11221:1 11681:1 12591:1 13231:1 13601:1 14241:1 14991:1 
1 331:1 1061:1 1981:1 3201:1 5501:1 6171:1 7171:1 8431:1 10761:1 11221:1 11681:1 12591:1 13231:1 13601:1 14241:1 15151:1 
1 1071:1 6211:1 10761:1 11221:1 11681:1 12591:1 13211:1 13601:1 14241:1 15151:1 
1 371:1 1061:1 3211:1 5541:1 6241:1 8471:1 10761:1 11221:1 11681:1 12591:1 13071:1 13601:1 14241:1 15151:1 
1 2671:1 7891:1 10761:1 11201:1 11681:1 12591:1 13231:1 13601:1 14241:1 15151:1 
1 721:1 1991:1 5951:1 7211:1 10761:1 11041:1 11681:1 12591:1 13251:1 13601:1 14241:1 15151:1 
1 411:1 5621:1 10761:1 11041:1 11681:1 12591:1 13391:1 13601:1 14241:1 15151:1 
1 491:1 1951:1 5691:1 7171:1 10761:1 11041:1 11681:1 12591:1 13231:1 13601:1 14241:1 15151:1 
1 2691:1 7871:1 10761:1 11061:1 11681:1 12591:1 13231:1 13601:1 14241:1 15151:1 
1 561:1 5581:1 10761:1 11221:1 11681:1 12591:1 13231:1 13601:1 14241:1 15151:1 
1 1341:1 3251:1 6451:1 8421:1 10761:1 11221:1 11681:1 12591:1 13211:1 13601:1 14241:1 15151:1 
1 451:1 1291:1 1941:1 5501:1 6461:1 7161:1 10761:1 11221:1 11681:1 12591:1 13071:1 13601:1 14241:1 15151:1 
1 1021:1 1991:1 2671:1 6211:1 7131:1 7821:1 10741:1 11221:1 11681:1 12591:1 13231:1 13601:1 14241:1 15151:1 
1 371:1 1981:1 2031:1 5461:1 7171:1 7211:1 10601:1 11221:1 11681:1 12591:1 13201:1 13601:1 14241:1 15151:1 
1 2621:1 2931:1 4101:1 7811:1 8101:1 9261:1 10761:1 11201:1 11681:1 12591:1 12961:1 13601:1 14241:1 15151:1 
1 331:1 3201:1 5541:1 8471:1 10761:1 11041:1 11681:1 12591:1 12971:1 13601:1 14241:1 15151:1 
1 3751:1 4021:1 8861:1 9221:1 10761:1 11041:1 11681:1 12591:1 13051:1 13631:1 14241:1 15121:1 
1 1301:1 3981:1 6501:1 9211:1 10761:1 11041:1 11681:1 12591:1 13071:1 13851:1 14241:1 14881:1 
1 3971:1 4681:1 9221:1 9921:1 10761:1 11041:1 11681:1 12591:1 13231:1 13711:1 14241:1 14891:1 
1 2081:1 7361:1 10761:1 11041:1 11681:1 12591:1 13231:1 13871:1 14251:1 14971:1 
1 3411:1 8691:1 10761:1 11041:1 11681:1 12571:1 13231:1 13871:1 14331:1 14971:1 
1 811:1 6011:1 10761:1 11041:1 11681:1 12411:1 13231:1 13871:1 14351:1 14971:1 
1 2181:1 2891:1 3471:1 4741:1 7321:1 8111:1 8681:1 10011:1 10761:1 11041:1 11681:1 12401:1 13231:1 13871:1 14491:1 14991:1 
1 71:1 691:1 5311:1 5871:1 10511:1 11041:1 11681:1 12411:1 13051:1 13601:1 14241:1 14971:1 
1 2831:1 3451:1 7911:1 8631:1 10671:1 11041:1 11681:1 12411:1 13051:1 13601:1 14241:1 14991:1 
1 391:1 691:1 1311:1 5561:1 5871:1 6511:1 10691:1 11041:1 11681:1 12411:1 13071:1 13601:1 14241:1 15151:1 
1 431:1 3451:1 5601:1 8631:1 10831:1 11041:1 11681:1 12431:1 13231:1 13601:1 14241:1 15151:1 
1 191:1 471:1 1311:1 5351:1 5641:1 6551:1 10691:1 11041:1 11701:1 12591:1 13231:1 13601:1 14241:1 15151:1 
1 511:1 3151:1 5641:1 8361:1 10851:1 11041:1 11861:1 12591:1 13231:1 13601:1 14241:1 15151:1 
1 511:1 5631:1 10851:1 11041:1 11881:1 12591:1 13231:1 13601:1 14241:1 15151:1 
1 2711:1 4441:1 7951:1 9661:1 10851:1 11041:1 12041:1 12591:1 13231:1 13601:1 14241:1 15151:1 
1 731:1 5981:1 10831:1 11041:1 12041:1 12591:1 13231:1 13601:1 14241:1 15151:1 
1 501:1 2751:1 5641:1 7911:1 10671:1 11041:1 12021:1 12591:1 13231:1 13601:1 14241:1 15151:1 
1 511:1 5631:1 10671:1 11041:1 11881:1 12591:1 13231:1 13601:1 14241:1 15151:1 
1 2711:1 3151:1 4101:1 7951:1 8361:1 9301:1 10671:1 11041:1 12041:1 12571:1 13231:1 13601:1 14241:1 15151:1 
1 1021:1 1621:1 1641:1 6251:1 6831:1 6851:1 10691:1 11041:1 12041:1 12411:1 13231:1 13601:1 14241:1 15151:1 
1 501:1 2751:1 5641:1 7911:1 10851:1 11041:1 12021:1 12411:1 13231:1 13601:1 14241:1 15151:1 
1 511:1 5631:1 10851:1 11041:1 11881:1 12411:1 13231:1 13601:1 14241:1 15151:1 
1 1101:1 2711:1 3151:1 6241:1 7901:1 8351:1 10831:1 11061:1 12041:1 12431:1 13231:1 13601:1 14241:1 15151:1 
1 231:1 501:1 1091:1 5301:1 5621:1 6201:1 10691:1 11221:1 12021:1 12591:1 13231:1 13601:1 14241:1 15151:1 
1 1051:1 2701:1 6161:1 7891:1 10831:1 11201:1 11861:1 12591:1 13231:1 13601:1 14241:1 15151:1 
1 841:1 4401:1 5901:1 9571:1 10671:1 11041:1 11861:1 12591:1 13231:1 13601:1 14241:1 15151:1 
1 491:1 2691:1 3411:1 4411:1 5661:1 7931:1 8621:1 9651:1 10671:1 11041:1 11881:1 12571:1 13231:1 13601:1 14241:1 15151:1 
1 4061:1 9221:1 10671:1 11051:1 12041:1 12411:1 13231:1 13601:1 14241:1 15151:1 
1 531:1 2731:1 5681:1 7981:1 10671:1 11131:1 12041:1 12411:1 13231:1 13601:1 14241:1 15151:1 
1 181:1 551:1 5311:1 5601:1 10671:1 11131:1 12001:1 12411:1 13231:1 13601:1 14241:1 15151:1 
1 2781:1 3401:1 3981:1 7901:1 8631:1 9211:1 10671:1 11141:1 11681:1 12431:1 13231:1 13601:1 14241:1 15151:1 
1 191:1 471:1 1011:1 5291:1 5561:1 6201:1 10691:1 11221:1 11681:1 12591:1 13251:1 13601:1 14241:1 15151:1 
1 431:1 2701:1 5601:1 7911:1 10851:1 11201:1 11681:1 12591:1 13391:1 13601:1 14241:1 15151:1 
1 471:1 1351:1 1391:1 5551:1 6511:1 6551:1 10831:1 11041:1 11681:1 12591:1 13251:1 13601:1 14241:1 15151:1 
1 421:1 2711:1 5591:1 7911:1 10671:1 11041:1 11681:1 12591:1 13431:1 13601:1 14241:1 15151:1 
1 461:1 1391:1 5551:1 6511:1 10671:1 11041:1 11681:1 12591:1 13551:1 13601:1 14241:1 15151:1 
1 421:1 4401:1 5591:1 9611:1 10671:1 11041:1 11681:1 12591:1 13251:1 13601:1 14241:1 15151:1 
1 461:1 731:1 5541:1 5901:1 10671:1 11041:1 11681:1 12591:1 13391:1 13601:1 14241:1 15151:1 
1 2711:1 3141:1 4461:1 7901:1 8311:1 9671:1 10671:1 11061:1 11681:1 12591:1 13231:1 13601:1 14241:1 15151:1 
1 761:1 4401:1 5941:1 9611:1 10671:1 11221:1 11681:1 12591:1 13231:1 13601:1 14241:1 15151:1 
1 3101:1 3831:1 4421:1 8271:1 8981:1 9631:1 10671:1 11221:1 11681:1 12611:1 13231:1 13601:1 14241:1 15151:1 
1 801:1 4361:1 5861:1 9531:1 10671:1 11221:1 11681:1 12771:1 13231:1 13601:1 14241:1 15151:1 
1 3061:1 8191:1 10671:1 11221:1 11681:1 12751:1 13231:1 13601:1 14241:1 15151:1 
1 1351:1 1611:1 1661:1 6501:1 6791:1 6821:1 10671:1 11221:1 11681:1 12591:1 13231:1 13601:1 14241:1 15151:1 
1 2981:1 3411:1 4361:1 4381:1 8201:1 8641:1 9591:1 9621:1 10671:1 11241:1 11681:1 12611:1 13231:1 13601:1 14241:1 15151:1 
1 171:1 721:1 4281:1 4341:1 5301:1 5901:1 9541:1 9601:1 10671:1 11401:1 11701:1 12751:1 13231:1 13601:1 14241:1 15151:1 
1 1051:1 2991:1 3971:1 6241:1 8181:1 9251:1 10651:1 11401:1 11861:1 12591:1 13231:1 13601:1 14241:1 15151:1 
1 1341:1 1351:1 1621:1 6541:1 6551:1 6801:1 6831:1 10511:1 11401:1 11861:1 12591:1 13231:1 13601:1 14241:1 15151:1 
1 1091:1 2971:1 4011:1 4371:1 6281:1 8221:1 9291:1 9611:1 10671:1 11381:1 11861:1 12591:1 13231:1 13601:1 14241:1 15151:1 
1 4291:1 9731:1 10671:1 11221:1 11861:1 12591:1 13231:1 13601:1 14241:1 15151:1 
1 1391:1 4351:1 6591:1 9601:1 10651:1 11221:1 11861:1 12591:1 13231:1 13601:1 14241:1 15151:1 
1 1381:1 1431:1 4351:1 6551:1 9561:1 10511:1 11221:1 11861:1 12591:1 13251:1 13601:1 14241:1 15151:1 
1 3411:1 4311:1 8611:1 9561:1 10671:1 11221:1 11861:1 12591:1 13411:1 13601:1 14241:1 15131:1 
1 411:1 761:1 5601:1 5941:1 10671:1 11221:1 11861:1 12591:1 13391:1 13601:1 14241:1 14971:1 
1 1661:1 3011:1 6791:1 8151:1 10651:1 11241:1 11861:1 12591:1 13231:1 13601:1 14241:1 14971:1 
1 801:1 1131:1 5991:1 6201:1 10511:1 11401:1 11861:1 12591:1 13231:1 13601:1 14251:1 14971:1 
1 3391:1 3751:1 3831:1 8651:1 8981:1 9021:1 10671:1 11401:1 11861:1 12591:1 13231:1 13601:1 14331:1 14991:1 
1 1021:1 1611:1 6251:1 6831:1 10671:1 11401:1 11861:1 12591:1 13251:1 13601:1 14331:1 15151:1 
1 1051:1 1651:1 2941:1 6241:1 6781:1 8181:1 10651:1 11401:1 11861:1 12591:1 13411:1 13601:1 14331:1 15151:1 
1 1101:1 1391:1 1621:1 6291:1 6541:1 6831:1 10511:1 11401:1 11861:1 12591:1 13371:1 13601:1 14351:1 15151:1 
1 1381:1 1661:1 2971:1 6531:1 6791:1 8151:1 10671:1 11401:1 11861:1 12591:1 13051:1 13601:1 14511:1 15151:1 
1 1141:1 1631:1 4101:1 6371:1 6841:1 9331:1 10671:1 11401:1 11861:1 12591:1 13051:1 13601:1 14511:1 15131:1 
1 3431:1 3751:1 4091:1 4461:1 8691:1 8981:1 9321:1 9721:1 10671:1 11401:1 11861:1 12591:1 13051:1 13601:1 14511:1 14961:1 
1 1661:1 1671:1 6881:1 6951:1 10671:1 11401:1 11861:1 12591:1 13051:1 13601:1 14531:1 14881:1 
1 1221:1 3471:1 3791:1 6331:1 8681:1 8981:1 10671:1 11401:1 11861:1 12591:1 13051:1 13601:1 14671:1 14911:1 
1 1601:1 1641:1 6851:1 6861:1 10671:1 11401:1 11861:1 12591:1 13071:1 13601:1 14511:1 15151:1 
1 1391:1 2941:1 4451:1 6511:1 8201:1 9711:1 10651:1 11401:1 11861:1 12591:1 13231:1 13601:1 14511:1 15151:1 
1 1611:1 1621:1 1681:1 6801:1 6831:1 6891:1 10511:1 11401:1 11861:1 12591:1 13231:1 13601:1 14511:1 15151:1 
1 1661:1 2991:1 4311:1 6791:1 8151:1 9521:1 10651:1 11421:1 11861:1 12591:1 13231:1 13601:1 14511:1 15151:1 
1 1351:1 1721:1 4271:1 6551:1 6971:1 9561:1 10511:1 11561:1 11861:1 12591:1 13231:1 13601:1 14511:1 15151:1 
1 1391:1 2941:1 4081:1 6511:1 8201:1 9331:1 10651:1 11401:1 11861:1 12591:1 13231:1 13601:1 14511:1 15151:1 
1 1601:1 1801:1 6831:1 7011:1 10511:1 11401:1 11861:1 12591:1 13231:1 13601:1 14511:1 15151:1 
1 1351:1 1661:1 2991:1 6511:1 6871:1 8151:1 10651:1 11401:1 11861:1 12591:1 13231:1 13601:1 14511:1 15151:1 
1 1351:1 1631:1 1701:1 6511:1 6841:1 6881:1 10511:1 11401:1 11861:1 12591:1 13231:1 13601:1 14511:1 15151:1 
1 1371:1 3421:1 6491:1 8681:1 10651:1 11401:1 11861:1 12611:1 13231:1 13601:1 14511:1 15151:1 
1 1091:1 1671:1 1691:1 6201:1 6831:1 6891:1 10511:1 11401:1 11861:1 12771:1 13231:1 13601:1 14511:1 15151:1 
1 1051:1 1331:1 2941:1 6241:1 6451:1 8181:1 10651:1 11401:1 11861:1 12771:1 13231:1 13601:1 14511:1 15151:1 
1 1351:1 1621:1 1721:1 6541:1 6831:1 6931:1 10511:1 11401:1 11861:1 12771:1 13231:1 13601:1 14511:1 15151:1 
1 1661:1 2971:1 4051:1 6791:1 8151:1 9301:1 10651:1 11401:1 11861:1 12751:1 13231:1 13601:1 14511:1 15151:1 
1 761:1 1091:1 1621:1 1681:1 5911:1 6201:1 6801:1 6891:1 10511:1 11401:1 11861:1 12591:1 13231:1 13601:1 14511:1 15151:1 
1 1711:1 4311:1 6841:1 9521:1 10651:1 11421:1 11861:1 12591:1 13231:1 13601:1 14511:1 15151:1 
1 1291:1 1381:1 1661:1 4271:1 6491:1 6551:1 6841:1 9561:1 10511:1 11561:1 11861:1 12591:1 13211:1 13601:1 14511:1 15151:1 
1 1181:1 6381:1 10671:1 11401:1 11861:1 12591:1 13051:1 13601:1 14511:1 15151:1 
1 851:1 1761:1 3751:1 6011:1 6971:1 8941:1 10671:1 11401:1 11861:1 12591:1 13051:1 13601:1 14511:1 15131:1 
1 1781:1 4091:1 6991:1 9291:1 10671:1 11401:1 11861:1 12591:1 13051:1 13601:1 14491:1 14991:1 
1 471:1 1671:1 3711:1 5641:1 6921:1 8931:1 10671:1 11401:1 11861:1 12591:1 13051:1 13601:1 14331:1 15171:1 
1 1051:1 2941:1 4451:1 6191:1 8181:1 9711:1 10651:1 11401:1 11861:1 12591:1 13051:1 13601:1 14331:1 15331:1 
1 511:1 1631:1 3701:1 5631:1 6831:1 8891:1 10511:1 11401:1 11861:1 12591:1 13051:1 13611:1 14351:1 15311:1 
1 1231:1 4461:1 6381:1 9721:1 10671:1 11401:1 11861:1 12591:1 13051:1 13691:1 14511:1 15151:1 
1 3661:1 9071:1 10671:1 11401:1 11861:1 12591:1 13051:1 13681:1 14511:1 15151:1 
1 1801:1 4051:1 4361:1 4461:1 6981:1 9331:1 9621:1 9701:1 10671:1 11401:1 11861:1 12611:1 13051:1 13601:1 14531:1 15131:1 
1 1821:1 7041:1 10671:1 11401:1 11861:1 12771:1 13051:1 13601:1 14691:1 14971:1 
1 771:1 1811:1 2971:1 4091:1 5951:1 6991:1 8221:1 9291:1 10671:1 11381:1 11861:1 12771:1 13051:1 13601:1 14671:1 14991:1 
1 1821:1 4051:1 6981:1 9251:1 10671:1 11221:1 11861:1 12771:1 13051:1 13601:1 14531:1 15131:1 
1 1871:1 3461:1 3751:1 4451:1 7031:1 8671:1 8941:1 9711:1 10671:1 11221:1 11861:1 12751:1 13051:1 13601:1 14711:1 14961:1 
1 4011:1 9401:1 10671:1 11221:1 11861:1 12591:1 13051:1 13601:1 14871:1 14881:1 
1 4471:1 9681:1 10671:1 11221:1 11861:1 12591:1 13051:1 13601:1 14871:1 14881:1 
1 4431:1 9731:1 10671:1 11221:1 11861:1 12591:1 13051:1 13601:1 14871:1 14881:1 
1 2181:1 3451:1 4061:1 4461:1 7321:1 8681:1 9311:1 9701:1 10671:1 11221:1 11861:1 12611:1 13051:1 13601:1 14851:1 14891:1 
1 1331:1 2131:1 2141:1 6531:1 7301:1 7351:1 10691:1 11221:1 11861:1 12771:1 13051:1 13601:1 14671:1 14971:1 
1 2171:1 3461:1 4071:1 4471:1 7361:1 8691:1 9301:1 9711:1 10851:1 11221:1 11861:1 12751:1 13051:1 13601:1 14531:1 14961:1 
1 501:1 2181:1 5711:1 7351:1 10851:1 11221:1 11861:1 12591:1 13051:1 13601:1 14671:1 14881:1 
1 1231:1 3461:1 3471:1 4061:1 6421:1 8691:1 8731:1 9311:1 10851:1 11221:1 11861:1 12591:1 13051:1 13601:1 14511:1 14881:1 
1 4461:1 9731:1 10851:1 11221:1 11861:1 12591:1 13051:1 13601:1 14511:1 14881:1 
1 1271:1 3471:1 3511:1 4071:1 6421:1 8691:1 8721:1 9351:1 10851:1 11221:1 11861:1 12571:1 13051:1 13601:1 14511:1 14881:1 
1 581:1 3501:1 5661:1 8741:1 10851:1 11221:1 11861:1 12411:1 13051:1 13601:1 14511:1 14881:1 
1 3471:1 4111:1 8721:1 9351:1 10851:1 11221:1 11861:1 12411:1 13051:1 13601:1 14511:1 14881:1 
1 4111:1 9401:1 10851:1 11221:1 11861:1 12411:1 13051:1 13601:1 14511:1 14881:1 
1 1051:1 3011:1 6161:1 8181:1 10831:1 11241:1 11861:1 12411:1 13051:1 13601:1 14511:1 14881:1 
1 531:1 2491:1 5711:1 7701:1 10671:1 11401:1 11861:1 12411:1 13051:1 13601:1 14511:1 14881:1 
1 1041:1 2971:1 3711:1 6201:1 8221:1 8981:1 10691:1 11381:1 11861:1 12431:1 13051:1 13601:1 14511:1 14881:1 
1 2511:1 7741:1 10851:1 11221:1 11861:1 12591:1 13051:1 13601:1 14511:1 14881:1 
1 71:1 5311:1 10491:1 11041:1 11681:1 12411:1 13051:1 13601:1 14241:1 14971:1 
1 2831:1 3441:1 3451:1 3831:1 7991:1 8621:1 8631:1 9021:1 10491:1 11041:1 11681:1 12441:1 13051:1 13601:1 14241:1 14991:1 
1 191:1 691:1 1641:1 5311:1 5871:1 6821:1 10511:1 11041:1 11681:1 12681:1 13071:1 13601:1 14241:1 15151:1 
1 2791:1 7871:1 9651:1 10671:1 11061:1 11681:1 12651:1 13231:1 13601:1 14241:1 15151:1 
1 191:1 3411:1 5301:1 8591:1 10671:1 11221:1 11681:1 12411:1 13231:1 13601:1 14261:1 15131:1 
1 391:1 2671:1 3371:1 3401:1 5561:1 7871:1 8581:1 8631:1 10691:1 11201:1 11681:1 12411:1 13231:1 13621:1 14421:1 14991:1 
1 181:1 431:1 1311:1 5291:1 5551:1 6511:1 10831:1 11041:1 11681:1 12411:1 13231:1 13781:1 14401:1 15151:1 
1 2671:1 3131:1 7891:1 8301:1 10671:1 11041:1 11681:1 12431:1 13231:1 13761:1 14241:1 15151:1 
1 421:1 1351:1 5551:1 6511:1 10671:1 11041:1 11681:1 12591:1 13231:1 13601:1 14241:1 15151:1 
1 731:1 1651:1 5861:1 6861:1 10671:1 11041:1 11681:1 12591:1 13231:1 13601:1 14241:1 15151:1 
1 171:1 721:1 3361:1 5321:1 5821:1 8541:1 10671:1 11041:1 11681:1 12591:1 13231:1 13601:1 14241:1 15151:1 
1 1691:1 2691:1 3321:1 6891:1 7931:1 8581:1 10671:1 11041:1 11681:1 12591:1 13211:1 13601:1 14241:1 15151:1 
1 421:1 681:1 1351:1 5531:1 5831:1 6551:1 10671:1 11041:1 11681:1 12591:1 13071:1 13601:1 14241:1 15151:1 
1 731:1 3091:1 5911:1 8211:1 10651:1 11041:1 11681:1 12571:1 13231:1 13601:1 14241:1 15151:1 
1 771:1 1611:1 5881:1 6861:1 10511:1 11041:1 11681:1 12411:1 13231:1 13601:1 14241:1 15151:1 
1 741:1 3001:1 5921:1 8221:1 10691:1 11041:1 11681:1 12411:1 13231:1 13601:1 14241:1 15151:1 
1 781:1 1641:1 1691:1 5891:1 6821:1 6871:1 10831:1 11041:1 11681:1 12411:1 13231:1 13601:1 14241:1 15151:1 
1 1701:1 3011:1 3791:1 6911:1 8241:1 8981:1 10691:1 11041:1 11681:1 12431:1 13231:1 13601:1 14241:1 15151:1 
1 691:1 751:1 1391:1 1741:1 5871:1 5881:1 6551:1 6901:1 10831:1 11041:1 11681:1 12591:1 13231:1 13601:1 14241:1 15151:1 
1 1391:1 3031:1 3781:1 4461:1 6591:1 8231:1 8971:1 9671:1 10651:1 11051:1 11681:1 12591:1 13231:1 13601:1 14241:1 15151:1 
1 1721:1 3361:1 6901:1 8541:1 10491:1 11131:1 11681:1 12591:1 13231:1 13601:1 14241:1 15151:1 
1 1731:1 2731:1 3321:1 4451:1 6941:1 7921:1 8551:1 9661:1 10491:1 11131:1 11681:1 12591:1 13231:1 13601:1 14241:1 15151:1 
1 201:1 401:1 731:1 3411:1 5331:1 5541:1 5831:1 8641:1 10491:1 11131:1 11681:1 12591:1 13231:1 13601:1 14261:1 15131:1 
1 1771:1 2721:1 3331:1 4111:1 6951:1 7931:1 8541:1 9311:1 10491:1 11131:1 11681:1 12591:1 13231:1 13601:1 14441:1 14991:1 
1 1601:1 3321:1 6811:1 8501:1 10491:1 11131:1 11681:1 12591:1 13231:1 13601:1 14601:1 15151:1 
1 411:1 3281:1 5581:1 8511:1 10491:1 11131:1 11681:1 12591:1 13211:1 13611:1 14601:1 15151:1 
1 991:1 1431:1 6221:1 6581:1 10511:1 11131:1 11681:1 12591:1 13071:1 13691:1 14601:1 15151:1 
1 451:1 2731:1 3751:1 5571:1 7891:1 8941:1 10671:1 11131:1 11681:1 12571:1 13231:1 13691:1 14601:1 15151:1 
1 741:1 1071:1 1341:1 1731:1 5871:1 6221:1 6541:1 6891:1 10671:1 11131:1 11681:1 12411:1 13231:1 13691:1 14601:1 15151:1 
1 441:1 1781:1 2691:1 3711:1 5611:1 6941:1 7881:1 8931:1 10671:1 11131:1 11681:1 12411:1 13231:1 13691:1 14581:1 15171:1 
1 211:1 481:1 1771:1 5251:1 5651:1 6931:1 10671:1 11131:1 11681:1 12411:1 13231:1 13691:1 14401:1 15331:1 
1 1421:1 1761:1 2681:1 3701:1 6591:1 6941:1 7921:1 8891:1 10671:1 11131:1 11681:1 12411:1 13211:1 13711:1 14241:1 15311:1 
1 691:1 3291:1 5871:1 8501:1 10671:1 11131:1 11681:1 12411:1 13071:1 13851:1 14241:1 15151:1 
1 1431:1 3021:1 3421:1 3661:1 6631:1 8221:1 8601:1 8901:1 10671:1 11121:1 11681:1 12411:1 13231:1 13681:1 14241:1 15171:1 
1 131:1 1771:1 3381:1 5301:1 6981:1 8641:1 10671:1 11041:1 11681:1 12411:1 13231:1 13601:1 14281:1 15311:1 
1 521:1 2721:1 3671:1 5611:1 7931:1 8941:1 10671:1 11041:1 11681:1 12411:1 13231:1 13601:1 14601:1 15151:1 
1 181:1 3421:1 5271:1 8561:1 10671:1 11041:1 11681:1 12411:1 13231:1 13611:1 14571:1 15151:1 
1 2731:1 3011:1 3341:1 3711:1 7891:1 8261:1 8601:1 8981:1 10671:1 11041:1 11681:1 12431:1 13231:1 13681:1 14331:1 15171:1 
1 151:1 1471:1 1811:1 5311:1 6591:1 6971:1 10671:1 11041:1 11681:1 12591:1 13231:1 13601:1 14321:1 15331:1 
1 481:1 3381:1 5621:1 8641:1 10671:1 11041:1 11681:1 12591:1 13231:1 13601:1 14241:1 15311:1 
1 191:1 1381:1 1611:1 4071:1 5301:1 6581:1 6821:1 9271:1 10671:1 11041:1 11681:1 12591:1 13251:1 13601:1 14261:1 15131:1 
1 491:1 2691:1 3751:1 4461:1 5661:1 7931:1 8981:1 9701:1 10671:1 11041:1 11681:1 12571:1 13411:1 13601:1 14441:1 14991:1 
1 181:1 3751:1 4031:1 5351:1 9021:1 9231:1 10671:1 11041:1 11681:1 12411:1 13411:1 13601:1 14601:1 15131:1 
1 1421:1 2731:1 3741:1 4421:1 6541:1 7901:1 9071:1 9681:1 10671:1 11041:1 11681:1 12401:1 13391:1 13621:1 14601:1 14971:1 
1 231:1 1431:1 5301:1 6631:1 10671:1 11041:1 11701:1 12321:1 13231:1 13781:1 14571:1 14971:1 
1 3051:1 4401:1 4431:1 8301:1 9571:1 9671:1 10671:1 11041:1 11861:1 12351:1 13231:1 13781:1 14331:1 14971:1 
1 531:1 3421:1 5581:1 8591:1 10671:1 11041:1 11861:1 12591:1 13231:1 13781:1 14321:1 14971:1 
1 3991:1 9291:1 10671:1 11041:1 11861:1 12591:1 13231:1 13781:1 14241:1 14991:1 
1 181:1 451:1 1471:1 3371:1 5291:1 5571:1 6591:1 8551:1 10671:1 11041:1 11841:1 12591:1 13231:1 13781:1 14241:1 15151:1 
1 3091:1 3331:1 4441:1 8341:1 8591:1 9611:1 10671:1 11041:1 11681:1 12571:1 13231:1 13781:1 14241:1 15151:1 
1 171:1 1431:1 4321:1 5331:1 6621:1 9581:1 10671:1 11041:1 11721:1 12411:1 13231:1 13781:1 14241:1 15151:1 
1 1381:1 2701:1 3791:1 6581:1 7891:1 8981:1 10671:1 11041:1 12041:1 12431:1 13251:1 13761:1 14241:1 15151:1 
1 211:1 731:1 3751:1 5351:1 5881:1 8981:1 10671:1 11041:1 12041:1 12571:1 13391:1 13601:1 14241:1 15171:1 
1 3131:1 3371:1 4101:1 4331:1 8301:1 8601:1 9351:1 9571:1 10671:1 11041:1 12041:1 12431:1 13231:1 13601:1 14241:1 15331:1 
1 1461:1 1621:1 4421:1 6701:1 6831:1 9661:1 10671:1 11041:1 12041:1 12571:1 13251:1 13601:1 14241:1 15331:1 
1 3091:1 3751:1 4411:1 4471:1 8341:1 8941:1 9651:1 9721:1 10671:1 11041:1 12041:1 12401:1 13411:1 13601:1 14241:1 15311:1 
1 231:1 1721:1 5331:1 6941:1 10671:1 11041:1 12041:1 12321:1 13411:1 13601:1 14241:1 15151:1 
1 1541:1 3131:1 3711:1 6661:1 8351:1 8981:1 10671:1 11041:1 12021:1 12351:1 13411:1 13601:1 14241:1 15151:1 
1 211:1 1501:1 3751:1 5351:1 6621:1 8941:1 10671:1 11041:1 11881:1 12571:1 13411:1 13601:1 14241:1 15151:1 
1 3141:1 4111:1 8301:1 9341:1 10671:1 11041:1 12041:1 12431:1 13411:1 13601:1 14241:1 15151:1 
1 231:1 1421:1 1461:1 3711:1 5311:1 6581:1 6591:1 8901:1 10691:1 11041:1 12001:1 12591:1 13391:1 13601:1 14241:1 15151:1 
1 1771:1 7091:1 10851:1 11041:1 11681:1 12591:1 13231:1 13601:1 14241:1 15151:1 
1 191:1 3671:1 5231:1 9071:1 10871:1 11041:1 11681:1 12591:1 13231:1 13601:1 14241:1 15151:1 
1 2121:1 4051:1 7421:1 9341:1 11031:1 11041:1 11681:1 12591:1 13231:1 13601:1 14241:1 15151:1 
1 111:1 1101:1 5311:1 6211:1 10991:1 11041:1 11681:1 12591:1 13231:1 13601:1 14241:1 15151:1 
1 441:1 2691:1 5651:1 7921:1 10671:1 11041:1 11681:1 12591:1 13231:1 13601:1 14241:1 15151:1 
1 191:1 741:1 3381:1 5351:1 5961:1 8611:1 10671:1 11041:1 11681:1 12591:1 13231:1 13601:1 14281:1 15131:1 
1 821:1 2721:1 3281:1 5951:1 7971:1 8511:1 10671:1 11041:1 11681:1 12591:1 13231:1 13611:1 14581:1 15001:1 
1 811:1 1111:1 1941:1 5941:1 6241:1 7111:1 10671:1 11041:1 11681:1 12591:1 13231:1 13691:1 14421:1 15241:1 
1 1971:1 3291:1 4451:1 4471:1 7111:1 8471:1 9681:1 10671:1 11041:1 11681:1 12591:1 13231:1 13681:1 14421:1 15241:1 
1 1931:1 7121:1 10671:1 11041:1 11681:1 12591:1 13231:1 13601:1 14421:1 15241:1 
1 1981:1 3091:1 3251:1 4431:1 7171:1 8261:1 8481:1 9641:1 10671:1 11041:1 11681:1 12591:1 13211:1 13611:1 14421:1 15241:1 
1 1091:1 4391:1 6201:1 9631:1 10671:1 11041:1 11681:1 12571:1 13071:1 13691:1 14421:1 15241:1 
1 731:1 3051:1 4381:1 5911:1 8211:1 9641:1 10651:1 11041:1 11681:1 12431:1 13231:1 13691:1 14421:1 15241:1 
1 771:1 1061:1 1961:1 5881:1 6201:1 7181:1 10511:1 11041:1 11681:1 12591:1 13231:1 13691:1 14421:1 15241:1 
1 1051:1 3001:1 4321:1 6241:1 8181:1 9531:1 10651:1 11051:1 11681:1 12591:1 13231:1 13691:1 14421:1 15241:1 
1 741:1 4101:1 5891:1 9351:1 10511:1 11131:1 11681:1 12591:1 13231:1 13691:1 14421:1 15221:1 
1 4111:1 4451:1 9341:1 9711:1 10671:1 11131:1 11681:1 12591:1 13231:1 13691:1 14421:1 15081:1 
1 2001:1 4101:1 7221:1 9351:1 10671:1 11131:1 11681:1 12591:1 13231:1 13691:1 14421:1 15221:1 
1 4111:1 4401:1 4461:1 9341:1 9661:1 9681:1 10671:1 11131:1 11681:1 12591:1 13231:1 13691:1 14421:1 15081:1 
1 231:1 3391:1 5261:1 8571:1 10671:1 11131:1 11681:1 12591:1 13261:1 13691:1 14401:1 15241:1 
1 1941:1 7201:1 10671:1 11131:1 11681:1 12591:1 13501:1 13691:1 14241:1 15241:1 
1 751:1 1051:1 1071:1 2021:1 5851:1 6161:1 6221:1 7191:1 10671:1 11131:1 11681:1 12591:1 13481:1 13691:1 14241:1 15241:1 
1 3351:1 4431:1 8531:1 9601:1 10671:1 11131:1 11681:1 12591:1 13321:1 13711:1 14241:1 15241:1 
1 141:1 711:1 3311:1 5231:1 5811:1 8571:1 10671:1 11131:1 11681:1 12591:1 13321:1 13851:1 14241:1 15241:1 
1 2011:1 3351:1 7201:1 8511:1 10671:1 11131:1 11681:1 12591:1 13301:1 13711:1 14241:1 15241:1 
1 111:1 2021:1 3291:1 5211:1 7241:1 8501:1 10671:1 11131:1 11681:1 12591:1 13161:1 13851:1 14241:1 15241:1 
1 2061:1 4101:1 7201:1 9221:1 10671:1 11131:1 11681:1 12591:1 13301:1 13711:1 14241:1 15221:1 
1 91:1 2021:1 3981:1 5261:1 7211:1 9261:1 10671:1 11131:1 11681:1 12591:1 13161:1 13851:1 14241:1 15081:1 
1 1091:1 2971:1 3281:1 4281:1 6281:1 8221:1 8511:1 9491:1 10671:1 11121:1 11681:1 12591:1 13321:1 13711:1 14241:1 15241:1 
1 801:1 3291:1 5951:1 8551:1 10671:1 11041:1 11681:1 12591:1 13321:1 13851:1 14241:1 15241:1 
1 811:1 3331:1 5941:1 8511:1 10671:1 11041:1 11681:1 12591:1 13321:1 13711:1 14241:1 15241:1 
1 1991:1 3291:1 7171:1 8551:1 10671:1 11041:1 11681:1 12591:1 13321:1 13851:1 14241:1 15241:1 
1 1131:1 3011:1 3331:1 4021:1 6321:1 8261:1 8511:1 9251:1 10671:1 11041:1 11691:1 12591:1 13321:1 13711:1 14241:1 15221:1 
1 1071:1 4391:1 6291:1 9601:1 10651:1 11041:1 11791:1 12571:1 13321:1 13871:1 14241:1 15061:1 
1 1171:1 3051:1 4011:1 4411:1 6361:1 8301:1 9261:1 9651:1 10491:1 11041:1 11931:1 12431:1 13321:1 13871:1 14241:1 15081:1 
1 1141:1 3291:1 6251:1 8551:1 10511:1 11041:1 11761:1 12591:1 13321:1 13851:1 14241:1 15241:1 
1 3331:1 4021:1 4351:1 8511:1 9211:1 9591:1 10671:1 11041:1 11681:1 12591:1 13321:1 13711:1 14241:1 15241:1 
1 141:1 1991:1 3291:1 5211:1 7171:1 8501:1 10671:1 11041:1 11681:1 12591:1 13321:1 13851:1 14241:1 15241:1 
1 3091:1 3971:1 4341:1 8271:1 9221:1 9581:1 10671:1 11041:1 11681:1 12591:1 13321:1 13711:1 14241:1 15221:1 
1 1021:1 1101:1 1971:1 6201:1 6261:1 7161:1 10671:1 11041:1 11681:1 12591:1 13321:1 13871:1 14241:1 15061:1 
1 1111:1 3061:1 4351:1 6301:1 8241:1 9601:1 10671:1 11041:1 11681:1 12571:1 13321:1 13871:1 14241:1 15061:1 
1 91:1 3981:1 5271:1 9211:1 10671:1 11041:1 11681:1 12411:1 13291:1 13851:1 14241:1 15061:1 
1 3281:1 4331:1 8511:1 9511:1 10671:1 11041:1 11681:1 12411:1 13051:1 13711:1 14241:1 15061:1 
1 151:1 671:1 3031:1 5271:1 5801:1 8201:1 10671:1 11051:1 11681:1 12411:1 13051:1 13871:1 14241:1 15061:1 
1 521:1 5771:1 10671:1 11131:1 11681:1 12411:1 13051:1 13871:1 14241:1 15061:1 
1 1011:1 1981:1 6151:1 7231:1 10651:1 11131:1 11681:1 12411:1 13051:1 13871:1 14241:1 15061:1 
1 2771:1 4361:1 4411:1 7991:1 9621:1 9671:1 10491:1 11131:1 11681:1 12431:1 13051:1 13871:1 14241:1 15081:1 
1 1001:1 2051:1 6191:1 7301:1 10491:1 11131:1 11681:1 12591:1 13051:1 13871:1 14241:1 15241:1 
1 2791:1 4371:1 7971:1 9581:1 10491:1 11131:1 11681:1 12601:1 13051:1 13871:1 14241:1 15211:1 
1 1041:1 2991:1 6151:1 8411:1 10491:1 11121:1 11681:1 12681:1 13051:1 13871:1 14241:1 14971:1 
1 2121:1 2771:1 7421:1 7941:1 10491:1 11041:1 11681:1 12681:1 13051:1 13871:1 14241:1 14971:1 
1 481:1 1001:1 2041:1 5621:1 6191:1 7301:1 10491:1 11041:1 11681:1 12681:1 13051:1 13871:1 14241:1 14971:1 
1 3971:1 9291:1 10491:1 11041:1 11681:1 12681:1 13051:1 13871:1 14241:1 14991:1 
1 151:1 491:1 1931:1 4051:1 5271:1 5661:1 7151:1 9301:1 10491:1 11041:1 11681:1 12681:1 13051:1 13871:1 14251:1 15131:1 
1 2971:1 4061:1 4331:1 8261:1 9311:1 9571:1 10491:1 11041:1 11681:1 12681:1 13051:1 13851:1 14331:1 14991:1 
1 151:1 1041:1 1991:1 5301:1 6201:1 7171:1 10491:1 11041:1 11681:1 12681:1 13071:1 13691:1 14361:1 15151:1 
1 4241:1 4321:1 9451:1 9531:1 9661:1 10491:1 11041:1 11681:1 12681:1 13231:1 13691:1 14601:1 15151:1 
1 531:1 2121:1 4421:1 5711:1 7311:1 9681:1 10491:1 11041:1 11681:1 12681:1 13231:1 13691:1 14621:1 15131:1 
1 71:1 691:1 5231:1 5871:1 10511:1 11041:1 11681:1 12411:1 13101:1 13601:1 14241:1 14971:1 
1 2831:1 3451:1 7911:1 8631:1 10671:1 11041:1 11681:1 12431:1 13501:1 13601:1 14241:1 14971:1 
1 111:1 391:1 5311:1 5521:1 10671:1 11041:1 11681:1 12591:1 13471:1 13601:1 14241:1 14971:1 
1 391:1 2711:1 5561:1 7831:1 10671:1 11041:1 11681:1 12591:1 13251:1 13601:1 14241:1 14971:1 
1 191:1 3411:1 5301:1 8591:1 10671:1 11041:1 11701:1 12571:1 13411:1 13601:1 14241:1 14971:1 
1 3371:1 3451:1 4401:1 8631:1 9571:1 10671:1 11041:1 11861:1 12431:1 13411:1 13601:1 14241:1 14991:1 
1 431:1 1341:1 1621:1 5551:1 6541:1 6831:1 10671:1 11041:1 11861:1 12591:1 13391:1 13601:1 14241:1 15151:1 
1 2631:1 3831:1 7831:1 8981:1 10671:1 11041:1 11861:1 12611:1 13231:1 13601:1 14241:1 15151:1 
1 181:1 421:1 3751:1 5271:1 5561:1 8941:1 10691:1 11041:1 11841:1 12751:1 13231:1 13601:1 14241:1 15151:1 
1 431:1 2631:1 3831:1 5561:1 7871:1 8981:1 10831:1 11061:1 11681:1 12611:1 13251:1 13601:1 14241:1 15151:1 
1 151:1 3711:1 5311:1 8901:1 10671:1 11221:1 11681:1 12771:1 13411:1 13601:1 14241:1 15151:1 
1 431:1 2671:1 5561:1 7871:1 10691:1 11201:1 11681:1 12771:1 13391:1 13621:1 14241:1 15151:1 
1 191:1 3671:1 5311:1 8901:1 10851:1 11041:1 11681:1 12771:1 13231:1 13781:1 14241:1 15151:1 
1 431:1 2671:1 4401:1 5551:1 7871:1 9571:1 10831:1 11061:1 11681:1 12771:1 13231:1 13761:1 14241:1 15151:1 
1 3751:1 8941:1 10671:1 11221:1 11681:1 12751:1 13231:1 13601:1 14241:1 15151:1 
1 3671:1 3711:1 8861:1 8891:1 10671:1 11221:1 11681:1 12591:1 13231:1 13631:1 14241:1 15151:1 
1 191:1 991:1 5271:1 6181:1 10671:1 11221:1 11681:1 12591:1 13231:1 13871:1 14241:1 15151:1 
1 3411:1 4321:1 8551:1 9591:1 10671:1 11221:1 11681:1 12591:1 13231:1 13871:1 14241:1 15151:1 
1 3661:1 8901:1 10671:1 11221:1 11681:1 12591:1 13231:1 13851:1 14241:1 15151:1 
1 3331:1 4341:1 4451:1 8561:1 9581:1 9621:1 10671:1 11221:1 11681:1 12591:1 13231:1 13711:1 14241:1 15151:1 
1 731:1 1381:1 1661:1 5881:1 6501:1 6861:1 10671:1 11221:1 11681:1 12591:1 13231:1 13871:1 14241:1 15151:1 
1 1691:1 3341:1 4331:1 6821:1 8511:1 9591:1 10671:1 11221:1 11681:1 12591:1 13211:1 13871:1 14241:1 15171:1 
1 151:1 741:1 1031:1 3631:1 5231:1 5921:1 6181:1 8821:1 10671:1 11221:1 11681:1 12591:1 13101:1 13851:1 14241:1 15331:1 
1 1651:1 6871:1 10671:1 11221:1 11681:1 12591:1 13501:1 13691:1 14241:1 15331:1 
1 1701:1 6901:1 10671:1 11221:1 11681:1 12591:1 13501:1 13691:1 14241:1 15331:1 
1 1031:1 1341:1 2671:1 3591:1 6141:1 6461:1 7831:1 8811:1 10671:1 11201:1 11681:1 12591:1 13481:1 13711:1 14241:1 15331:1 
1 421:1 731:1 1301:1 5561:1 5881:1 6511:1 10671:1 11041:1 11681:1 12591:1 13321:1 13871:1 14241:1 15331:1 
1 3151:1 3671:1 8241:1 8941:1 10671:1 11041:1 11681:1 12591:1 13321:1 13871:1 14241:1 15331:1 
1 111:1 431:1 741:1 3031:1 5271:1 5561:1 5871:1 8241:1 10671:1 11041:1 11681:1 12591:1 13311:1 13871:1 14241:1 15331:1 
1 1021:1 1351:1 2631:1 3581:1 6181:1 6501:1 7871:1 8851:1 10651:1 11061:1 11681:1 12591:1 13251:1 13851:1 14241:1 15331:1 
1 1031:1 1611:1 1731:1 6171:1 6821:1 6931:1 10511:1 11221:1 11681:1 12591:1 13411:1 13691:1 14241:1 15331:1 
1 731:1 3031:1 5911:1 8181:1 10651:1 11241:1 11681:1 12591:1 13411:1 13691:1 14241:1 15331:1 
1 151:1 431:1 771:1 5261:1 5521:1 5951:1 10521:1 11401:1 11681:1 12591:1 13391:1 13691:1 14241:1 15331:1 
1 1021:1 2971:1 3711:1 6181:1 8151:1 8931:1 10741:1 11401:1 11681:1 12611:1 13231:1 13691:1 14241:1 15331:1 
1 3621:1 8901:1 10581:1 11401:1 11681:1 12771:1 13231:1 13691:1 14241:1 15331:1 
1 3671:1 8851:1 10581:1 11401:1 11681:1 12771:1 13231:1 13691:1 14241:1 15331:1 
1 3621:1 8901:1 10581:1 11401:1 11681:1 12771:1 13231:1 13691:1 14241:1 15331:1 
1 3671:1 4341:1 8861:1 9601:1 10581:1 11401:1 11681:1 12771:1 13231:1 13711:1 14241:1 15311:1 
1 391:1 1761:1 3631:1 5561:1 7011:1 8901:1 10581:1 11401:1 11681:1 12771:1 13251:1 13851:1 14241:1 15151:1 
1 431:1 5601:1 10581:1 11401:1 11681:1 12771:1 13391:1 13691:1 14241:1 15151:1 
1 471:1 4351:1 5631:1 9641:1 10581:1 11401:1 11681:1 12771:1 13231:1 13691:1 14251:1 15171:1 
1 2671:1 3671:1 4101:1 7911:1 8861:1 9331:1 9351:1 10581:1 11371:1 11681:1 12751:1 13231:1 13711:1 14331:1 15311:1 
1 141:1 1031:1 2941:1 5211:1 6221:1 8411:1 10601:1 11121:1 11681:1 12591:1 13231:1 13871:1 14331:1 15151:1 
1 501:1 2711:1 5771:1 7941:1 10761:1 11041:1 11681:1 12591:1 13231:1 13871:1 14321:1 15181:1 
1 461:1 1071:1 1601:1 5551:1 6261:1 6781:1 10741:1 11041:1 11681:1 12591:1 13211:1 13871:1 14241:1 15421:1 
1 1111:1 2741:1 4461:1 6301:1 7911:1 9671:1 10581:1 11041:1 11681:1 12611:1 13051:1 13871:1 14241:1 15391:1 
1 91:1 421:1 3631:1 5261:1 5561:1 8861:1 10581:1 11051:1 11681:1 12771:1 13071:1 13851:1 14241:1 15151:1 
1 2711:1 3091:1 3631:1 7871:1 8311:1 8821:1 10581:1 11141:1 11681:1 12751:1 13231:1 13691:1 14241:1 15151:1 
1 491:1 1151:1 4391:1 5701:1 6261:1 9601:1 10581:1 11221:1 11681:1 12591:1 13231:1 13691:1 14241:1 15131:1 
1 1841:1 3101:1 3591:1 4091:1 7021:1 8321:1 8811:1 9341:1 10581:1 11241:1 11681:1 12611:1 13231:1 13691:1 14241:1 14991:1 
1 431:1 1111:1 4351:1 5521:1 6221:1 9561:1 10581:1 11401:1 11681:1 12771:1 13231:1 13691:1 14241:1 15151:1 
1 4321:1 9501:1 9651:1 10581:1 11421:1 11681:1 12771:1 13231:1 13691:1 14241:1 15151:1 
1 1311:1 4251:1 6511:1 9541:1 10581:1 11561:1 11681:1 12771:1 13231:1 13691:1 14241:1 15151:1 
1 1851:1 4101:1 7091:1 9261:1 10581:1 11401:1 11681:1 12771:1 13231:1 13691:1 14241:1 15151:1 
1 391:1 1611:1 3581:1 5511:1 6861:1 8851:1 10621:1 11381:1 11681:1 12771:1 13231:1 13691:1 14241:1 15151:1 
1 4021:1 4401:1 4461:1 9221:1 9571:1 9671:1 10941:1 11221:1 11681:1 12771:1 13231:1 13711:1 14241:1 15151:1 
1 381:1 1071:1 1351:1 1621:1 5501:1 6211:1 6551:1 6831:1 10941:1 11221:1 11681:1 12771:1 13231:1 13871:1 14241:1 15151:1 
1 1061:1 6241:1 10941:1 11221:1 11681:1 12771:1 13231:1 13871:1 14241:1 15151:1 
1 1091:1 1651:1 6281:1 6891:1 10941:1 11221:1 11681:1 12771:1 13231:1 13871:1 14241:1 15151:1 
1 3111:1 4111:1 8271:1 9311:1 10941:1 11221:1 11681:1 12771:1 13231:1 13871:1 14241:1 15171:1 
1 1641:1 6971:1 10941:1 11221:1 11681:1 12771:1 13231:1 13871:1 14241:1 15331:1 
1 1131:1 3061:1 4071:1 6291:1 8311:1 9291:1 10941:1 11221:1 11681:1 12771:1 13231:1 13871:1 14251:1 15311:1 
1 141:1 571:1 1801:1 4051:1 5271:1 5661:1 7011:1 9251:1 10911:1 11221:1 11691:1 12751:1 13231:1 13871:1 14331:1 15151:1 
1 1141:1 3101:1 4611:1 6431:1 8321:1 9881:1 10671:1 11241:1 11771:1 12611:1 13231:1 13871:1 14321:1 15151:1 
1 531:1 1841:1 4741:1 5711:1 7021:1 10011:1 10671:1 11401:1 11771:1 12751:1 13231:1 13871:1 14241:1 15151:1 
1 1851:1 3691:1 4771:1 6981:1 8971:1 9991:1 10671:1 11401:1 11791:1 12591:1 13231:1 13871:1 14241:1 15151:1 
1 581:1 1811:1 3741:1 5751:1 7011:1 9011:1 10671:1 11401:1 11921:1 12611:1 13231:1 13871:1 14241:1 15151:1 
1 1841:1 3781:1 4731:1 6971:1 8991:1 9951:1 10671:1 11401:1 11681:1 12771:1 13231:1 13871:1 14241:1 15151:1 
1 151:1 621:1 4631:1 5271:1 5761:1 9931:1 10671:1 11401:1 11681:1 12771:1 13231:1 13871:1 14241:1 15151:1 
1 4691:1 9821:1 10671:1 11401:1 11681:1 12751:1 13231:1 13871:1 14241:1 15151:1 
1 151:1 1721:1 3661:1 5261:1 6941:1 8851:1 10671:1 11401:1 11681:1 12591:1 13261:1 13851:1 14241:1 15151:1 
1 1691:1 3621:1 4561:1 4671:1 6851:1 8841:1 9781:1 9921:1 10651:1 11421:1 11681:1 12591:1 13501:1 13691:1 14241:1 15171:1 
1 141:1 4641:1 5251:1 9861:1 10491:1 11581:1 11681:1 12591:1 13471:1 13691:1 14241:1 15331:1 
1 3621:1 4741:1 4751:1 8891:1 9981:1 10011:1 10491:1 11581:1 11681:1 12591:1 13231:1 13711:1 14241:1 15311:1 
1 131:1 371:1 3611:1 3661:1 5261:1 5541:1 8851:1 8881:1 10511:1 11561:1 11681:1 12591:1 13261:1 13851:1 14241:1 15151:1 
1 1661:1 2671:1 4601:1 6871:1 7821:1 9821:1 10651:1 11401:1 11681:1 12591:1 13501:1 13691:1 14241:1 15151:1 
1 411:1 1681:1 1701:1 4521:1 5491:1 6861:1 7091:1 9821:1 10491:1 11401:1 11681:1 12591:1 13501:1 13691:1 14241:1 15151:1 
1 2011:1 2621:1 2971:1 3621:1 3651:1 7421:1 7831:1 8141:1 8841:1 9071:1 10481:1 11391:1 11681:1 12591:1 13501:1 13681:1 14241:1 15151:1 
1 141:1 1391:1 2091:1 5211:1 6511:1 7261:1 10401:1 11311:1 11681:1 12591:1 13481:1 13601:1 14241:1 15151:1 
1 4621:1 9761:1 10401:1 11291:1 11681:1 12591:1 13321:1 13601:1 14241:1 15151:1 
1 71:1 691:1 5311:1 5871:1 10511:1 11041:1 11681:1 12411:1 13051:1 13601:1 14241:1 14971:1 
1 2831:1 3131:1 3451:1 7951:1 8301:1 8631:1 10671:1 11041:1 11681:1 12431:1 13051:1 13601:1 14241:1 14991:1 
1 191:1 3411:1 5301:1 8591:1 10671:1 11041:1 11701:1 12571:1 13051:1 13601:1 14241:1 15151:1 
1 2751:1 3371:1 4401:1 7911:1 8631:1 9571:1 10671:1 11041:1 11861:1 12431:1 13051:1 13601:1 14241:1 15151:1 
1 181:1 691:1 5301:1 5871:1 10671:1 11041:1 11841:1 12591:1 13071:1 13601:1 14261:1 15151:1 
1 2711:1 3811:1 4401:1 7871:1 9001:1 9571:1 10671:1 11041:1 11681:1 12591:1 13231:1 13621:1 14421:1 15151:1 
1 181:1 391:1 1341:1 5291:1 5511:1 6491:1 10671:1 11041:1 11681:1 12591:1 13231:1 13781:1 14401:1 15151:1 
1 3091:1 3471:1 3771:1 3831:1 8291:1 8651:1 8961:1 9021:1 10671:1 11041:1 11681:1 12611:1 13231:1 13781:1 14241:1 15151:1 
1 1001:1 4321:1 6191:1 9531:1 10671:1 11041:1 11681:1 12771:1 13231:1 13781:1 14241:1 15151:1 
1 1341:1 2671:1 4471:1 6511:1 7831:1 9721:1 10671:1 11041:1 11681:1 12771:1 13211:1 13761:1 14241:1 15151:1 
1 3731:1 8881:1 10671:1 11041:1 11681:1 12771:1 13051:1 13601:1 14241:1 15131:1 
1 2631:1 3081:1 4321:1 7871:1 8301:1 9531:1 10671:1 11041:1 11681:1 12771:1 13051:1 13621:1 14241:1 14991:1 
1 1001:1 1041:1 1351:1 4281:1 6151:1 6191:1 6501:1 9491:1 10671:1 11041:1 11681:1 12771:1 13071:1 13781:1 14241:1 15151:1 
1 3651:1 8891:1 9571:1 10671:1 11041:1 11681:1 12771:1 13231:1 13801:1 14241:1 15151:1 
1 4241:1 9731:1 10671:1 11041:1 11681:1 12771:1 13231:1 13961:1 14241:1 15151:1 
1 731:1 2671:1 3431:1 5911:1 7851:1 8651:1 10671:1 11041:1 11681:1 12751:1 13211:1 13961:1 14241:1 15171:1 
1 731:1 1611:1 5891:1 6821:1 10651:1 11041:1 11681:1 12591:1 13071:1 13961:1 14241:1 15331:1 
1 751:1 771:1 2651:1 5871:1 5931:1 7871:1 10491:1 11041:1 11681:1 12591:1 13231:1 13961:1 14241:1 15331:1 
1 171:1 1631:1 3661:1 5261:1 6841:1 8851:1 10491:1 11041:1 11681:1 12591:1 13261:1 13941:1 14241:1 15331:1 
1 381:1 2671:1 3621:1 5771:1 7821:1 9071:1 10481:1 11061:1 11681:1 12591:1 13501:1 13761:1 14241:1 15331:1 
1 1001:1 1041:1 1331:1 4281:1 6191:1 6231:1 6481:1 9541:1 10401:1 11221:1 11681:1 12591:1 13501:1 13601:1 14241:1 15331:1 
1 2621:1 3111:1 7871:1 8361:1 10401:1 11201:1 11681:1 12591:1 13501:1 13621:1 14241:1 15311:1 
1 4291:1 9511:1 10401:1 11041:1 11681:1 12591:1 13501:1 13781:1 14241:1 15151:1 
1 791:1 2671:1 4261:1 5921:1 7911:1 9731:1 10411:1 11041:1 11681:1 12591:1 13501:1 13761:1 14241:1 15151:1 
1 4321:1 9541:1 10491:1 11041:1 11681:1 12591:1 13501:1 13601:1 14241:1 15151:1 
1 781:1 2711:1 3091:1 6101:1 7901:1 8221:1 10481:1 11061:1 11681:1 12571:1 13501:1 13601:1 14241:1 15151:1 
1 4611:1 10061:1 10401:1 11221:1 11681:1 12411:1 13501:1 13601:1 14241:1 15151:1 
1 2701:1 3011:1 3471:1 7821:1 8181:1 8651:1 10401:1 11241:1 11681:1 12431:1 13501:1 13601:1 14241:1 15151:1 
1 141:1 1601:1 5261:1 6811:1 10421:1 11401:1 11681:1 12591:1 13471:1 13601:1 14241:1 15151:1 
1 3431:1 4771:1 8641:1 9911:1 10581:1 11401:1 11681:1 12571:1 13231:1 13601:1 14241:1 15151:1 
1 731:1 1081:1 1641:1 5881:1 6201:1 6851:1 10581:1 11401:1 11681:1 12411:1 13231:1 13601:1 14241:1 15151:1 
1 3421:1 3781:1 4651:1 4781:1 8601:1 8971:1 9871:1 10001:1 10581:1 11401:1 11681:1 12431:1 13231:1 13601:1 14241:1 15151:1 
1 741:1 1041:1 1621:1 5891:1 6231:1 6771:1 10581:1 11401:1 11681:1 12591:1 13251:1 13601:1 14241:1 15151:1 
1 1621:1 2621:1 6871:1 7871:1 10581:1 11401:1 11681:1 12591:1 13411:1 13601:1 14241:1 15151:1 
1 751:1 1321:1 1601:1 5881:1 6501:1 6811:1 10601:1 11401:1 11681:1 12591:1 13391:1 13601:1 14241:1 15151:1 
1 1081:1 2971:1 4611:1 6271:1 8211:1 9831:1 10761:1 11401:1 11681:1 12591:1 13231:1 13601:1 14241:1 15151:1 
1 1341:1 1611:1 4571:1 6531:1 6821:1 9871:1 10761:1 11381:1 11681:1 12591:1 13231:1 13601:1 14241:1 15151:1 
1 1121:1 3001:1 3381:1 4611:1 6311:1 8251:1 8591:1 9861:1 10761:1 11221:1 11681:1 12571:1 13231:1 13601:1 14241:1 15151:1 
1 1601:1 1631:1 6831:1 6851:1 10781:1 11221:1 11681:1 12411:1 13231:1 13601:1 14241:1 15151:1 
1 1161:1 3041:1 3741:1 4791:1 6351:1 8291:1 8961:1 10011:1 10941:1 11221:1 11681:1 12431:1 13231:1 13601:1 14241:1 15151:1 
1 141:1 1641:1 5311:1 6891:1 10911:1 11221:1 11681:1 12591:1 13231:1 13601:1 14241:1 15151:1 
1 1201:1 3081:1 3731:1 4761:1 6311:1 8301:1 9001:1 10031:1 10671:1 11221:1 11681:1 12591:1 13231:1 13601:1 14241:1 15151:1 
1 191:1 4751:1 5301:1 9971:1 10671:1 11221:1 11701:1 12611:1 13231:1 13601:1 14241:1 15151:1 
1 1371:1 6571:1 10651:1 11221:1 11861:1 12771:1 13231:1 13601:1 14241:1 15151:1 
1 3371:1 8641:1 10491:1 11221:1 11861:1 12771:1 13231:1 13601:1 14241:1 15151:1 
1 1661:1 1701:1 4711:1 6841:1 7091:1 9931:1 10481:1 11221:1 11861:1 12751:1 13231:1 13601:1 14241:1 15151:1 
1 1411:1 1671:1 1681:1 4601:1 6531:1 6831:1 6891:1 9871:1 10431:1 11221:1 11861:1 12591:1 13231:1 13601:1 14241:1 15151:1 
1 1161:1 3091:1 3421:1 6351:1 8291:1 8591:1 10671:1 11221:1 11861:1 12571:1 13231:1 13601:1 14241:1 15151:1 
1 181:1 741:1 4671:1 5311:1 5931:1 9931:1 10671:1 11221:1 11841:1 12411:1 13231:1 13601:1 14241:1 15151:1 
1 1721:1 3771:1 6931:1 8961:1 10671:1 11221:1 11681:1 12431:1 13231:1 13601:1 14241:1 15151:1 
1 191:1 791:1 4671:1 5311:1 5921:1 9921:1 10691:1 11221:1 11681:1 12591:1 13231:1 13601:1 14241:1 15171:1 
1 781:1 2671:1 4611:1 5961:1 7901:1 9861:1 10831:1 11221:1 11691:1 12591:1 13231:1 13601:1 14241:1 15331:1 
1 191:1 821:1 1651:1 3371:1 5311:1 5951:1 6811:1 8551:1 10671:1 11221:1 11761:1 12591:1 13231:1 13601:1 14241:1 15331:1 
1 1371:1 3151:1 3331:1 4601:1 6541:1 8321:1 8511:1 9821:1 10651:1 11241:1 11681:1 12591:1 13231:1 13601:1 14241:1 15351:1 
1 191:1 811:1 1381:1 5291:1 5911:1 6551:1 10511:1 11401:1 11681:1 12591:1 13231:1 13601:1 14241:1 15511:1 
1 3291:1 4561:1 8521:1 9751:1 10671:1 11381:1 11681:1 12591:1 13231:1 13601:1 14241:1 15511:1 
1 71:1 5351:1 10491:1 11041:1 11701:1 12411:1 13051:1 13601:1 14241:1 14971:1 
1 2831:1 3151:1 3451:1 7991:1 8361:1 8631:1 10491:1 11041:1 11861:1 12431:1 13051:1 13601:1 14241:1 15021:1 
1 691:1 991:1 1291:1 5871:1 6181:1 6491:1 10511:1 11041:1 11861:1 12591:1 13071:1 13601:1 14241:1 15421:1 
1 2791:1 4401:1 7911:1 9661:1 10671:1 11041:1 11861:1 12591:1 13231:1 13601:1 14241:1 15391:1 
1 731:1 1031:1 1331:1 5951:1 6221:1 6531:1 10691:1 11041:1 11861:1 12591:1 13231:1 13601:1 14241:1 15151:1 
1 1071:1 2711:1 3151:1 6261:1 7951:1 8361:1 10831:1 11041:1 11861:1 12591:1 13231:1 13601:1 14241:1 15151:1 
1 391:1 1111:1 5561:1 6221:1 10691:1 11041:1 11861:1 12591:1 13251:1 13601:1 14241:1 15151:1 
1 431:1 2751:1 5601:1 7911:1 10851:1 11041:1 11861:1 12591:1 13391:1 13601:1 14241:1 15151:1 
1 471:1 991:1 5551:1 6221:1 10851:1 11041:1 11861:1 12591:1 13251:1 13601:1 14241:1 15151:1 
1 1071:1 4441:1 6261:1 9651:1 10851:1 11041:1 11861:1 12591:1 13391:1 13601:1 14241:1 15151:1 
1 421:1 811:1 1111:1 5561:1 5941:1 6211:1 10851:1 11041:1 11861:1 12591:1 13251:1 13601:1 14241:1 15151:1 
1 431:1 4451:1 5601:1 9691:1 10851:1 11041:1 11861:1 12591:1 13391:1 13601:1 14241:1 15151:1 
1 471:1 801:1 5561:1 5981:1 10851:1 11041:1 11861:1 12591:1 13251:1 13601:1 14241:1 15151:1 
1 431:1 1071:1 2711:1 5601:1 6211:1 7871:1 10831:1 11041:1 11861:1 12591:1 13391:1 13621:1 14241:1 15151:1 
1 471:1 5591:1 10691:1 11041:1 11861:1 12591:1 13231:1 13781:1 14241:1 15151:1 
1 1061:1 2671:1 3151:1 4101:1 6221:1 7871:1 8351:1 9301:1 10851:1 11061:1 11861:1 12591:1 13251:1 13761:1 14241:1 15151:1 
1 841:1 4401:1 5951:1 9571:1 10851:1 11221:1 11861:1 12591:1 13411:1 13601:1 14241:1 15151:1 
1 1071:1 2671:1 6301:1 7911:1 10851:1 11201:1 11861:1 12591:1 13391:1 13601:1 14241:1 15151:1 
1 1151:1 6291:1 10851:1 11041:1 11881:1 12591:1 13231:1 13601:1 14241:1 15151:1 
1 461:1 2711:1 3831:1 5581:1 7901:1 9021:1 10831:1 11061:1 12041:1 12591:1 13231:1 13601:1 14241:1 15151:1 
1 811:1 1141:1 4061:1 4321:1 5941:1 6301:1 9261:1 9531:1 10671:1 11221:1 12021:1 12611:1 13231:1 13601:1 14241:1 15151:1 
1 1151:1 2701:1 3791:1 6301:1 7951:1 8981:1 10671:1 11201:1 11861:1 12771:1 13231:1 13601:1 14241:1 15171:1 
1 231:1 801:1 3751:1 4281:1 5351:1 5901:1 9021:1 9491:1 10671:1 11041:1 11841:1 12771:1 13231:1 13601:1 14261:1 15311:1 
1 1151:1 2751:1 4021:1 6291:1 7951:1 9241:1 10671:1 11041:1 11681:1 12751:1 13231:1 13601:1 14441:1 15151:1 
1 1061:1 1371:1 4241:1 6221:1 6491:1 9731:1 10671:1 11041:1 11681:1 12591:1 13231:1 13601:1 14601:1 15151:1 
1 3411:1 4101:1 4461:1 8591:1 9291:1 9671:1 10671:1 11041:1 11681:1 12591:1 13231:1 13601:1 14601:1 15151:1 
1 761:1 4001:1 5871:1 9161:1 10691:1 11041:1 11681:1 12591:1 13231:1 13601:1 14601:1 15151:1 
1 1071:1 2751:1 6261:1 7901:1 10831:1 11061:1 11681:1 12591:1 13231:1 13601:1 14601:1 15151:1 
1 231:1 451:1 1141:1 5311:1 5571:1 6261:1 10671:1 11221:1 11681:1 12591:1 13231:1 13601:1 14561:1 15151:1 
1 1111:1 2701:1 6251:1 6301:1 7911:1 10671:1 11201:1 11681:1 12591:1 13251:1 13601:1 14241:1 15151:1 
1 191:1 1151:1 5301:1 6211:1 10671:1 11041:1 11681:1 12591:1 13411:1 13601:1 14261:1 15151:1 
1 1061:1 2711:1 6251:1 7891:1 10691:1 11041:1 11681:1 12591:1 13411:1 13601:1 14421:1 15151:1 
1 181:1 1101:1 3371:1 5291:1 6221:1 8551:1 10851:1 11041:1 11681:1 12591:1 13411:1 13601:1 14401:1 15151:1 
1 731:1 2691:1 5951:1 7921:1 10831:1 11041:1 11681:1 12591:1 13411:1 13601:1 14241:1 15151:1 
1 171:1 1101:1 3331:1 5251:1 6261:1 8561:1 10651:1 11041:1 11681:1 12591:1 13411:1 13611:1 14241:1 15151:1 
1 1111:1 3341:1 4051:1 6301:1 8571:1 9261:1 10491:1 11041:1 11681:1 12591:1 13411:1 13681:1 14241:1 15151:1 
1 131:1 731:1 1331:1 5261:1 5911:1 6571:1 10491:1 11041:1 11681:1 12591:1 13421:1 13601:1 14241:1 15151:1 
1 811:1 2721:1 6101:1 7941:1 10491:1 11041:1 11681:1 12621:1 13501:1 13601:1 14241:1 15151:1 
1 441:1 3921:1 5541:1 9401:1 10511:1 11041:1 11681:1 12861:1 13501:1 13601:1 14241:1 15151:1 
1 1151:1 2741:1 3351:1 6341:1 7911:1 8611:1 10671:1 11041:1 11681:1 12831:1 13501:1 13601:1 14251:1 15151:1 
1 141:1 771:1 4021:1 5271:1 5991:1 9221:1 10671:1 11041:1 11681:1 12591:1 13471:1 13611:1 14351:1 15131:1 
1 2711:1 3391:1 3981:1 7951:1 8601:1 9211:1 10671:1 11041:1 11681:1 12591:1 13231:1 13681:1 14511:1 14991:1 
1 151:1 1191:1 5351:1 6331:1 10671:1 11041:1 11701:1 12591:1 13231:1 13601:1 14491:1 15151:1 
1 1181:1 3381:1 6341:1 8641:1 9661:1 10671:1 11041:1 11861:1 12591:1 13231:1 13601:1 14351:1 15131:1 
1 1071:1 1661:1 6201:1 6911:1 10671:1 11041:1 11861:1 12591:1 13231:1 13601:1 14511:1 14971:1 
1 1191:1 2751:1 3791:1 4421:1 6301:1 7941:1 8981:1 9681:1 10671:1 11041:1 11861:1 12591:1 13231:1 13601:1 14491:1 15001:1 
1 231:1 1621:1 4431:1 5391:1 6831:1 9671:1 10671:1 11041:1 11841:1 12591:1 13251:1 13601:1 14331:1 15261:1 
1 851:1 2741:1 3421:1 6101:1 7971:1 8601:1 10671:1 11041:1 11681:1 12591:1 13411:1 13601:1 14321:1 15431:1 
1 271:1 1151:1 3431:1 5351:1 6221:1 8651:1 10671:1 11041:1 11681:1 12611:1 13431:1 13601:1 14261:1 15501:1 
1 3381:1 3431:1 3511:1 3651:1 8591:1 8641:1 8691:1 8871:1 10671:1 11041:1 11681:1 12751:1 13591:1 13601:1 14421:1 15401:1 
1 411:1 1411:1 1741:1 5621:1 6561:1 6921:1 10651:1 11041:1 11681:1 12591:1 13571:1 13601:1 14421:1 15241:1 
1 2771:1 3371:1 3411:1 7941:1 8621:1 8631:1 10491:1 11041:1 11681:1 12571:1 13411:1 13601:1 14421:1 15261:1 
1 231:1 3641:1 5311:1 8831:1 10491:1 11041:1 11681:1 12411:1 13411:1 13601:1 14401:1 15421:1 
1 1051:1 2741:1 6241:1 7901:1 10491:1 11041:1 11681:1 12411:1 13391:1 13621:1 14241:1 15391:1 
1 1401:1 3401:1 6571:1 8581:1 10491:1 11041:1 11681:1 12411:1 13231:1 13781:1 14241:1 15151:1 
1 1661:1 3601:1 6871:1 8841:1 10491:1 11041:1 11681:1 12411:1 13211:1 13801:1 14241:1 15151:1 
1 491:1 1291:1 3361:1 5611:1 6501:1 8541:1 10491:1 11041:1 11681:1 12411:1 13071:1 13961:1 14241:1 15151:1 
1 1071:1 1751:1 2701:1 6181:1 6921:1 7871:1 10491:1 11041:1 11681:1 12411:1 13211:1 13961:1 14241:1 15151:1 
1 481:1 1411:1 1701:1 3321:1 5571:1 6581:1 6911:1 8501:1 10511:1 11041:1 11681:1 12411:1 13071:1 13961:1 14241:1 15151:1 
1 1091:1 4731:1 6281:1 9951:1 10671:1 11041:1 11681:1 12431:1 13231:1 13961:1 14241:1 15151:1 
1 191:1 1131:1 1421:1 5301:1 6241:1 6551:1 10671:1 11041:1 11681:1 12591:1 13231:1 13961:1 14261:1 15151:1 
1 1391:1 1751:1 2671:1 6541:1 6961:1 7911:1 10651:1 11041:1 11681:1 12591:1 13231:1 13931:1 14421:1 15151:1 
1 181:1 1091:1 1381:1 3611:1 5291:1 6201:1 6551:1 9071:1 10511:1 11041:1 11681:1 12591:1 13251:1 13681:1 14401:1 15151:1 
1 2711:1 3421:1 3471:1 7891:1 8651:1 8691:1 10671:1 11041:1 11681:1 12611:1 13411:1 13601:1 14241:1 15151:1 
1 171:1 1051:1 3411:1 5331:1 6281:1 8621:1 10671:1 11041:1 11681:1 12771:1 13391:1 13601:1 14261:1 15131:1 
1 2111:1 3431:1 3471:1 7331:1 8641:1 8651:1 10671:1 11041:1 11691:1 12751:1 13231:1 13601:1 14421:1 14991:1 
1 211:1 1131:1 2061:1 3401:1 5321:1 6321:1 7231:1 8581:1 10671:1 11041:1 11771:1 12591:1 13211:1 13601:1 14411:1 15151:1 
1 441:1 2691:1 5621:1 7941:1 10671:1 11041:1 11771:1 12621:1 13051:1 13601:1 14331:1 15151:1 
1 201:1 3361:1 5241:1 8501:1 10671:1 11041:1 11771:1 12861:1 13051:1 13601:1 14331:1 15151:1 
1 491:1 2151:1 2741:1 3431:1 5631:1 7421:1 7901:1 8651:1 10671:1 11061:1 11771:1 12851:1 13051:1 13601:1 14331:1 15131:1 
1 121:1 3281:1 5211:1 8741:1 10671:1 11221:1 11771:1 12771:1 13081:1 13601:1 14331:1 14971:1 
1 501:1 4691:1 5771:1 9911:1 10671:1 11221:1 11761:1 12751:1 13321:1 13601:1 14331:1 14971:1 
1 1391:1 1941:1 6531:1 7151:1 10671:1 11221:1 11681:1 12591:1 13321:1 13601:1 14331:1 14971:1 
1 1371:1 2701:1 2961:1 6541:1 7871:1 8181:1 10651:1 11241:1 11681:1 12591:1 13321:1 13601:1 14331:1 14971:1 
1 91:1 1381:1 5271:1 6581:1 10511:1 11401:1 11681:1 12591:1 13291:1 13601:1 14331:1 14971:1 
1 1421:1 2671:1 4651:1 6621:1 7901:1 9871:1 10651:1 11401:1 11691:1 12591:1 13051:1 13601:1 14331:1 14971:1 
1 151:1 3111:1 5351:1 8361:1 10491:1 11401:1 11801:1 12571:1 13051:1 13601:1 14331:1 14971:1 
1 1981:1 2971:1 4611:1 7421:1 8201:1 9831:1 10481:1 11421:1 12041:1 12411:1 13051:1 13601:1 14331:1 14971:1 
1 2371:1 3141:1 7571:1 8411:1 10401:1 11581:1 12041:1 12401:1 13071:1 13601:1 14331:1 14971:1 
1 4571:1 4771:1 9761:1 10401:1 11561:1 12041:1 12321:1 13231:1 13601:1 14331:1 14971:1 
1 71:1 371:1 5311:1 5541:1 10491:1 11041:1 11681:1 12411:1 13071:1 13601:1 14241:1 14971:1 
1 2831:1 4151:1 7951:1 9351:1 10491:1 11041:1 11681:1 12411:1 13231:1 13601:1 14241:1 14971:1 
1 681:1 691:1 991:1 1601:1 5861:1 5871:1 6181:1 6811:1 10511:1 11041:1 11681:1 12411:1 13231:1 13601:1 14241:1 14971:1 
1 2751:1 4111:1 4401:1 7911:1 9311:1 9611:1 10671:1 11041:1 11681:1 12431:1 13231:1 13601:1 14241:1 14971:1 
1 191:1 1641:1 4071:1 5351:1 6821:1 9271:1 10671:1 11041:1 11701:1 12571:1 13231:1 13601:1 14241:1 14971:1 
1 2711:1 3151:1 3451:1 7871:1 8361:1 8631:1 10671:1 11061:1 11861:1 12431:1 13231:1 13601:1 14241:1 14971:1 
1 231:1 411:1 5351:1 5661:1 10671:1 11221:1 11841:1 12591:1 13211:1 13601:1 14281:1 14971:1 
1 2671:1 7941:1 10671:1 11201:1 11681:1 12591:1 13051:1 13601:1 14601:1 15001:1 
1 531:1 721:1 4421:1 5711:1 5901:1 9681:1 10671:1 11041:1 11681:1 12591:1 13051:1 13601:1 14601:1 15221:1 
1 2741:1 3451:1 3811:1 4461:1 7981:1 8631:1 9001:1 9701:1 10671:1 11041:1 11681:1 12591:1 13051:1 13601:1 14601:1 15051:1 
1 1031:1 6291:1 10671:1 11041:1 11681:1 12591:1 13051:1 13601:1 14621:1 14971:1 
1 1141:1 2781:1 3811:1 4031:1 6281:1 7941:1 9001:1 9311:1 10671:1 11041:1 11681:1 12611:1 13051:1 13601:1 14761:1 15001:1 
1 761:1 1611:1 5981:1 6861:1 10671:1 11041:1 11681:1 12771:1 13071:1 13601:1 14601:1 15241:1 
1 2741:1 3411:1 4461:1 7981:1 8551:1 9701:1 10671:1 11041:1 11681:1 12751:1 13231:1 13601:1 14601:1 15211:1 
1 1131:1 1341:1 1621:1 1691:1 6291:1 6541:1 6831:1 6901:1 10671:1 11041:1 11681:1 12591:1 13211:1 13601:1 14621:1 14971:1 
1 1141:1 2781:1 3411:1 4151:1 6301:1 7941:1 8591:1 9391:1 10671:1 11041:1 11681:1 12591:1 13051:1 13601:1 14761:1 14981:1 
1 841:1 1381:1 1641:1 5991:1 6531:1 6891:1 10671:1 11041:1 11681:1 12591:1 13071:1 13601:1 14621:1 15061:1 
1 1731:1 3371:1 3771:1 4451:1 6911:1 8551:1 9041:1 9711:1 10671:1 11041:1 11681:1 12591:1 13251:1 13601:1 14781:1 15061:1 
1 4461:1 9631:1 10671:1 11041:1 11681:1 12591:1 13411:1 13601:1 14781:1 15061:1 
1 3771:1 4151:1 4361:1 8991:1 9391:1 9631:1 10671:1 11041:1 11681:1 12591:1 13411:1 13601:1 14781:1 15061:1 
1 1031:1 1311:1 6261:1 6511:1 10671:1 11041:1 11681:1 12591:1 13411:1 13601:1 14781:1 15061:1 
1 3331:1 8561:1 9571:1 10671:1 11051:1 11681:1 12591:1 13411:1 13601:1 14781:1 15061:1 
1 231:1 1151:1 1351:1 4071:1 5351:1 6341:1 6511:1 9271:1 10671:1 11131:1 11701:1 12571:1 13411:1 13601:1 14771:1 15061:1 
1 1371:1 3331:1 3341:1 4381:1 6491:1 8511:1 8551:1 9591:1 10671:1 11121:1 11861:1 12431:1 13391:1 13611:1 14691:1 15061:1 
1 1111:1 1331:1 1741:1 6251:1 6481:1 6941:1 10671:1 11041:1 11861:1 12591:1 13231:1 13691:1 14691:1 15061:1 
1 1661:1 3291:1 3761:1 6791:1 8481:1 8951:1 10671:1 11041:1 11861:1 12591:1 13211:1 13691:1 14691:1 15061:1 
1 1321:1 1351:1 1621:1 6521:1 6551:1 6841:1 10671:1 11041:1 11861:1 12591:1 13071:1 13691:1 14691:1 15061:1 
1 1391:1 3261:1 3811:1 6541:1 8531:1 9001:1 10671:1 11041:1 11861:1 12591:1 13211:1 13691:1 14691:1 15061:1 
1 1361:1 1601:1 1621:1 1721:1 6561:1 6811:1 6831:1 6901:1 10671:1 11041:1 11861:1 12591:1 13071:1 13691:1 14691:1 15061:1 
1 4151:1 4341:1 9381:1 9561:1 10671:1 11041:1 11861:1 12571:1 13231:1 13691:1 14691:1 15061:1 
1 231:1 4031:1 4311:1 5271:1 9261:1 9551:1 10671:1 11051:1 11841:1 12431:1 13231:1 13691:1 14691:1 15061:1 
1 3151:1 3311:1 3331:1 4301:1 8321:1 8531:1 8561:1 9511:1 10671:1 11151:1 11681:1 12611:1 13231:1 13681:1 14691:1 15061:1 
1 151:1 1381:1 1641:1 3311:1 5231:1 6531:1 6851:1 8531:1 10701:1 11291:1 11681:1 12771:1 13251:1 13611:1 14691:1 15061:1 
1 1191:1 3111:1 4381:1 4401:1 6341:1 8311:1 9611:1 9641:1 10941:1 11131:1 11691:1 12751:1 13411:1 13691:1 14671:1 15081:1 
1 111:1 1671:1 3311:1 5271:1 6881:1 8741:1 10931:1 11131:1 11771:1 12591:1 13411:1 13681:1 14511:1 15241:1 
1 1191:1 3101:1 4021:1 6431:1 8261:1 9271:1 10851:1 11131:1 11761:1 12571:1 13411:1 13601:1 14511:1 15241:1 
1 151:1 1101:1 3341:1 4261:1 5261:1 6261:1 8551:1 9731:1 10871:1 11121:1 11681:1 12411:1 13391:1 13601:1 14511:1 15241:1 
1 3331:1 3721:1 4031:1 8541:1 8991:1 9311:1 11031:1 11041:1 11681:1 12431:1 13231:1 13601:1 14511:1 15241:1 
1 141:1 1111:1 3051:1 5311:1 6301:1 8271:1 11011:1 11041:1 11681:1 12611:1 13231:1 13601:1 14511:1 15241:1 
1 3061:1 4071:1 4391:1 8221:1 9301:1 9641:1 10851:1 11041:1 11681:1 12751:1 13231:1 13601:1 14511:1 15221:1 
1 851:1 1731:1 3771:1 6031:1 6981:1 8991:1 10851:1 11041:1 11681:1 12591:1 13231:1 13601:1 14511:1 15061:1 
1 1771:1 2741:1 3761:1 6901:1 7931:1 9041:1 10851:1 11041:1 11681:1 12591:1 13231:1 13601:1 14511:1 15041:1 
1 581:1 4141:1 5631:1 9401:1 10851:1 11041:1 11681:1 12591:1 13231:1 13601:1 14511:1 14881:1 
1 4061:1 4391:1 4431:1 9331:1 9641:1 9671:1 10851:1 11041:1 11681:1 12571:1 13231:1 13601:1 14511:1 14911:1 
1 891:1 1151:1 4391:1 4421:1 6041:1 6261:1 9601:1 9731:1 10851:1 11041:1 11681:1 12411:1 13231:1 13601:1 14531:1 15121:1 
1 2131:1 2731:1 7341:1 8011:1 10851:1 11041:1 11681:1 12411:1 13231:1 13601:1 14671:1 14881:1 
1 501:1 4351:1 5661:1 9731:1 10851:1 11041:1 11681:1 12411:1 13231:1 13601:1 14511:1 14881:1 
1 3761:1 3811:1 4091:1 4421:1 9001:1 9341:1 9681:1 10851:1 11041:1 11681:1 12411:1 13231:1 13601:1 14511:1 14881:1 
1 191:1 2051:1 5351:1 7321:1 10851:1 11041:1 11701:1 12411:1 13231:1 13601:1 14511:1 14881:1 
1 901:1 2811:1 4101:1 4431:1 6081:1 8021:1 9351:1 9681:1 10851:1 11041:1 11861:1 12401:1 13231:1 13601:1 14491:1 14901:1 
1 531:1 1111:1 2141:1 5701:1 6291:1 7311:1 10851:1 11041:1 11861:1 12321:1 13231:1 13601:1 14351:1 15061:1 
1 571:1 731:1 2821:1 3011:1 5741:1 5911:1 8011:1 8261:1 10831:1 11041:1 11861:1 12321:1 13231:1 13601:1 14511:1 15041:1 
1 4111:1 9401:1 10671:1 11041:1 11861:1 12321:1 13231:1 13601:1 14511:1 14881:1 
1 3771:1 4361:1 4431:1 9011:1 9581:1 9681:1 10671:1 11041:1 11861:1 12331:1 13231:1 13601:1 14511:1 14881:1 
1 2031:1 7331:1 10651:1 11041:1 11861:1 12411:1 13231:1 13601:1 14531:1 14881:1 
1 4431:1 4441:1 9681:1 9721:1 10491:1 11041:1 11861:1 12411:1 13231:1 13601:1 14691:1 14881:1 
1 2151:1 4431:1 7371:1 9681:1 10491:1 11041:1 11861:1 12411:1 13231:1 13601:1 14671:1 14881:1 
1 941:1 2811:1 4451:1 6091:1 8061:1 9711:1 10491:1 11041:1 11861:1 12411:1 13231:1 13601:1 14511:1 14881:1 
1 1971:1 2161:1 7191:1 7351:1 10511:1 11041:1 11861:1 12411:1 13231:1 13601:1 14511:1 14881:1 
1 611:1 771:1 2861:1 3051:1 5751:1 5951:1 8021:1 8271:1 10671:1 11041:1 11861:1 12431:1 13231:1 13601:1 14511:1 14901:1 
1 2171:1 7391:1 10671:1 11041:1 11861:1 12591:1 13231:1 13601:1 14511:1 15061:1 
1 71:1 991:1 5311:1 6181:1 10491:1 11041:1 11681:1 12411:1 13051:1 13601:1 14241:1 14971:1 
1 2831:1 3451:1 3811:1 7991:1 8631:1 9001:1 10491:1 11041:1 11681:1 12431:1 13051:1 13601:1 14241:1 15021:1 
1 391:1 691:1 1011:1 1311:1 5561:1 5871:1 6201:1 6511:1 10511:1 11041:1 11681:1 12591:1 13091:1 13601:1 14241:1 15421:1 
1 431:1 2791:1 5601:1 7911:1 10671:1 11041:1 11681:1 12591:1 13391:1 13601:1 14241:1 15391:1 
1 191:1 471:1 701:1 1351:1 5311:1 5561:1 5881:1 6501:1 10671:1 11041:1 11681:1 12591:1 13251:1 13601:1 14241:1 15151:1 
1 731:1 2711:1 5911:1 7901:1 10651:1 11061:1 11681:1 12591:1 13411:1 13601:1 14241:1 15151:1 
1 431:1 741:1 1641:1 5561:1 5911:1 6851:1 10511:1 11221:1 11681:1 12591:1 13391:1 13601:1 14241:1 15151:1 
1 431:1 4401:1 5601:1 9611:1 10651:1 11221:1 11681:1 12591:1 13231:1 13601:1 14241:1 15151:1 
1 191:1 471:1 5311:1 5541:1 10511:1 11221:1 11681:1 12591:1 13231:1 13601:1 14241:1 15151:1 
1 771:1 2701:1 3151:1 4151:1 5921:1 7941:1 8361:1 9351:1 10691:1 11201:1 11681:1 12621:1 13231:1 13601:1 14241:1 15151:1 
1 191:1 781:1 5271:1 5941:1 10831:1 11041:1 11681:1 12861:1 13231:1 13601:1 14241:1 15151:1 
1 411:1 2741:1 5581:1 7931:1 10651:1 11041:1 11681:1 12831:1 13231:1 13601:1 14241:1 15151:1 
1 151:1 1031:1 1681:1 5351:1 6221:1 6891:1 10511:1 11041:1 11701:1 12591:1 13231:1 13601:1 14241:1 15151:1 
1 451:1 2731:1 4441:1 5591:1 7891:1 9661:1 10691:1 11041:1 11861:1 12591:1 13231:1 13601:1 14241:1 15151:1 
1 461:1 1071:1 1601:1 1611:1 5551:1 6261:1 6811:1 6821:1 10811:1 11041:1 11861:1 12591:1 13231:1 13601:1 14241:1 15151:1 
1 1721:1 2691:1 4411:1 6901:1 7901:1 9651:1 10491:1 11061:1 11861:1 12591:1 13231:1 13601:1 14241:1 15151:1 
1 231:1 801:1 1111:1 4361:1 5311:1 5951:1 6221:1 9571:1 10511:1 11221:1 11841:1 12591:1 13231:1 13601:1 14241:1 15151:1 
1 421:1 2701:1 4401:1 4471:1 5591:1 7941:1 9661:1 9721:1 10691:1 11201:1 11681:1 12621:1 13231:1 13601:1 14241:1 15151:1 
1 191:1 461:1 811:1 4321:1 5351:1 5551:1 5941:1 9531:1 10831:1 11041:1 11701:1 12861:1 13231:1 13601:1 14241:1 15151:1 
1 1731:1 2741:1 4281:1 6941:1 7891:1 9491:1 10671:1 11041:1 11861:1 12831:1 13231:1 13601:1 14241:1 15151:1 
1 421:1 801:1 1071:1 1771:1 5541:1 5981:1 6211:1 6951:1 10671:1 11041:1 11881:1 12591:1 13231:1 13601:1 14241:1 15151:1 
1 1781:1 2691:1 6991:1 7901:1 10671:1 11061:1 12021:1 12591:1 13231:1 13601:1 14241:1 15151:1 
1 411:1 771:1 1051:1 4241:1 5581:1 5871:1 6211:1 9501:1 10651:1 11241:1 11861:1 12591:1 13231:1 13601:1 14241:1 15151:1 
1 451:1 5601:1 10491:1 11401:1 11861:1 12591:1 13231:1 13601:1 14241:1 15151:1 
1 471:1 1061:1 5621:1 6221:1 10511:1 11401:1 11861:1 12591:1 13231:1 13601:1 14241:1 15151:1 
1 491:1 2701:1 4251:1 5581:1 7931:1 9491:1 10671:1 11361:1 11861:1 12591:1 13231:1 13601:1 14241:1 15151:1 
1 451:1 1061:1 1071:1 5571:1 6221:1 6251:1 10671:1 11041:1 11861:1 12591:1 13251:1 13601:1 14241:1 15151:1 
1 1651:1 2731:1 6861:1 7891:1 10691:1 11041:1 11861:1 12591:1 13411:1 13601:1 14241:1 15151:1 
1 1071:1 1101:1 1621:1 6261:1 6291:1 6781:1 10831:1 11041:1 11881:1 12591:1 13391:1 13601:1 14241:1 15151:1 
1 1141:1 2691:1 6281:1 7901:1 10671:1 11061:1 12021:1 12591:1 13231:1 13601:1 14241:1 15151:1 
1 441:1 1131:1 5621:1 6231:1 10671:1 11221:1 11861:1 12591:1 13231:1 13601:1 14241:1 15151:1 
1 491:1 2701:1 4451:1 5611:1 7931:1 9691:1 10671:1 11201:1 11861:1 12591:1 13231:1 13601:1 14241:1 15151:1 
1 1081:1 1611:1 1691:1 4241:1 6191:1 6821:1 6901:1 9501:1 10651:1 11051:1 11861:1 12591:1 13231:1 13601:1 14241:1 15151:1 
1 1731:1 2731:1 4101:1 6941:1 7901:1 9301:1 10491:1 11161:1 11861:1 12591:1 13231:1 13601:1 14241:1 15131:1 
1 481:1 1111:1 1771:1 5621:1 6221:1 6961:1 10511:1 11401:1 11861:1 12591:1 13231:1 13601:1 14241:1 14971:1 
1 491:1 3771:1 5581:1 9011:1 10671:1 11401:1 11861:1 12591:1 13231:1 13601:1 14241:1 14991:1 
1 451:1 1041:1 1791:1 4251:1 5621:1 6201:1 6951:1 9511:1 10691:1 11381:1 11881:1 12591:1 13231:1 13601:1 14241:1 15151:1 
1 491:1 2701:1 4061:1 4261:1 5611:1 7931:1 9311:1 9731:1 10851:1 11201:1 12041:1 12591:1 13231:1 13601:1 14241:1 15171:1 
1 481:1 841:1 4411:1 5571:1 6031:1 9701:1 10851:1 11041:1 12041:1 12591:1 13231:1 13601:1 14241:1 15331:1 
1 1781:1 6931:1 10851:1 11041:1 12021:1 12591:1 13231:1 13601:1 14241:1 15331:1 
1 441:1 1051:1 1761:1 5581:1 6231:1 6971:1 10831:1 11041:1 11861:1 12591:1 13231:1 13601:1 14241:1 15331:1 
1 4471:1 9651:1 10671:1 11041:1 11861:1 12591:1 13231:1 13601:1 14241:1 15331:1 
1 1071:1 1081:1 6271:1 6291:1 10651:1 11041:1 11881:1 12591:1 13231:1 13601:1 14241:1 15331:1 
1 451:1 2731:1 5601:1 7901:1 10491:1 11061:1 12041:1 12591:1 13231:1 13601:1 14241:1 15331:1 
1 471:1 5551:1 10491:1 11221:1 12041:1 12591:1 13231:1 13601:1 14241:1 15331:1 
1 421:1 5601:1 10491:1 11221:1 12041:1 12591:1 13231:1 13601:1 14241:1 15331:1 
1 471:1 1141:1 5561:1 6281:1 10511:1 11221:1 12021:1 12591:1 13231:1 13601:1 14241:1 15331:1 
1 431:1 5601:1 10651:1 11221:1 11861:1 12591:1 13231:1 13601:1 14241:1 15331:1 
1 471:1 1131:1 5561:1 6291:1 10511:1 11221:1 11881:1 12591:1 13231:1 13601:1 14241:1 15331:1 
1 1141:1 2701:1 6301:1 7951:1 10671:1 11201:1 12021:1 12591:1 13231:1 13601:1 14241:1 15331:1 
1 431:1 5621:1 10651:1 11041:1 11861:1 12591:1 13231:1 13601:1 14241:1 15331:1 
1 2751:1 3411:1 4401:1 7941:1 8601:1 9661:1 10491:1 11041:1 11861:1 12621:1 13231:1 13601:1 14241:1 15331:1 
1 491:1 891:1 1341:1 3411:1 5581:1 5991:1 6511:1 8591:1 10491:1 11041:1 11881:1 12841:1 13211:1 13601:1 14241:1 15331:1 
1 1151:1 3381:1 3781:1 4461:1 6291:1 8591:1 9001:1 9671:1 10491:1 11041:1 12041:1 12681:1 13051:1 13601:1 14251:1 15311:1 
1 231:1 1641:1 4071:1 5351:1 6891:1 9271:1 10491:1 11041:1 12011:1 12681:1 13051:1 13601:1 14361:1 15131:1 
1 2741:1 3151:1 4111:1 4411:1 7901:1 8361:1 9311:1 9621:1 10491:1 11061:1 11771:1 12671:1 13051:1 13601:1 14601:1 14991:1 
1 731:1 1621:1 1651:1 5921:1 6831:1 6861:1 10511:1 11221:1 11771:1 12591:1 13071:1 13601:1 14601:1 15151:1 
1 451:1 2701:1 5601:1 7951:1 10671:1 11201:1 11771:1 12591:1 13231:1 13601:1 14601:1 15151:1 
1 1141:1 4031:1 6261:1 9191:1 10671:1 11041:1 11771:1 12591:1 13231:1 13611:1 14581:1 15151:1 
1 471:1 2751:1 3371:1 5641:1 7941:1 8551:1 10671:1 11041:1 11771:1 12621:1 13231:1 13691:1 14421:1 15151:1 
1 231:1 511:1 1111:1 4071:1 5351:1 5641:1 6261:1 9271:1 10671:1 11041:1 11801:1 12841:1 13231:1 13691:1 14401:1 15151:1 
1 3371:1 3951:1 8511:1 9181:1 9651:1 10671:1 11041:1 12041:1 12681:1 13231:1 13691:1 14241:1 15151:1 
1 511:1 1121:1 5581:1 6281:1 10671:1 11041:1 12041:1 12681:1 13231:1 13691:1 14241:1 15151:1 
1 1661:1 1691:1 3331:1 3941:1 6791:1 6851:1 8511:1 9141:1 10651:1 11051:1 12041:1 12681:1 13211:1 13711:1 14241:1 15151:1 
1 451:1 1721:1 3291:1 5541:1 6911:1 8501:1 10511:1 11131:1 12041:1 12681:1 13071:1 13851:1 14241:1 15151:1 
1 1741:1 2741:1 4401:1 6901:1 7901:1 9571:1 10651:1 11161:1 12041:1 12651:1 13231:1 13691:1 14241:1 15151:1 
1 1131:1 1351:1 1611:1 6291:1 6551:1 6821:1 10511:1 11401:1 12061:1 12411:1 13231:1 13691:1 14241:1 15151:1 
1 1341:1 4321:1 6491:1 9581:1 10651:1 11401:1 12221:1 12411:1 13231:1 13691:1 14241:1 15151:1 
1 231:1 781:1 3901:1 5351:1 5891:1 9401:1 10491:1 11401:1 12191:1 12411:1 13231:1 13681:1 14261:1 15151:1 
1 1391:1 4451:1 6761:1 9711:1 10481:1 11401:1 11951:1 12411:1 13231:1 13601:1 14421:1 15151:1 
1 1821:1 4421:1 7001:1 9731:1 10401:1 11401:1 11971:1 12401:1 13231:1 13601:1 14421:1 15151:1 
1 1141:1 2701:1 6431:1 7871:1 10401:1 11401:1 12111:1 12321:1 13231:1 13601:1 14421:1 15151:1 
1 851:1 3771:1 6041:1 9071:1 10401:1 11401:1 11951:1 12321:1 13231:1 13601:1 14421:1 15151:1 
1 4761:1 4781:1 9951:1 10051:1 10401:1 11401:1 11951:1 12331:1 13231:1 13601:1 14421:1 15151:1 
1 231:1 2151:1 3151:1 5391:1 7321:1 8361:1 10401:1 11401:1 11931:1 12411:1 13231:1 13601:1 14401:1 15151:1 
1 3151:1 4781:1 4791:1 8401:1 10041:1 10051:1 10401:1 11401:1 11771:1 12411:1 13231:1 13601:1 14241:1 15151:1 
1 2141:1 4691:1 7331:1 10061:1 10401:1 11401:1 11791:1 12401:1 13231:1 13601:1 14241:1 15151:1 
1 2051:1 3291:1 7221:1 8631:1 10401:1 11381:1 11951:1 12331:1 13231:1 13601:1 14241:1 15151:1 
1 271:1 1331:1 2001:1 2151:1 5351:1 6501:1 7191:1 7321:1 10431:1 11221:1 11961:1 12411:1 13231:1 13601:1 14241:1 15151:1 
1 901:1 3191:1 4791:1 6031:1 8351:1 10011:1 10671:1 11221:1 12021:1 12431:1 13231:1 13601:1 14241:1 15151:1 
1 3281:1 8741:1 10671:1 11221:1 11861:1 12591:1 13231:1 13601:1 14241:1 15151:1 
1 4031:1 4651:1 9261:1 9931:1 10671:1 11221:1 11861:1 12611:1 13231:1 13601:1 14241:1 15151:1 
1 1961:1 1971:1 2041:1 7161:1 7221:1 7261:1 10671:1 11221:1 11861:1 12771:1 13251:1 13601:1 14241:1 15151:1 
1 3781:1 4671:1 9001:1 9911:1 10671:1 11221:1 11861:1 12771:1 13411:1 13601:1 14241:1 15131:1 
1 1111:1 1981:1 6251:1 7251:1 10691:1 11221:1 11861:1 12771:1 13391:1 13601:1 14241:1 14971:1 
1 1101:1 2671:1 4021:1 6261:1 7951:1 9251:1 10831:1 11201:1 11861:1 12751:1 13231:1 13601:1 14241:1 14971:1 
1 411:1 1111:1 1941:1 5581:1 6291:1 7161:1 10671:1 11041:1 11881:1 12591:1 13231:1 13601:1 14241:1 14971:1 
1 1141:1 2751:1 3771:1 4651:1 6251:1 7941:1 9011:1 9901:1 10691:1 11041:1 12021:1 12621:1 13231:1 13601:1 14241:1 14991:1 
1 2041:1 4641:1 7261:1 9911:1 10851:1 11041:1 11861:1 12861:1 13231:1 13601:1 14241:1 15151:1 
1 1101:1 2741:1 3781:1 6211:1 7911:1 9001:1 10831:1 11041:1 11861:1 12831:1 13231:1 13601:1 14241:1 15131:1 
1 451:1 1061:1 2081:1 4651:1 5621:1 6251:1 7301:1 9921:1 10691:1 11041:1 11861:1 12591:1 13231:1 13601:1 14241:1 14991:1 
1 2711:1 4661:1 7941:1 9881:1 10851:1 11041:1 11861:1 12591:1 13231:1 13611:1 14241:1 15161:1 
1 231:1 751:1 1101:1 2141:1 5351:1 5881:1 6291:1 7331:1 10831:1 11041:1 11871:1 12591:1 13211:1 13691:1 14261:1 15241:1 
1 3771:1 4621:1 4781:1 8991:1 9871:1 10011:1 10671:1 11041:1 11951:1 12591:1 13051:1 13681:1 14421:1 15241:1 
1 741:1 1921:1 5871:1 7221:1 10671:1 11041:1 11951:1 12591:1 13071:1 13601:1 14421:1 15241:1 
1 1141:1 3411:1 4011:1 6251:1 8601:1 9291:1 10691:1 11041:1 11931:1 12611:1 13231:1 13601:1 14421:1 15241:1 
1 4611:1 10061:1 10851:1 11041:1 11771:1 12771:1 13231:1 13601:1 14421:1 15241:1 
1 2151:1 3381:1 4751:1 7421:1 8651:1 10001:1 10851:1 11041:1 11761:1 12771:1 13231:1 13601:1 14421:1 15261:1 
1 491:1 2041:1 4691:1 5701:1 7261:1 9961:1 10851:1 11041:1 11681:1 12771:1 13231:1 13601:1 14421:1 15401:1 
1 2741:1 4701:1 4741:1 7971:1 9921:1 10011:1 10851:1 11041:1 11681:1 12771:1 13231:1 13601:1 14421:1 15241:1 
1 731:1 1101:1 5921:1 6281:1 10831:1 11041:1 11681:1 12771:1 13231:1 13601:1 14421:1 15241:1 
1 891:1 6101:1 10671:1 11041:1 11681:1 12771:1 13231:1 13601:1 14421:1 15241:1 
1 4661:1 10061:1 10671:1 11041:1 11681:1 12771:1 13231:1 13601:1 14421:1 15221:1 
1 3431:1 4751:1 8601:1 10001:1 10671:1 11041:1 11681:1 12771:1 13231:1 13601:1 14421:1 15081:1 
1 231:1 781:1 2071:1 5351:1 5961:1 7331:1 10671:1 11041:1 11701:1 12771:1 13211:1 13601:1 14431:1 15241:1 
1 1131:1 3381:1 6291:1 8641:1 10671:1 11041:1 11881:1 12751:1 13051:1 13601:1 14511:1 15241:1 
1 3421:1 8611:1 10671:1 11041:1 12041:1 12591:1 13051:1 13601:1 14511:1 15241:1 
1 2151:1 3141:1 7321:1 8341:1 10671:1 11041:1 12041:1 12571:1 13051:1 13601:1 14491:1 15241:1 
1 2461:1 3731:1 7661:1 9071:1 10671:1 11041:1 12041:1 12401:1 13051:1 13601:1 14351:1 15241:1 
1 2471:1 4751:1 7651:1 9971:1 10671:1 11041:1 12041:1 12321:1 13051:1 13601:1 14491:1 15261:1 
1 2401:1 7691:1 10671:1 11041:1 12061:1 12321:1 13051:1 13601:1 14331:1 15421:1 
1 2501:1 3131:1 7651:1 8351:1 10671:1 11041:1 12201:1 12331:1 13051:1 13601:1 14331:1 15421:1 
1 2441:1 2461:1 7641:1 7721:1 10671:1 11041:1 12061:1 12411:1 13051:1 13601:1 14331:1 15421:1 
1 71:1 691:1 5271:1 5871:1 10511:1 11041:1 11681:1 12411:1 13071:1 13601:1 14241:1 14971:1 
1 2831:1 3451:1 3811:1 3831:1 7991:1 8631:1 9001:1 9021:1 10671:1 11041:1 11681:1 12441:1 13231:1 13601:1 14241:1 14991:1 
1 151:1 1341:1 1611:1 1621:1 5311:1 6541:1 6821:1 6831:1 10671:1 11041:1 11681:1 12681:1 13231:1 13601:1 14241:1 15151:1 
1 2791:1 4401:1 7871:1 9611:1 10671:1 11061:1 11681:1 12651:1 13231:1 13601:1 14241:1 15151:1 
1 191:1 3411:1 5301:1 8591:1 10671:1 11221:1 11681:1 12411:1 13231:1 13601:1 14261:1 15131:1 
1 391:1 2671:1 3131:1 3771:1 5561:1 7871:1 8301:1 8961:1 10691:1 11201:1 11681:1 12431:1 13231:1 13621:1 14421:1 14991:1 
1 181:1 431:1 991:1 3371:1 5311:1 5551:1 6181:1 8601:1 10831:1 11041:1 11681:1 12591:1 13231:1 13781:1 14401:1 15171:1 
1 2671:1 3381:1 7871:1 8591:1 10671:1 11061:1 11681:1 12591:1 13231:1 13761:1 14241:1 15311:1 
1 191:1 421:1 731:1 1031:1 5311:1 5541:1 5861:1 6181:1 10671:1 11221:1 11681:1 12591:1 13231:1 13601:1 14241:1 15151:1 
1 3091:1 3371:1 3731:1 4361:1 8341:1 8631:1 8951:1 9621:1 10671:1 11221:1 11681:1 12591:1 13231:1 13601:1 14241:1 15151:1 
1 191:1 3471:1 5311:1 8651:1 10671:1 11221:1 11681:1 12591:1 13231:1 13601:1 14241:1 15171:1 
1 2671:1 3431:1 7871:1 8691:1 10671:1 11201:1 11681:1 12591:1 13231:1 13621:1 14241:1 15311:1 
1 1311:1 3471:1 6471:1 8651:1 10671:1 11041:1 11681:1 12591:1 13231:1 13781:1 14241:1 15171:1 
1 3431:1 3791:1 8591:1 9021:1 10671:1 11041:1 11681:1 12591:1 13231:1 13781:1 14241:1 15311:1 
1 191:1 3371:1 5271:1 8601:1 10671:1 11041:1 11681:1 12591:1 13231:1 13781:1 14241:1 15171:1 
1 3131:1 3381:1 3791:1 4371:1 8301:1 8591:1 9021:1 9611:1 10671:1 11041:1 11681:1 12591:1 13231:1 13781:1 14241:1 15311:1 
1 151:1 3371:1 5311:1 8601:1 10671:1 11041:1 11681:1 12591:1 13231:1 13781:1 14241:1 15171:1 
1 3381:1 3721:1 8591:1 8911:1 10671:1 11041:1 11681:1 12591:1 13231:1 13781:1 14241:1 15311:1 
1 191:1 731:1 1611:1 5311:1 5911:1 6861:1 10671:1 11041:1 11681:1 12591:1 13231:1 13781:1 14241:1 15151:1 
1 3091:1 4361:1 4441:1 8341:1 9621:1 9651:1 10671:1 11041:1 11681:1 12591:1 13231:1 13781:1 14241:1 15151:1 
1 1641:1 3681:1 6851:1 8871:1 10671:1 11041:1 11681:1 12591:1 13231:1 13781:1 14241:1 15151:1 
1 2671:1 4401:1 7901:1 9571:1 10671:1 11041:1 11681:1 12591:1 13231:1 13781:1 14241:1 15151:1 
1 411:1 4371:1 5661:1 9611:1 10651:1 11041:1 11691:1 12571:1 13231:1 13781:1 14241:1 15151:1 
1 771:1 2701:1 3371:1 3791:1 5921:1 7941:1 8551:1 8981:1 10491:1 11041:1 11771:1 12431:1 13251:1 13761:1 14241:1 15181:1 
1 191:1 781:1 3751:1 5351:1 5891:1 8981:1 10491:1 11041:1 11801:1 12571:1 13411:1 13601:1 14241:1 15431:1 
1 2741:1 4471:1 7941:1 9681:1 10491:1 11041:1 12041:1 12441:1 13411:1 13601:1 14241:1 15491:1 
1 531:1 4361:1 5611:1 9581:1 10491:1 11041:1 12021:1 12681:1 13411:1 13601:1 14241:1 15331:1 
1 1691:1 6941:1 10491:1 11041:1 11861:1 12681:1 13391:1 13601:1 14241:1 15331:1 
1 231:1 481:1 721:1 3751:1 5351:1 5571:1 5871:1 8941:1 10511:1 11041:1 11841:1 12681:1 13231:1 13601:1 14261:1 15311:1 
1 2741:1 3131:1 3331:1 7891:1 8301:1 8511:1 10671:1 11041:1 11681:1 12671:1 13231:1 13611:1 14421:1 15151:1 
1 231:1 3711:1 5271:1 8901:1 10671:1 11041:1 11681:1 12591:1 13231:1 13691:1 14401:1 15151:1 
1 2691:1 3671:1 7911:1 8981:1 10671:1 11041:1 11681:1 12611:1 13231:1 13691:1 14241:1 15151:1 
1 151:1 4331:1 5261:1 9541:1 10671:1 11041:1 11681:1 12771:1 13261:1 13691:1 14241:1 15151:1 
1 751:1 2711:1 3641:1 5891:1 7871:1 8881:1 10691:1 11041:1 11681:1 12771:1 13481:1 13721:1 14241:1 15151:1 
1 4291:1 9731:1 10851:1 11041:1 11681:1 12771:1 13321:1 13961:1 14241:1 15151:1 
1 1661:1 3291:1 4321:1 6791:1 8481:1 9531:1 10851:1 11041:1 11681:1 12771:1 13301:1 13961:1 14241:1 15151:1 
1 141:1 1381:1 3261:1 5181:1 6531:1 8471:1 10851:1 11041:1 11681:1 12771:1 13161:1 13941:1 14241:1 15151:1 
1 1371:1 3411:1 3651:1 6541:1 8601:1 8841:1 10851:1 11041:1 11681:1 12771:1 13301:1 13801:1 14241:1 15151:1 
1 1311:1 1601:1 1621:1 6511:1 6801:1 6811:1 10851:1 11041:1 11681:1 12771:1 13141:1 13961:1 14241:1 15151:1 
1 3381:1 4101:1 4431:1 8561:1 9291:1 9671:1 10851:1 11041:1 11681:1 12771:1 13141:1 13981:1 14241:1 15151:1 
1 441:1 751:1 1031:1 1351:1 5581:1 5931:1 6181:1 6551:1 10851:1 11041:1 11681:1 12771:1 13141:1 14141:1 14241:1 15151:1 
1 4451:1 9571:1 9661:1 10851:1 11041:1 11681:1 12771:1 13141:1 14141:1 14241:1 15151:1 
1 451:1 731:1 1391:1 1631:1 5621:1 5911:1 6541:1 6791:1 10811:1 11041:1 11681:1 12771:1 13141:1 14141:1 14241:1 15151:1 
1 1771:1 4051:1 7091:1 9261:1 10491:1 11041:1 11681:1 12771:1 13141:1 14141:1 14241:1 15151:1 
1 1381:1 3751:1 6551:1 8941:1 10511:1 11041:1 11681:1 12751:1 13141:1 14141:1 14241:1 15151:1 
1 791:1 3711:1 5931:1 8981:1 10671:1 11041:1 11681:1 12611:1 13141:1 14141:1 14241:1 15151:1 
1 791:1 1391:1 1651:1 5971:1 6591:1 6861:1 10671:1 11041:1 11681:1 12771:1 13141:1 14141:1 14241:1 15151:1 
1 1431:1 2671:1 4281:1 4401:1 6591:1 7911:1 9541:1 9611:1 10671:1 11041:1 11681:1 12771:1 13141:1 14111:1 14241:1 15151:1 
