0.012946026305963297
0.013237512152726436
0.011145153065664945
-0.006624385417463335
-0.002420888291527635
0.004714583449207464
0.03635924751639491
-0.006015517844509394
-0.03245654352295216
-0.012391074984911526
-0.03117344583235418
-0.017905163388430904
0.0020610709863024762
-5.966939272730155E-4
0.02424299747933032
2.805277883967316E-4
0.005716143253998488
-0.00981896772354454
-0.007390185591968605
0.026003677397675812
0.00541795265153035
-0.007978698960970079
0.010711945010180864
-0.00449327138532169
-0.009251796528359597
-4.6942220070726834E-4
0.006493577230005286
-5.436040923765045E-4
0.0037111467775093644
-0.005775005551392478
-0.02586284645854822
-0.02162426649540152
-0.0020421525659531665
0.015880062306884744
0.010439263159735273
-0.017600289632190427
-0.03275492271484254
-0.03897102963339771
0.0167223075972963
0.008497213710403467
0.01731788359055685
0.017358993363745367
0.009319678339616017
0.010146399571044986
0.004456866938957904
-0.027462568750549317
0.030502740920454893
-0.005520758136888275
0.0028605610198990123
0.0014246237800404962
0.0023941594911662976
0.009384856543057811
0.004356688806542831
-0.011290308918602051
0.009499726976773782
0.018456502596847238
0.006180208087274529
0.019831889425972124
0.002482320370558187
6.75977529461429E-5
-8.404565034642872E-4
0.0023404792904635797
-0.023157603631679267
5.587888133707027E-4
0.013356496423802417
0.046230663818940934
-0.04524929409493231
-0.006228730056576557
-0.06847363426422717
-0.022802685855097843
0.042799257993022484
0.020941674240521378
-0.012577584457252747
0.03170827757663057
0.009689225271932621
0.00958825103572458
0.015813753346040807
0.004886906841729
0.0320308055724695
0.027085425375469648
0.015854563221778816
0.005247227339127704
-0.0029425291170070682
0.008399304769393436
-0.0018048493543848854
0.007842354929675556
0.0022208391515287996
-0.007767385126065045
0.014192804059808259
-0.005069696171976572
-0.013389589989627169
0.005576435692414067
-0.0147449429110428
-0.0027921252399029472
-0.007178532999119263
-0.010801601513474464
0.0013868702273932864
0.0275838514324575
0.017586447385846086
0.005634987529843214
-0.001160267257820112
-0.028531298259603686
0.004428077896388597
0.005758103060481152
0.022008202963951545
0.027190027832027057
0.02452566012309271
0.006083111359259601
-0.00796493190490647
0.006511696360058736
-1.332607697017066E-4
0.018924218296976023
-0.007640831564761831
2.447476158621967E-4
0.017103521106260716
-0.007955979348892384
-0.004058445817917319
0.005202659128359561
0.015787017878610653
-0.0025203709945132934
0.0018324984841045003
0.011393201185500934
0.005168721120473034
-0.015545468941212472
-0.011562739143904011
-0.009533608671516914
3.335825970511943E-4
-0.0010297596078917986
0.00913390940571513
0.004122658087494093
0.02483123278596831
0.008916686096465213
0.0028518337994911484
0.013138745137862982
0.024227724373570368
0.009651872758796051
-0.0010841878235983093
0.009246466093512927
0.01430053254958597
0.021941961674905985
0.0059797470619007516
-0.006378065975203985
0.009333407504331351
0.01708465409033873
0.004712790666851405
0.008425689951878357
0.007702896777199705
0.015616088894175673
-0.017200219233939763
0.027155247995281094
-0.0015746641397657737
0.00938498153164718
0.011551872851788386
0.00659354306756841
-0.0027904650260542497
-0.0076916467113394135
0.00106259294302316
-0.002108548296068729
0.013260212149796984
-7.574376863162743E-4
0.002141878351306339
7.553383657812403E-4
0.00483012120086136
0.01152873802512984
-7.747623900041691E-4
0.021320320831701826
0.03185735036518609
0.0021977082182055305
0.014895228574782718
0.03494380627207364
0.027895484188155784
0.00786750989751083
0.036852476029061006
-0.008730701763368058
0.030193622484079044
-0.0029859712147464862
-0.012684697235494705
0.047834953316160764
0.07567771985994338
0.013097571303010482
-0.0188761394252861
0.03720804581778037
0.018189543458877848
0.026242901477906616
-0.006602568267050782
-0.0011689021716428938
0.008176333208170182
-0.010813160704620198
-0.05540465886935453
-0.09001711142335247
-0.006759105036228683
-0.05272555027716032
0.019873191141199887
-0.007098759572232038
0.027658900764910597
0.015445948456375674
0.026696839232734155
0.001509708192728913
0.016742625924083
-0.0028318830272881937
0.01564115030639883
4.308084064168216E-5
0.01369542286153788
0.01698280969256947
0.012520802319419468
-0.004203379645891107
0.04163810808770925
0.01581790444660325
0.004375691743475854
0.060301912045077274
0.017476788640529078
0.0471815888096882
0.027432617398716386
0.0284342991593169
-0.012648271758063857
-0.014690057063641262
-0.006016689506347122
0.0144578884855166
0.014719551296958792
0.004572093987462598
-0.14008965599563195
-0.28240664141308586
-0.05183109030367017
-0.10609947351037638
0.011580895152532947
-9.853500927487083E-4
-0.016168094504244522
0.0022031402146157324
0.012529979643842958
0.02696091994685219
0.026434927868274567
-0.01495583446159925
0.013728452140834641
0.014272257700205777
-0.002906128890580727
0.0034552502971291533
0.013898595533328234
0.013289146608391766
-0.026456798845667692
0.010123898938639448
0.0361079102524597
0.017129340921967027
-0.0381856176550013
0.03437480801336374
0.013099948087388643
0.01663543487567732
-0.012173924674563456
0.013969964267788997
-0.02588291881475181
0.006359632895375352
-0.0025833949121831902
0.020880025797489765
-0.06184436310434432
-0.06563276334389002
-0.11490806730259644
-0.21753297833130308
0.0059511275060084474
0.020862860852792344
-0.0023701112441409347
0.01559453050835032
0.0011551257948873837
0.019316683067935388
-0.00846417636493978
0.00977842394496632
0.0021276768789338135
-0.008626459857997922
-0.02439267320429292
0.015501562026571849
-0.015700445837034782
0.024805390143622492
0.024533741126472407
0.020797036030123433
-0.0028644735024512037
0.008550989525928742
0.03040919498719152
0.029678134748342487
0.005173137870704646
0.01835970817816214
0.012106521732973483
0.022423392880428043
-5.956864835625659E-4
0.008695810135810032
0.03280582919195609
0.0033326220070952718
-0.016590757055809768
0.011008262020182239
0.013589489303319123
0.0065878682299955445
-0.001054788795455945
0.017482599486828548
0.0021751687565967535
-0.004765403217564843
-0.007513837878219087
0.007306973583601527
0.003926789857188868
-0.006730453269646738
-0.0034410683592548306
-0.0042161861920958724
0.0044472695063429955
0.012067282125508278
-0.003243356036178208
0.0031587735335570563
0.009535534965173027
0.014142678941781754
0.029170860825052266
0.0019027033721357577
0.019092349596895982
0.004657678046905337
0.0026142238356084246
0.0048619590857789125
0.018379832554825365
0.01989344128486708
-0.004669644502028551
0.008934155025299043
0.021063096353744315
-0.001331313683703872
0.01373689585745739
0.006105549679388982
0.012369292034838778
0.008135050253425372
0.004895120559170469
-0.0024192982919422545
-0.004347044983506708
0.006052854372433799
0.01005567926041977
0.012091239202246307
0.01618220878994349
-0.006440887350266752
0.01645022876125771
0.011604352051253014
0.007448572354276318
0.0038561830138151656
0.025152798777758875
0.00811903787594362
0.021768239548671357
0.02541058129740154
0.01724151062371006
0.01626705037966383
0.027232839735130167
0.008695834141111077
0.019932556535361003
0.017016710142095128
0.006625461784370615
0.029255035376138862
0.02174713260776596
0.008951733793204247
0.021165409063436447
0.01411495597877196
0.01216942046435684
0.01345504963792207
0.0027134363915104227
-0.01522249068356017
0.012280052833165113
0.017855029772599323
-0.0020588055513507497
0.011774419024141843
-0.0036650144633856366
-0.010000174612085584
-0.009577347239105284
-0.012871270422446129
0.038925857044113645
-0.015178856659374036
2.687258943958919E-4
-0.0037635251829273918
0.006414304424456369
0.0015624207747282958
-0.0034375838390667203
0.012229604297192862
-0.002669120881268872
0.00470054358358915
0.01973745881087436
-6.768519634774628E-4
0.002780806888775887
0.0158160004895358
0.0073021510515603695
0.026074355187069503
0.002162839091349124
0.01226150899620088
0.00910269260241397
-0.002351751973571824
0.003006598017872233
0.004612598819902295
0.027456018486332435
-0.005184342178704011
0.016419228936874235
-0.006543897327771731
-0.004317394398969886
-0.007559002517443832
-0.008449407522786846
0.006083828468453405
-0.022319450424470335
-0.011659732945717512
0.010829864240146227
-0.001647012196806648
0.0086345642022121
0.010253059938740266
0.006683720445619617
0.006658044180678118
0.009206544955358165
-5.665229178049107E-4
-0.007663508109273367
0.0072083751022190565
0.029775574556698145
-5.61495002420148E-4
7.582133781217947E-5
0.011410683562811082
0.004706992805977285
0.010244018158442036
0.00595187070456385
0.009346163859736259
0.02077270807922149
0.011439285409290456
0.02204686017439765
-5.798712709291093E-4
0.018684595043261358
-0.006219209809245983
0.08705600948125147
-0.03129135070201304
0.002383939709017664
-0.03629550905398722
0.024141806960148116
-0.004671880927215139
-0.00579745022659245
0.01250730023888857
0.0364082648707418
0.03383119000161861
-0.0060972422174017495
7.91380224396064E-4
0.011813211069912972
-0.005783487823640742
-0.00540239558932031
0.017364554699697887
0.019133101528220887
0.024354274330320457
0.013909495034322528
-0.001866105443105588
0.014785812164138575
0.026204588854823043
0.018936647977097414
0.013965158984183023
0.03119301332109388
0.012834809399358714
0.033714217639903725
0.0026283370104842924
-0.013639056977276583
-0.008582003804265978
-3.752193442256985E-4
0.018357000067828953
0.3553885775438867
0.025715715936835346
0.010756764991130263
0.001721437108246674
0.09489054914597282
-0.1135725841070749
-0.0027999513154089574
-0.014817137889917197
0.022943543951560282
0.006062756029444235
-0.00853485378694378
-0.01297048470092774
-0.003341761054259296
0.020014409420126056
0.017447045768190676
0.008137079127391773
0.01284134992647756
0.005048868407937873
0.03548492336750726
0.014940040091462452
0.01893213752222277
0.005508127856370391
0.024715137381616417
0.02008490608691738
0.03231806274425956
0.006020453157204867
0.03352922142523753
-0.0028747744879930037
-9.378709600943662E-6
0.003917026366875439
-0.007949871713869475
0.014332580617514242
0.2935123737215193
-0.02199582417433931
0.020628687769038333
-0.014680448485612825
0.03882831854104809
-0.010168234898183684
0.01155784043327361
-0.017959563865378263
0.04434639163185648
-0.005075457751143059
-0.004498863974772235
-3.847025432938923E-5
0.01178537368505383
0.010489847387296681
0.006025272598155101
0.025569361778003778
0.027101956993938914
0.010409997079031653
0.03268931160942418
0.010164658112854335
0.029290098605627726
-0.005947076049736317
0.005682921085149304
0.0014290640626076455
0.004990619341601047
0.040314037278206864
0.013937111952513776
-0.01535962314994883
-0.010877524060417604
0.012652350707111099
0.003450303470104387
-0.0034912322966493626
-0.037520238235413124
-2.584733143026804E-4
-2.84128046235816E-4
0.010630649412178521
3.8260852997965466E-4
-0.028371265857039786
0.006459562133351485
0.024926681121499598
0.01328999906463234
0.00483631415346496
0.005435149424060817
0.02539431002384382
-0.002555777695782892
-0.005244512601876938
0.0034720745775736854
0.0011861788009345595
0.009925594122442644
-0.002849886283683659
0.005786995979564807
-0.012219466482824516
-0.0022309665689160298
0.007041833088556805
-0.019494632608686675
-0.006053961217698411
0.007198406329357872
0.007551444487579037
-0.015067562471196925
-1.0412985924026298E-4
0.0186133449091786
0.0013179954712372072
-0.0019220191872895767
-9.657450645086038E-4
0.004687352228430466
-0.06801410364811813
-0.020943446913353963
0.0056276288829113326
0.04747150192852469
0.013460839563102796
0.03664771209548584
-0.009473205011749962
0.02221428977079708
-0.019739157330963545
0.008428132268116692
9.517561241950316E-4
0.029033313200515828
-0.030698041239479324
0.014109778978802624
-0.004957174519587125
0.012287010577380075
0.0029364114147781323
-0.012769836621190734
0.023484680428517316
0.030996160289765883
-0.014789515040361738
0.006472745895150788
0.004412424299191706
0.018242831771290244
-0.009299547515838096
0.007989693586223104
-0.007947595238579004
0.0017363966136633338
0.004036559459572809
-0.004693967418155389
0.002521611454617103
-0.001913906153579531
-0.010681469830233443
-0.161630395760102
0.004439209118311852
0.026247578024303535
0.03515563843927968
0.06626212995725671
0.012793204312732375
0.013297678690305787
0.007736010991637127
0.023508253589574125
0.01815289344866564
0.03401511908091886
0.014368109369427586
0.010147203570652262
0.03218275992239739
-0.0016031916899047981
-0.001451773565853951
-0.0015675315648523047
-0.005316694749633969
-0.010769518857516534
0.014799307528124245
0.00384530641681982
0.009175650076613468
0.0023482581617713045
0.019680211949183558
-0.0016925908141887604
2.6375646216128263E-4
0.0015863185299176358
-0.011775335733337638
-0.012333856453542763
0.01108580130946286
0.007484209075313073
-0.00626458263431756
-0.008313273267700852
-0.009707277670493016
0.01595258443440787
0.03437321991079411
0.023480668331590335
0.007061151232669817
0.03735528978172493
0.010134158776093553
0.03389237783494193
-0.0014233759716090393
0.02790459046827744
0.015459665078684442
0.027142705974447498
0.009447184210351123
-0.009458572657948331
0.005801744468013171
-0.005259933294507265
0.003999713486329113
0.003907090092120374
-0.0012327540611114247
0.01877252414975132
-5.274433509997087E-4
0.013610424463725615
-6.974524971700627E-4
-0.0032248143054288045
0.00925734744459322
-0.00864563499896319
0.0010342563488468612
0.005888001773419998
0.012075700190837018
0.0031702879297918728
-0.020734298886039424
-0.019398156551614778
0.011850083020437946
-0.005027535183041165
0.007070870999736425
0.018657907389721656
0.027677982887502846
-2.2043046282345749E-4
-6.290545608915232E-4
0.022475735230317925
0.026766548020528375
-1.5479650991940974E-4
-0.014829552735899944
0.02816929912879778
0.017391189305272267
-0.01302220739422826
0.008915386167269657
-0.006433260482068812
0.00394660302027436
-0.01042328585107955
-0.008509999890496413
0.008561554319847094
-0.003811308167780719
0.003520190816620023
0.010631446241026748
-0.00441697244730913
-0.02309460303686035
0.0159076168654101
-0.006395358265655005
-0.0022466550012461145
0.009878241156231182
0.003771133044967924
0.008028977199452655
-0.0015806704434934596
-0.022462615965307596
0.014099618995909113
0.039699441088386966
0.03326621496044201
0.026531464914132226
0.002467361823232116
0.07092888205806679
0.015048812248610833
0.011772616932061589
0.016856635577421418
0.012452581821777891
0.018130353692948263
0.016820949018950013
0.015415655366648367
0.042260111480150145
0.006556927635708445
0.029011689557485624
0.003954489202104755
-0.0028670218488778313
0.0056438935556872094
0.07311613841052567
0.019979514286310406
-0.034210887330997475
0.01828778293689554
-0.011509016785505548
-0.006726390060869572
-0.0594942643350581
-0.08574071222458683
-0.017567611673305752
0.0013557725911456596
0.013805060983929399
0.004076953687489878
-0.023516523501074204
-0.013066788403575138
-0.008509846741796513
-0.0015540564687574353
0.0199061978809079
0.0060421152845238175
0.011068289527282381
0.06504020595970324
0.01656592697640065
0.04659769161318701
8.83280646738853E-4
-0.0103225627459574
0.040715726033555624
-0.021466195960684557
0.011203278241739134
0.020992039324114992
-0.02172870230930859
0.030226374990416333
-0.014922859043777936
-0.006285307257545113
-0.006867698707424005
0.09141276650447616
-0.009890272067766324
-0.08115104328314265
-0.036162335796015334
-0.0407345269247509
0.060149341786596755
-0.05911596890634185
-0.14156651227915634
-0.029877887794468188
-0.10107711188617585
0.005378118529552004
0.006574221976519067
-0.013154988634429496
1.2910511187182825E-4
-0.013899278853045883
0.022848414003005676
0.008299113037984128
6.728029235663455E-4
0.014802332731813838
0.034269668683533525
0.016236407053221262
0.013973769240430499
0.02356115221488028
-0.0048351158972096625
0.012979261576720408
-0.016900354012050627
-0.005656192033212481
0.010034991768550479
0.03270810610607847
0.008541586223102261
-0.0024670287762741964
-0.01237760950841792
-0.008628668689543009
0.043759416005280834
-0.036899298369292025
-0.045479615525951186
0.009162657169923531
5.037683877757827E-4
-0.050829863277079806
-0.043831193565485725
-0.07134402818561497
-0.09583559493848398
-0.11241695231864472
0.004841262046464796
-0.012570440768235238
0.006463352264558048
0.015618268361008294
-0.013873973690425404
0.018111047827795584
0.012127103486549549
-0.02241617158337442
-0.010780198912352407
9.41851496202944E-4
0.012049523494364327
-0.009090673737426374
-0.0033848883526484113
0.00941611198408673
-0.0075481647225155
-0.013153418680839461
0.039556245167024155
0.012904068618052713
0.01790886635752415
0.04619266718876776
0.00482367303726166
-0.0024334940206705577
0.004434377235583422
0.017024464193539878
0.00950793243489262
9.105661810563498E-4
-0.001373024053477749
-0.00313050911039294
0.042548481771644844
3.3905683071999167E-4
0.00763777616256189
0.052836085667747265
0.023261266112050847
0.010713886528401202
0.017537465388188695
0.006388892191292008
0.015661761973785316
1.9719879640910527E-4
-0.003317068086493669
0.017090159034332694
0.011331121641622522
-0.0015246188262170964
4.7665771436060725E-4
-0.009220390359145
0.022902596499198073
0.02028022885786914
1.281381129899405E-4
0.015586579783219826
0.003583200078175467
0.017936523463218713
0.003291089733106322
0.008962651903886676
0.022140497007401026
-0.011562056642534015
0.007704904477623966
0.005603588087232776
0.008832477778232007
0.002175963586001377
0.01356516835038636
0.0072659009480547905
0.003988964321648181
0.01879079247512777
0.009812485077371176
0.022653426740132866
0.015139328792667281
0.02528140053083873
-0.0030626891119785284
0.025883531775652266
0.020496359262814994
0.03302694526446944
0.0056237503815293926
-0.011382703433429613
-0.00781569145028972
0.01448639990040795
-0.005329701140230518
-0.014315675727210053
0.010594127410532807
0.012608363245599434
7.96176438716708E-4
-0.002756042877871258
0.009213517799758923
0.012021256404161351
-0.010696815995660306
0.0023132715727649886
0.010870899497655417
0.0663692381551439
-0.016002578260427898
-0.006187067277692243
0.011175592509499345
0.01037841931768664
0.011549897913615832
0.011647229743056271
0.012223859414895007
0.012044110210979682
0.011007918001658266
0.01851743138143268
0.015214196837894397
0.013825335270680607
0.004815142634250663
-0.005856889735490918
0.01979814023709318
0.005911449985321579
0.014989406719110438
-0.007381628815436787
0.0059208867438614735
0.020607388853736176
-0.004373657696941641
0.011331519314410902
-0.008908654943914154
0.00992071722274233
-0.01204316807839301
-0.013921160561358998
0.013249570098720919
0.020918417611709674
0.004022515328238085
0.015442507102893212
0.005683925122608904
0.009612646306871917
0.021062595247393016
0.009633811258653788
0.003933615743386356
-0.010441289995217557
0.015980794929947105
0.024161064939842804
-0.00355037097403999
0.009722345744034858
0.01987281764177481
0.00948296764636654
0.018207464427746865
0.017782103529071332
0.01997420559089066
0.0244356370013325
0.007343263102623013
-0.0037792492600982703
0.0195965108655051
0.027253754562223478
0.006032041901308538
-0.015911032788731478
-0.028588856459759455
0.008466100020374455
-0.0020262681181177954
-0.0023910977848746427
-0.0016723357516527173
0.009125110117474274
0.003532663585298775
-0.005046740439496177
-0.009048405915260538
8.117724088699877E-4
-0.009529821683922954
-0.017078315102548678
0.011355761306169785
0.01789264599374321
-0.008605187643793298
0.0012390993959428113
0.011898494760580369
0.015093395748724885
0.00578454552388057
0.006955490683687159
0.017856365857501853
0.018207139174888056
0.01575592755733242
-0.001024117135553591
0.02807230589147452
0.01346889944803331
0.02082195136035227
-0.004781167176503465
0.016801168176697
0.013650488502043137
0.024834288360488573
-0.009901378950199498
0.016158926002960865
0.0047627214501148145
0.017332957706328117
0.0025724926368781067
0.07380754894619003
-0.029674189587649166
-6.014674254378825E-4
-0.04037637890341927
0.016742901934095285
0.01797201516243111
0.0020905198791422775
-0.00134996663794651
0.02567473715962971
0.012804030722956952
0.03404620424567843
-0.005237685217064223
0.017074118548496692
-0.005092350166261358
0.0024200818345599695
0.01657656751513419
0.013799743269662107
0.0013022655116208966
0.01078327697855992
-8.436645506410074E-4
0.02206502934402073
0.009086693018546848
0.0035605952519841486
-0.003972301210872228
0.03220749357655807
0.025340547292613046
0.02215272202008998
0.011790900149097935
0.001657042532660345
0.014765767821510822
0.0011249337409762626
0.0027771285797446098
0.01325654862274988
0.1525455266649805
0.012686560624912642
0.022836273141782208
-0.002298791480961777
0.022890372689287265
0.11745195489246055
-0.009070252282930772
-0.006723529076171768
0.017949487969258365
0.03675231003038138
0.09177616242415795
0.008888941852434102
0.030186225802097486
0.016167066234942813
0.020633090803505862
0.003491845703811407
0.017552114331826664
0.0013225562859209424
6.977016845519618E-4
-0.004909734861169377
0.028129575265771454
0.010698778940861417
0.02370904729134806
0.01004270549604932
0.02408938525536696
0.04374209572368573
0.0313955166123371
0.0037439428606159614
0.0077898665068574496
0.01890518272008277
-0.0031178899864474437
0.022475086057994184
0.011170190241576665
0.25882595176799233
-0.0011223767526840575
0.02245823611632444
0.0200545481875273
0.03424924107063076
0.017279892280099414
-0.011457687529241548
0.004568618720862705
0.02612273619905434
0.016401796541619537
0.04196464458641091
0.00626100640436733
0.033230386789238495
0.030795940253005888
0.029078893889358182
0.007151306332508948
0.03905570986290126
4.2681626612179317E-4
0.0044096760700645206
0.004227218985420964
0.015576618399740158
0.0316904665475799
-4.1374674133618677E-4
0.00619601933697748
0.0023913866690722027
0.012844037497081797
0.014718913426119635
0.008680385228763573
-0.013225524733458996
-0.012861407207218836
-0.0037176531479708357
-0.07225977044862392
0.007289835076311504
-0.011563864435745468
0.017415124842737998
-0.023934656686548348
-0.014747225052964393
0.08725169690836013
0.0859030850529966
0.033259327959123515
0.10772116978555336
0.06920017878225107
0.029593190882869137
0.0256496978683348
0.002605081439070795
0.008452167655499963
0.0019508192027212446
5.521165858852291E-4
0.014209961965182672
0.007414856171010004
0.0028684395937156643
0.029784149144935042
-0.002204875701181818
0.10289323669186638
0.07919287717981037
0.01063057373173846
0.09921820358789661
0.018232947329593706
0.04460565985115706
0.02302837189577577
1.2979495972214656E-4
0.0034663399556961482
0.030135674379079522
0.011307705803840341
-7.104027782770162E-4
0.04467322873881737
-0.009296162483842678
0.02177812783145922
-0.003659682656887498
-2.4465902539525257E-5
-0.0011430403636192338
0.010430605383529214
0.031012066219008826
0.012829209191882691
0.05173233234080807
-0.012717330842328014
-0.017036592257983374
-0.004754922820717057
-0.003918932450003523
0.011692589505504211
0.012918461514809352
0.031096679647050995
0.0019080014346229176
0.02574851818062169
0.011312585354897887
0.005462769775803773
-0.008949494521154249
-0.0053053985805563975
0.018068339262207016
0.0068399794488572
0.006467863857904976
-0.00141562436959702
-0.007000829393688096
0.605826092643395
0.18126587234174424
0.04680258430881649
-0.004058502215597232
0.008065698981491167
-0.005102582150697523
0.00879557566200165
-0.016605098361390326
0.07721847533244891
0.10741125974242625
-0.006133367794367658
0.0075869454993647886
0.014217669146964965
0.002884139073863028
0.0018514129256710823
-0.011060159717671663
0.008835352261154531
0.00743973929804144
0.005530905194576748
-0.011651494535294096
-0.004006486149021272
-0.0034712994555356974
-0.004462185192085147
-0.002573450949678151
0.002987908098423876
-0.017062586779869753
0.004983211427204179
0.003328238796777746
0.004764059600197457
-0.002125991521657671
-0.0013552064104020193
-7.283833286368674E-4
-0.010813039592647256
-0.0018759772861898368
-0.00715977795296209
0.004970156638739565
0.005089311615248802
0.01018906826733669
-0.0181489406628208
-0.004756092754614551
0.006777095468005227
0.0026539749852254792
0.003190362942908383
0.016756942084446537
0.011359476834357833
-0.010725188580894477
-0.007617343850881998
-0.014899088041033862
-0.018200354516938185
-0.017576994792066515
0.011270097168382625
-0.0031912210474311347
-0.004973701130390163
0.0037570568780506807
0.0032227946346785542
0.0035170746636019714
0.009451010426241186
-0.0014860978910181954
0.015451543266030598
0.001900199792500213
-0.0077062790184910385
-0.005542617130967969
-0.026774018266611323
-0.023988476946744376
0.4507278047902044
0.17912009517197283
0.01045356678430575
-2.2080216507389312E-4
-0.01741579718083034
0.0031272798395732353
0.005834319911910154
0.00162750189373223
0.20785580237758544
0.20242056049695906
-0.002876565952594537
0.0010469328170556185
0.006099069475370352
0.008309108306023065
0.006079437169503924
-0.011796405481140346
0.0028031815960671697
-0.0042813557184015055
0.0036773046704763547
0.005084316713605985
-0.0068681338679117765
-0.010006858767067686
-0.030988943728706395
0.0026521781361295346
0.008575324330601718
0.009018226482990976
-7.032986888294403E-4
0.023539405388508194
0.007152529270266618
0.005833558283515042
0.005600171546089838
0.005309580637093691
0.003943639034921211
-0.010059595472311732
-0.0018918226725012266
-0.017274674029983443
-0.004873940686388148
0.005617117308231042
-0.0024151395783688356
-0.005656426797897466
0.0018834079401569704
0.006243429294453387
-0.00453367548642268
-0.003633804585616489
-0.009037468036931774
7.377941888271223E-4
0.012700917520146229
0.015803223606551644
0.01849335807568449
0.005728735700639254
-0.005762376512016031
-0.0011143559448052861
-0.011239420189025693
0.013692509621689764
-0.0020348867895882768
-0.0063378639103512345
-0.013740296643360017
0.012839603597243348
0.011058136620212503
-3.9619039216502174E-4
0.010626614660518625
-0.0076287544113521925
0.0071054460904548915
-0.011112199333794228
-0.024809034240395284
0.024465721612225485
-0.0035408801608433653
0.012128037876086482
-0.0023895414951746892
0.002998891357019361
0.0015067866143704837
-0.013424949318536123
0.12113943546240415
0.1029277715025767
0.03398172544281005
0.12623154990026741
0.024638862075968843
0.019365599211811795
-0.008335260564005855
-0.0053795656488237475
0.011903066720705588
0.0014946604882024764
0.024049604760646808
0.0074457273158892315
0.012666971587582912
0.0074799040089947935
-0.006067003009433801
4.8330366506447287E-4
0.02051174962626203
0.16902136832688433
0.024754013289186805
0.1479486576255654
0.011381537929919841
0.08666705778721685
0.015000474343817622
-2.98718939845161E-4
-0.0027742294449161864
-0.001283016438093306
0.004882057653955675
-0.009723370948114958
-0.0076166657156917315
-0.01659788355287254
0.00447283980723054
-0.003812593185191242
-0.015636312795262182
0.016763849290240065
0.005018517803232543
0.05130526703442616
0.03213455370836047
0.03199205651845681
-0.009413378996364246
0.02194689315937366
0.010762377632480759
-0.006128043396652545
0.008376447813296531
0.022444946474970955
-3.3843988408262054E-4
9.506489113353096E-4
0.010736708635398355
-0.003244522314008884
0.004548534816726676
0.015531749819005737
0.006587048730133367
-1.1325886105417777E-4
-0.0012521795580009952
0.010356923981315012
0.004060615233539673
0.0065435075097482935
-0.004985529709617694
0.04349886223272382
0.006829565616062536
-0.004228757855791737
0.011780951904682672
0.01583743674910042
0.013760613416796446
-0.00830930961566942
0.012975664675744673
0.012939145509090769
0.0392750920782024
0.016643144291432963
0.04437760824446251
0.017649592204077778
0.002542009855074021
0.01275050443203428
0.001962396577970716
0.025022563317891777
0.045768555995156536
-0.0038794386851909017
0.025545984452241034
0.00752194296988928
-0.001142304726094729
0.01224421669903321
0.010258925273917698
0.16780115711514193
-6.191039083756251E-4
0.13580081795337395
0.030708260726820813
0.07672363005223755
7.984159038110965E-6
-7.291607567690981E-4
0.011590476390702771
0.006286687490661449
0.012429084652862365
0.00956237710731411
0.04153903115420189
-0.006294237991677662
0.019336732029641583
-0.017077952961677783
-0.00646470979226714
0.006519991993121702
0.010758077752704888
0.03549477558933413
-0.005458395935342676
0.05112601860420737
0.008025660276669224
0.0021877789103953763
-0.013234875965208026
0.005424305012337745
-0.006544218790488629
0.006046316087615954
0.035501653916388834
0.005169223950162682
0.04180422407146467
-0.0030152523938555068
-0.013013664054336169
-0.010394693572289598
-0.008762949756202692
0.02241816642984019
-0.004948786647577832
0.0026877595975737913
-0.004690470383660813
0.0048689007399399555
0.5295562219950775
0.33072646668132694
0.07043466897026253
0.005107494696962311
-0.018132628879393275
-0.0024171150246066575
-0.009823916129923917
0.00828835726340572
0.05859646216474054
0.014801501512366155
0.002355942662951072
-0.01089657731848653
0.0055146987359142325
-0.0066875223664775146
0.0039222409974177105
0.0041729917491981315
0.013169460202725553
-0.007364014807145425
0.004938379620192383
0.0037476924769651665
0.0012146484518768517
0.008577769875058944
0.013197780941564142
0.009343589711480426
-0.010316545045351191
0.01928029179461482
-0.017137773794843183
2.8853773398004835E-4
0.011170861590591078
0.005707854667131321
-0.0028560906745556535
-0.008195848476972785
0.005413382605271763
0.028092724345237054
-0.004861920302257431
0.001432707807972141
0.0018661525400269652
0.007939509351188999
-0.009219754812916965
-0.0018191218372947174
0.012612701749691717
-0.006379737384818202
-0.00729351755768142
0.003844623369589035
0.009755085318177354
0.0010442898377108361
-0.010812306208212398
-0.0033227134169741337
0.015248470432348614
0.015835254808452232
-0.012221038107623828
-0.0035988750001399524
0.00911851508320475
0.0013742453851165743
0.0023224795045830673
-0.009917243243949762
-5.129688963991101E-4
0.0032244868079513954
-0.015214782056062151
-0.00991215439272893
8.193072020532929E-5
0.0018993169370038938
-0.006623208854117914
-0.009053343055060713
0.48981236601600536
0.20694240075506673
0.021690592338645686
0.008627902437829718
-0.02108737479518208
-0.004321172551599458
-0.02420259851323563
0.010192719995368294
0.20701648505920595
0.13371165593822784
0.011484357849089945
0.032902343012548234
-0.0076171875481375485
-0.002900411192839373
0.011100367864249925
0.014494363378207404
8.514949311904487E-4
0.003691967110707651
0.01683403992239475
-0.0010727608005051785
-0.01598661342422849
0.0063774815286739665
-0.020257675750634554
0.005917930959722172
0.00656264262218121
0.029777194155199176
-6.810829442537095E-4
-0.03486458040810936
-0.009199447493402525
-0.011163426981202335
-0.0032393446927286265
-0.005933363990877083
-0.005664004201399403
-5.229473861776343E-4
0.002607258585001239
0.0014266744026904484
-0.01667706341756156
0.003254857306261984
-0.0028695132170464648
0.017266389307220516
-0.010408063411870101
0.007948416897065212
-0.005027370329050353
0.010924682012463247
-0.020207435081838056
-0.003042559418242089
-0.003251947553130055
-0.005054947870185828
0.015464533131004906
-0.009237776349993653
-0.005971332854306962
0.013042986117230355
-0.012017820226327252
-0.004630726904998312
-0.005363412956820293
0.004304609660896282
0.021563430198022315
-0.0022358764652092443
0.014718719702335745
-0.007960273455178761
0.007337022372094644
0.025120607608238792
-0.01009470490982222
0.002888099693248015
0.029961175314797722
0.05138876694506785
0.01051402832526321
0.021683801043355634
0.021349034802051494
-0.0010317206789902118
0.025888769931984218
-0.002456893219414107
0.13145874988479025
0.12411429334910379
0.015461851406015397
0.1330610288350187
0.010921936371060781
0.013498732036370985
0.01812665680892425
-0.002632880216996641
0.022230827466670117
-0.003306838059845738
0.012691825171749273
-0.017758749836138878
-0.005013828071922636
-0.014281323734824915
0.004591753476602395
-0.0025959974080389464
0.018857567467486316
0.14456465955537823
0.0037752391824921344
0.14321566813625258
-0.008985207130374958
0.06107956308067794
0.01193124527059537
-9.018920786480541E-4
0.018327766341687514
0.014215810331941116
-0.0031637240726839757
0.004244093813449926
0.014705423215569832
0.01673024900107534
0.007933342327291013
-0.01515054910989412
0.0016876770847057505
0.007572038791226504
0.002234378365612819
0.0313929407976742
-0.004192444657446351
0.009562929907428805
0.008694007490217388
-3.5889585912524417E-4
0.012848795685467776
-0.019853708876012857
0.0012676283690922373
0.008654064198826599
0.002411637556139104
-0.005196211029313296
0.020768695755997654
0.002580737567263972
-0.005632964255939395
-0.019777683630472078
-0.008508213595650363
0.005528155626112607
0.011616512436039717
-0.004098566019792148
0.013114927023904125
-0.010456306172061499
0.005354450827637275
0.0068874385583541165
0.059194657834690884
0.012809428117901069
0.023089326250198456
-0.009017943258406855
-0.005787833716196015
-0.01595251648113123
-0.006379172508411984
-0.010897430846089075
-0.019870125385448082
0.019504398695195522
-0.025985856591102235
0.008250108913802385
-0.06302950103142442
0.0238028111481626
-0.010049138322442941
-0.008205446279318367
-0.0014399448454482488
0.014657686781091502
0.048000061485147634
-0.02365440382883513
0.0042812253625293
0.02100828887965242
0.0011044787820444072
-0.02933673872761289
0.006788469537785265
-0.04430125911083017
-0.09104569726639446
-0.03392379179979761
-0.07163246536707431
-0.03707198122744011
-0.007036665950960397
0.010000878387615798
0.005241683233972485
-0.012644970276628541
0.004017468528959314
0.010507808180484477
-0.004459540457057539
0.00817758549451182
-0.014097447342976757
-0.02164556096409515
-4.6943146171676413E-4
0.02360742308380369
0.019045389735992645
0.011774446819239054
0.01507436758396205
0.016500262215873984
0.008510814988293583
0.0021408713976475073
0.008260097754357838
-0.015597848782193047
0.0075300597736352925
0.004685999969630488
0.01235156972199262
-0.008428217257254993
0.02267975754092388
-0.0031051146794077392
0.02976116786952567
-0.009230287978432625
0.03999364758307651
0.0028198206346427006
0.052399441494987105
-0.00444350534425741
0.018908997409576207
-0.006597027288982715
0.0691595134463441
-0.012172118732064547
-0.020686561722020616
0.07674753242940215
0.06171397457235374
-0.048048248788915796
0.013198267700122307
0.006500467945558658
0.032964154726173554
0.005916801287143088
0.004589269987886588
-0.005714823126512042
0.02564364156969729
0.018101030370320494
-0.004821376355513271
0.010065623482107915
0.0018883120373598848
0.04499232692035193
0.016672267945797507
0.027961247814498425
0.022479764037053204
-0.006336016651692756
-0.1033544723019818
0.011824938769941316
-0.1019594884530693
-0.0011166948450508879
-0.10381206991270306
-0.002618459099656691
-0.2273844769154443
-0.007784758217055717
-0.21599493076619541
-0.0054834298352097344
-0.06994584800733995
-4.4192705366529345E-4
0.007226319108883426
-0.011703576614932413
-0.01912147484307769
0.0016828071392261637
0.020451852428970855
-0.25430104790535063
-0.007874777648418494
-0.04337711611658646
2.379021538672576E-4
-6.781333530423937E-4
0.002398838031586526
-0.020173903354060635
-0.11320681993138891
0.033974040593510585
0.014094093620454589
0.06610476375746646
-6.783347321757731E-4
-0.024204296321486695
0.007044928581533047
0.01796120971408988
0.01691295816274708
0.003173712801236894
0.04900176634404332
0.009620713412800706
-0.0356190839069454
0.0509469337913412
0.030857808572661877
-0.008249725041760013
-0.010852335454076677
0.00792409213180455
0.021015492882524845
0.0069813857851230504
0.004632565294602658
-0.009842804775277363
0.013482933705032632
0.006686570695535664
-0.012459912771636956
-0.0073028190080766725
-0.0025925393853881247
-0.008217135422774755
-0.006899923430162399
-0.008039197621257706
0.0016502635601389965
0.006336259079722468
0.0021230868820514403
-0.004526927516079118
0.008787629066702404
0.016232524825810564
-0.007219940394688878
-0.0013764876090776115
0.01154823096349686
-0.019364511507326678
0.003464424707908976
0.001998187936942618
0.017529560305700572
-0.012084035013974582
0.01016886007278232
-0.0012239527512946742
-0.01754485074199907
-0.030109414317383957
0.0271487226028463
-0.00596489518826794
0.012790803657735368
-0.0100858667363858
-0.01711849170493824
0.010056306186565576
-0.01970977996594626
0.004358260735303894
-0.01726118704223899
0.001548692125830474
0.00614643809275692
8.69197507372656E-4
-0.012979013937521695
0.010181714948339521
0.03490231001576788
0.009722897065631259
0.006636902186316131
0.017284682088909376
-0.0198600385749235
0.010796335458053056
0.0026009775614177118
-0.007449019547562985
0.0052562338017320045
-0.007343899765408706
-0.012810806070077339
-0.011406358163266902
0.002532919022335182
-0.005864004596072815
0.015394972570374837
-0.0022684409330660494
3.034349317456715E-4
0.019543285128842226
0.006341343733814286
-0.007937712544186336
-0.010343056229587085
3.589219161233512E-4
0.005598722882799155
0.010842503691822892
0.014555810469465332
0.019699576448236115
0.0036211997596007884
-0.015244777388109865
0.0052312511260253144
0.010219658140191887
-0.00599002897429625
0.009374398199076255
0.0010937532586844172
-0.004284812472395515
-0.005897241591079957
0.0077681528994004
0.019847360377755693
0.0073922616594256
0.009017467546538899
0.0012814746113478897
0.015516056297985482
0.0063940920433849845
0.009810574128710926
0.0023068507604428676
-0.012464189834071989
-0.004056316696167288
0.0024478535571595297
-0.0038648412227569157
9.771533805507985E-4
0.019042745471364714
