-0.013969194045660365
-0.0046420466261201665
-0.011682539989650282
-0.021490140766054038
0.0017925157771894558
-0.00869899245956242
-0.015198000166403738
-0.014939686681468136
0.006511052204116372
0.003757028428768255
0.008556169610094439
-0.012958762461771488
-0.005856599334946442
0.0054359783342372596
4.048844497128097E-4
0.009280717256451767
-0.01541217234656354
0.008878339802681299
0.030440478070437076
-0.016414653899939752
0.0011603850023191244
0.008496003717424757
0.005744974287033485
-0.021388530978124456
0.012267018780349316
0.015606893974541909
-0.008246816748851662
-0.03208633794978581
-0.010436175809947996
0.004510558751696068
-0.009355449737167268
0.005496096390577239
8.96986149580232E-4
-0.00492177170400017
-0.01983943896703163
-0.003668195807401256
0.0015637799929569354
0.010408468933990028
-0.006321327209609817
-0.016878830850555616
-0.009776485247317807
0.011659601747316676
0.007054488704884709
-0.006000549966061352
0.00296003999124652
0.006394968084462471
0.011482052100906286
-0.0010466420505916222
0.0019308083353956583
-0.008931953361456019
0.020893983698396654
-0.008050888603403658
0.025852540124132014
-0.004520052514906544
0.011163437550262946
0.01184332176979403
7.95140169528134E-4
-0.009374423847963415
0.010503883511466855
2.4538356218329184E-4
-8.362978259706859E-4
0.012874586811129764
4.607413788018657E-4
-0.033320240769837486
0.008770210727635994
-0.024394124498298222
-0.01632531955039502
-0.01973158825973209
-0.007979625805723306
-0.00987704367865337
0.007284306383287028
2.3803817620888823E-4
0.008279537366649338
0.021171682582779187
0.010923313630811261
0.013893281148369553
0.004883247231776772
0.010125905261769411
-0.004931568068173571
-0.0033811604315430173
0.007208821165038335
0.022297003000904404
0.01031113815285813
0.006267000847929797
0.016045277866301784
0.01723988606891243
0.011699528532413574
-0.0031713504623241437
0.013480998170505087
2.6619735272889744E-4
-0.012565789052340088
0.0034180327285859577
0.012504381465160317
-0.003966500203452143
0.0025824561787710556
-0.039982788009439996
-0.007080469690334741
-5.844095500902156E-4
-0.006322832383646253
-0.02244867008017823
-4.551863000895039E-4
5.723305091956157E-4
-0.030514608497826366
-0.032309763298310035
-0.012448984719893731
-0.014520694205012152
0.01055877657571716
0.01174864691777373
-0.00416893635432206
0.019919327288304527
0.015391062216518083
0.003743429572857395
0.004408137453132427
-0.015103806931191673
0.01964935057474067
0.014478603961166516
0.008601816583007377
0.005902919824092145
-0.0022041988064223734
0.0014419484293077395
-0.0013920400602878923
0.015423128521183712
0.00639312461386873
0.01904024969277306
0.002187273750741139
0.004069981738463254
-0.00375869294836239
-0.008174198517101614
0.010810240941953795
0.01680843921717049
-0.007488258858806782
-0.04183872014374881
-0.0043677164435441795
0.0035233658282618863
-0.02786349409752469
-0.02609894532082339
0.00728130862378461
0.013709738354403422
0.0018328159057507075
0.03349464468191203
0.018909193383028756
0.0014495692372198095
0.006861761349982579
-9.753536678726415E-4
0.010653815159383557
-0.0024547300216194176
0.01104309250054685
-0.009056373650693821
0.015216425536582309
0.005981448212723662
-0.006338893937940771
0.002397742339592986
-0.001247359951807988
5.247477495450866E-5
0.017948106875084035
-0.006114375739986045
0.005842227003950222
0.015811829068934056
-0.0035703707151825345
-0.03614156552810928
-0.015398194162550703
-0.0019062105201707042
8.465038729028405E-4
-0.04727295176979571
0.002180950085405178
-0.02436384938484441
0.018069766736013862
-0.0045624233095729085
0.012450562260443903
0.005969002644133619
-0.007547075175932795
0.0038582533649162637
-0.009164597257697136
0.008626343394431007
0.010781874418981473
0.017752412877514126
0.00144394333275787
-0.007946714397117683
-0.011329415367548088
0.001010163491339555
-0.030163585730023586
-0.018672195961588856
-0.007129156307856328
-0.009516917655891643
-0.01955742722810972
-0.05139501618786395
-0.010430753363102866
-0.011089692312725092
0.013998182453573534
0.0157252875699011
0.1503296031408177
0.028696875606359584
0.012354527430812978
-0.004308499592936081
4.931952975737722E-4
-0.008361182323158656
0.014057276062203266
-0.004458488580504373
0.018488082579742764
0.007643927562008801
-0.010599453486111075
-0.014199693862951827
0.009314806863248785
0.005589968212099124
0.0058270505570243705
-0.015504346668846602
0.00728312164025352
0.004565520571836489
-0.006584989571630774
0.011534849987003147
3.956716630581629E-4
0.006089197448356886
0.007907171233397526
-0.002999539014068161
-0.008854892161788959
0.018254150703635813
0.005101641396376013
0.003757283064463649
0.008158178520754107
0.015853484904682365
0.013355809775283396
0.011330932747964314
0.0034284900097437086
-0.014762622607579212
0.01787552400056363
0.01921519386222071
-0.0011384563624614729
0.015477406235489129
0.006694021108124266
-0.005308772766746976
0.0037487996516816597
-0.02015025416486033
-0.014391187668757426
-0.004502118317218026
-0.00414741210372404
0.018177280615026443
0.005868841558208255
0.015957313855183876
-0.00993773845114909
0.003199561259744948
0.0043091550188363624
-0.022320575882966657
0.01368444004824567
-0.033850492926585526
0.001857946261083373
-0.0069295385195471924
0.0019189438536615466
-0.002678556076806395
0.0035786812685162047
-0.0029879411841634345
0.02035502635197542
-5.246987111604413E-4
-0.004633169197277307
0.009979115812933296
-0.009707885621823118
0.003718890373565477
-0.030390062732916664
-0.02141075599924835
0.007696007881316316
-0.0059987296250915935
0.003126381108710566
-0.010045046178392065
-0.009252090023195964
0.013697980322193035
0.005176187438353926
0.004423490795990032
-0.0014228410369939944
0.02019957055053807
0.016153061782076223
0.002375703584302843
-0.02359632128202657
0.015422843547218634
0.0026332241958282997
0.00865638637106905
0.0010933307392858136
-0.0030302548419286
0.01538372308311673
-2.734366291100089E-4
0.002174120022400028
0.016511615360751946
-0.0027446114457695165
0.008860622539903027
3.008741272794746E-4
-0.015422730135504856
-8.793222523224064E-4
0.008749375881442143
0.005636639370148443
-0.005112715551446069
0.019136714609409532
-0.0032616854229587278
0.015327467767667878
-0.006171596725855594
-0.0039543871107159175
0.013975327608098257
-4.1942296528796867E-4
-0.001673317157193778
0.010611225252814348
-0.005356366340721414
0.003067824547086392
-0.014069858215649723
-0.007902879335581325
0.023999859486366754
-7.038141026584858E-4
-0.0060360313878556615
0.015293458370022783
-0.024229695685988567
0.01956426236161352
0.003106533448345799
-0.012821925790583156
-0.01685998476336628
-0.006909450573021431
0.001593725375941173
-4.550460663064232E-4
0.00921197437661776
-0.006892436840903896
0.026517464875993827
0.0016313083111283587
0.0034229844246218806
0.010184477978043322
-0.009022829053713627
-0.009213338582505528
0.02369007957965146
0.022178445418523512
-9.630771919566835E-4
-0.010026417961446448
-0.02105814469007428
-0.002634049554520522
-0.007732638683028302
-0.010357704543157183
0.001163447078962181
-0.005342374685700335
-0.006083671532412038
0.005988065404191503
-0.018400725632746546
-0.020266992535750455
0.010995769483105095
0.010115380616851986
-0.0033501471942363283
0.0032996049332500877
-0.013007223963897419
4.0550982788307066E-4
-0.01056470475248518
-0.024987974656280186
-0.004949049398371515
0.01058664465732607
-0.006809803724716463
0.029646279224412656
0.009465794501650502
-1.2069684415179013E-5
-8.82798025656186E-4
0.003603051979940658
0.01084041190968317
0.017432878892742566
-7.495995233614128E-4
-0.01776613894123486
-0.019152401348889715
-0.0019119671812179019
0.011304995073292873
-0.006099421360741211
0.011991972055707002
-0.01604696666537603
-0.010734052273413404
-0.007754243514076889
0.0031036021486344116
-0.0046110224610734635
-0.023874134915243855
-0.001231724095827456
0.004591026302659007
-0.020898318343159538
0.0016337455174674506
0.00521361383913575
-2.449312081133592E-4
5.673665296481896E-4
6.412513500885257E-4
0.01180613983799228
-0.013833830740399209
-0.011422260576975141
-0.005611570088060396
0.04401380284546725
0.007773553465891825
-0.004507418592635429
-0.01467383122191583
-0.0010111171485017757
0.033702614354896646
-0.013425064820135611
-0.007802305934388435
-0.01659572884083307
0.006352310161154835
-2.6521577427156696E-4
-0.0015800599770984982
0.008650717489287373
-0.012857621698846513
-0.009316497425827559
0.00454039086625908
-0.003956608572335383
-0.006538452737915136
0.0023977659865060687
-0.0038301932209812532
-0.009207542004664582
-0.006206771537219404
-0.013350130505613178
0.0013663113429833672
-0.0012382983225521522
-0.014353818883466311
-0.00483475575017067
-0.01137734760050932
-0.005001894669535797
-0.02545325654346158
0.0068884407677195615
-0.00981307656309549
0.023304752403533698
0.005726046119390144
0.00847697129532105
-0.005439951396645067
-0.002014349244339017
0.07000509014025094
0.0014048870883614486
0.0031271111783458296
-0.017187813734833832
-0.06558121753957748
-0.006812876526605682
0.004193106090960925
-0.021737507558863407
0.004647105167299105
0.00512282610086562
0.014893222761751031
-0.0038213460981944836
2.0745238499340207E-4
-0.004984906393324436
0.013162464813811888
-0.010922341884341871
0.010605209749811148
-2.98707157562448E-4
-0.012352631779365833
-0.019495684413588274
-0.004038537281837457
0.015060945410054084
0.004746258499168843
0.0029813230222782653
-0.006614143212891563
-0.010214878641900422
0.017271422252770702
-0.011764364702855523
0.0014121717393540255
-3.8445871651682223E-4
-0.010369614710100434
-0.03174082519164362
0.06171950485219285
-0.014397030671125313
0.020298838140116106
-0.052671437311253774
-0.009958380762427527
-0.001401404371574855
0.004153168228472806
0.016585719790686616
-0.008752241308856672
0.0011276237932297335
-0.004281664662326461
0.008378707131427007
0.0016482783884055156
-1.891154444959032E-6
-0.0043237397710186925
0.012633246991238457
-3.8406448682361114E-4
0.006543213279414093
0.0107096722175493
-0.002003572858926261
-0.007454971431350701
0.0012108407486411366
0.011471308497403649
0.009962620962863345
0.004367742003285288
0.026524764919056722
0.013334506439414332
-7.009062466634911E-4
0.013090879890884737
0.01065257864120465
0.005660087345385002
0.029347073747625668
0.033873637980664055
-0.021657641057377632
0.0014188588990383397
0.004505998274269785
0.016753601202679828
-5.610694421615511E-4
0.0029082519278706086
-0.009552103578340394
-0.005166883312030446
-0.00875700814127756
4.460756765665149E-4
0.006286805388579953
0.021846976232413533
0.004653157157786226
0.012177885397576168
-0.0025557835766277714
-0.013320701710887048
3.0352204348326644E-4
-0.00962922345749637
0.007879695547036433
-1.0453812730992285E-4
-0.01638817718368628
-0.015669414239886843
-0.009200263700718718
0.002718710932532529
0.0013237595609826391
7.145251801916006E-4
-0.017226139104864892
-0.01729730269510931
-0.006573410503787992
0.01781940416347995
0.010886842289525052
0.03140191992024638
-0.0047219514847005595
-0.03276088850064502
-0.01904896911450943
-0.006386689003059408
-0.018045301588122654
-0.005333896665626489
-0.012587918872058998
-0.009807565296069954
0.006786138870968474
-0.008089198761454247
-0.006533579394423684
0.01506518721651779
0.015701158849216326
-0.00888047021973615
0.01162503726019046
-0.01377787104456763
-0.006798993889765653
-0.0054073394107868955
-0.027502607264820685
-0.005881587409502809
0.0050697922481639105
-0.008784932552305428
-0.011444528176510224
-8.348203490849584E-4
-0.017895108175949057
-0.00315048688846417
0.0020695199265222206
-0.0018506239203042658
-0.005550885975567295
0.0014264412498602428
0.011006160902103749
0.006371506500386215
0.015716752177197566
0.008334520748160311
0.0028920487030156226
-0.0029904815909963275
-0.002180662516475812
0.010781012945557413
-0.002426501576970625
-0.019153112536335507
0.010405883407790568
0.02158386048243521
0.009932665949963166
0.016378411102536412
0.0030857545693797387
0.006348784627642968
0.019894872992985205
0.008907228035190914
-0.005381167013186627
-0.0074795063463629664
0.012153135146237334
-0.00678777266124287
0.003284688424845029
0.006549853365628425
0.004023688841321143
-0.0027530012655000067
5.958842378589621E-4
0.024310896696537833
-2.0541459201409417E-4
-0.01922445607496703
-0.023425715107022547
-9.280547863747995E-4
-0.010893238862098078
-0.001846147649760385
-0.006362995001054059
0.00900027008551625
-0.002570504119326374
-0.021523494988627476
0.01540591962008759
-0.00882920140795834
-0.008706512991961913
7.044003963632338E-4
-0.011138620306166433
-0.012961648542675494
-0.0015390204160815098
0.01808327334661643
-0.010171827403523192
0.01238961725283544
-0.0012898115288624422
-0.006111048618265019
0.002748392713880715
0.006378399732865928
0.008166247422247919
0.0013971945063484723
-0.004907488323573669
-0.005447613444674377
-0.023418178334157862
-0.0047943095658705024
0.012178062878998835
0.008865438862061604
-0.013673220553687724
0.005260505600531962
-0.0018504470351370407
-0.03316420676893363
0.007883364139550885
-0.008570941349349475
-0.013516714623439806
-0.01957646847998712
-0.0037160713603605344
0.008514140135894736
-0.00718124245632144
0.006165795435399933
0.005356023887816957
7.383629679280425E-4
-5.545164236278626E-4
-1.7216164103107321E-4
-0.04798210147478991
0.0026771649284735837
-0.0018915245548990567
0.005923507466238387
0.015213435727837007
-0.007062927974893345
-0.007587194701363903
0.008684044645791847
3.930493503500305E-4
-0.005647780686779229
-0.0038298209103567694
-0.019661912120366044
-0.023711551148855613
-0.006231245725513295
0.002306395578943678
0.005585263667633006
-0.01277199306949471
-9.641262595414111E-4
-0.0017210400403509221
-4.953046932076866E-4
-0.02075556312160738
-0.0010092945696011761
-0.002195765366849892
0.018139981444160565
-0.04017204932844358
-0.003411035388351562
0.013224725175306623
0.004442977820441334
-0.005296610905884054
-0.057287745116139585
-0.01063151359749612
0.001995582562538018
0.002109510591159743
-0.0014918961414818954
0.003120112517344153
0.022893593152623008
-0.004600104162944167
-0.017286935637740912
-0.007389143732565674
-0.0017394381994472845
0.008725463931704225
8.284657063167069E-5
0.007591656953050812
0.012169169216656459
-0.0012123303718941387
0.00959753430327275
0.006187090059819247
-0.00428130817904031
0.003146003736416984
0.006608123966952241
-0.012468011900367792
0.01365627677272949
-0.02138671520845877
-0.01671263267271177
0.00101554680153754
-0.008367001899416528
-0.008701468669854684
0.007657191260744554
0.01427631340292674
0.011461457118503902
0.0010057813129613457
-0.04728160425397933
3.405673306586725E-4
0.0011477847675560506
-0.016190633775593717
-0.0010141041026151066
0.01776060025730636
-0.0018021863126113811
-0.011527619741192765
0.006625154896015338
-0.009039862326565142
0.011681308230048964
-4.551161927589588E-4
8.330525538465384E-5
0.004480953511063222
0.002421190796555625
-0.016028911666312214
-0.008941781079747258
-0.010204601458289598
-0.019899685456483112
-0.013504047485514176
0.0020826512976594787
-0.0682059892056658
0.006110844378740609
-0.017821025851937983
0.12825161897197324
0.03835773815507762
-7.647550612297672E-4
0.0020472250880892787
-0.016064982445202818
0.003963978665964783
-0.0060375388231195485
-0.0030247764480006295
-0.0011535757726861425
-0.002854366270292805
-0.002585497217365156
0.003453842138171896
0.0019383250300456262
-0.002225462627342056
-8.035807166005082E-4
-0.008419173735546393
0.016924309789019782
2.3921225743962722E-4
-0.001047345026636063
0.004916277875927598
-0.004352116973223102
0.00732586731888204
0.0026392797852579004
-0.017335312695035566
8.562053336426021E-5
0.006053360338002814
0.005138338909811833
0.005862003617258791
-0.007032362725270131
-0.0051022259134440645
-0.009596556764182853
-0.002048758076190615
0.014521252308877502
-0.010568798569780307
-2.59216501872727E-4
0.00957199024410523
0.004566354621285068
-0.0012382029295672108
-0.012915196362713337
-3.9119936055472904E-4
0.00867065792144112
1.919230981013938E-4
-0.015138723918958276
-0.015312669048042411
0.0040778369518518496
0.014704634848554957
0.003778471462186302
-0.012148530331071439
-0.002275288411891371
-0.0011492800837745725
0.006910149704137043
0.007936529952951018
-0.019464088513706238
0.0012548105971424894
0.0012631270459247748
0.005914960236707883
-8.963465045533905E-4
0.006982088736449047
-0.023133558302138583
0.003334948173750686
0.008061860768948458
-0.024438918725684523
0.012555498483806729
-0.005756192089510573
-9.224497055596222E-4
0.022394008669887493
-0.010362648041854694
5.744831865085823E-4
-0.006077334243007243
0.007171585978397739
-0.015053127513497829
0.0170562562028165
0.003883794190458184
0.0038537192154731448
-0.0026094908632861495
-0.0038171172648530554
-6.943054833194279E-4
0.019134034646436895
0.0036160325457781457
-0.007876609140429203
0.010331274994421815
-0.008677207388869177
-0.007413353402752191
0.0038119334230410375
-0.0012451288173114233
1.2625359351520397E-4
-0.00496598823444086
0.013867419303820095
0.003922525891544035
-0.0040077747200627555
0.0011298726137081824
0.011054237744855524
0.003392504489807776
0.005359158472396696
-0.007591827781221354
0.0037222974632532524
0.011897909226558796
0.009181028700751045
-0.008719173338709916
0.003012418776007015
-0.015429258374808765
-0.008200208363145176
0.010778389304623529
-0.015053287271755337
2.7275501368573263E-4
0.0036794154937108974
-3.610787501986614E-5
0.0057939607285429524
-0.01816279304233378
-0.003808407057470327
0.005723261074911594
-0.009725963730325894
0.020877001405183733
0.01795504870988954
-0.007867867791452283
0.012594443762824316
0.016933417339011065
-0.012482166252431762
0.011915648347137337
-0.0015232968129819723
-0.012915770912426945
0.0010194121509901086
0.004644282511561606
0.006250661661309182
-0.008601597095243598
-0.0037295463283929676
0.01513869122442479
-0.011870177953455794
-0.013706142926995226
0.009318313496577697
-0.01260741786070296
-0.017772854748097484
-0.005061408699518483
-0.001754556828439947
-0.010983025897678531
0.012698820985344252
0.011058111123843037
-0.027649103218334754
0.0011255267440938668
-0.004153327092976246
0.009456439094307368
-5.907440987232423E-4
-5.397996552169774E-4
-0.004073274874916667
0.0019781397455689922
0.009574268477342347
-0.011366602362265735
-0.00747810045216112
-1.0787342466780448E-4
-5.071776756686542E-4
-0.018693901276997396
0.027672628997233585
-0.004604693397204456
-0.012649714834889417
0.011433079665346896
0.002552971574599513
0.0018713402836407849
-0.0022042195279946375
-0.004312861317480024
0.01613497838831845
-0.00583062772242217
1.1774107682860872E-4
0.01941843026213093
-0.0027205408181282683
-0.01031310419529887
-0.028380170593348443
0.04316091784229958
7.48639872451762E-5
-0.001469382322414883
0.0033561545296481943
0.017589859934780835
-0.004130452387608092
0.012007065698301622
0.0014690310596662895
0.006131482732519245
-0.006730262608696752
0.006090548980857224
-0.010141583721674584
-0.0049927823230576495
0.006145790908964787
-0.0051077880624431984
0.002745670151052259
-0.009310582329337026
0.01311995215575557
-0.01311743461815107
-0.005331534563876055
-1.9492337413459185E-4
-0.002672834260797713
-0.002355068729777619
0.0020411177108641118
3.0342042921045455E-4
-9.899702001048049E-4
0.008134891539649443
-0.003421774873651453
0.015422716117876748
-0.008069902483339804
0.003991506552211482
0.00504456886440943
-0.013998845035375056
0.02942614351454197
0.00403112098709533
-0.0026809964512229116
0.01608148153000522
0.052375767680672335
-0.006848161547939713
0.011551477313948129
-0.004981720500809908
-0.009841002552317896
-0.014510316769983133
-0.010828943914833727
-3.561274060373098E-4
-8.905914178024004E-4
0.006411668249874362
-0.011969778182221079
-0.00799490553194187
0.018038731386252328
2.0051245533794933E-4
-0.0037587642657253735
-0.00718111718255181
-0.006279483363901866
-0.006599382892327967
0.0015691188256374978
0.006362703584280215
0.019043816062119814
-0.012223002141096171
0.007830571867685801
-0.01982675139436827
-0.0030354020705790317
0.008908994735272215
-2.0682653716722868E-4
-0.016383374712156156
-0.003959824183285955
0.022559356616779512
-0.005932426412037814
0.0018917904178733836
0.0064396460292409745
0.040734760758116606
-0.007321412012434628
-0.009086078174141497
-0.005950653742446446
0.00309597777478535
0.0059434421723786835
0.007070031427846149
0.008113819258019874
-0.01621373103775118
-0.09999458499965282
0.016450334439286302
0.010421284480508023
-0.010602037829319942
0.04140189106366978
-0.0027291255628083735
0.01511555770230305
0.0014835846482796422
-0.0066472027858681185
0.001913864860008296
-0.021391054902832794
-0.005581955622585335
0.008451070992203647
-0.006995981414765207
0.001723418740966102
0.0019527495325170582
-0.0020537086647532646
-0.004440772204657387
0.0038716938087651107
0.0027366841944210735
0.018499579677914515
0.015538451422481748
0.003550709338184688
0.06968137203887428
-0.01641857977947645
0.0056355900816771375
-0.005758323087589481
0.0010024917062730935
-0.00685396904909885
0.020603471539034326
0.012343039856668733
-0.015601046357254537
0.013624748845126534
-0.08998878736185294
0.007296136433058915
-0.01176421050093411
-0.007580567673889849
2.4040500345498018E-4
-0.0032756458371720016
-0.010473682571145032
0.01316964204480867
0.00852853123078092
0.008251328196859592
0.014452496470556216
5.86694025697827E-5
0.008792065459525815
-0.0033655121832688235
-0.0020947904207051843
0.0015458843956035842
0.009899058089413364
-0.008367070333362215
0.01714729761743173
0.01555598642640107
-0.0052334737503578945
0.008360217008059693
0.0038303919660921497
0.045091690619207196
0.029784593760829592
0.010487337533323666
0.009895532585945783
-0.0052933478933058055
-0.0074716460268581236
-0.010783707037834732
-0.017712988471573207
0.023688000050025512
-0.0028463010656748847
-0.005662481639499582
0.022520657479085833
0.006820662401124073
0.005597826243356383
0.019143579555187563
0.008456323325277256
-0.004285636818506365
-0.010753816410201206
0.002725003369622057
-0.00895191695414813
-0.007180442246896481
0.031758317272025084
0.0060883386851532904
0.002711793670874993
-0.005276678346061952
-0.005979055543028303
0.009617551639354929
0.004506911765394212
-0.005747749239072976
-0.00844736757671448
0.0022822249250133626
0.007668700000195741
-0.018851773760770636
0.020236039205910605
0.012685196891835235
-0.00246518428834004
-0.023814176894633797
-0.02051026956336474
0.010199101951373695
-0.007107480431532022
-0.0022651370840333293
0.010884006000515613
-0.0025152973800315853
-0.0098892433172188
-0.01764579419508919
-0.016407504054658146
-0.005186097721783851
0.017951449266538282
0.007734871275422806
0.015651256171683076
0.004327256914786824
-0.005578761943571661
0.0036769449276771397
-0.016619900081706197
0.0242982513358741
-0.003057864223212396
0.003540218804398041
-0.02269878708388408
7.257636909799996E-4
0.0014924144434940343
0.0049133691484138445
-0.01000961267997069
8.161575873946842E-4
0.014434051101132805
-0.00882047030843198
0.004616110401455039
-0.015445608205720699
-0.0014598828447071927
0.003645708576657191
-0.022967236644795937
-0.006743144507052927
0.03311840167450007
-0.010797572356227943
0.0259759575452427
-0.012161667417123325
-0.002564089333451664
0.020732814442709187
0.0046288767479211726
0.0013549587706416092
0.0040086244380893084
0.0016810175247060559
0.033522575501919165
0.002954213497280015
0.00540606900583951
-0.010189816653238657
-0.0033386384096488024
0.009754919006320157
0.0014039067791899746
0.014762511993798334
0.001046821203459157
-0.0022806714340392153
0.001533365981223282
0.01364750560515009
0.0020621640557116996
-0.015154073737688479
-0.004580247920296988
0.00535475391252461
-0.009485713540976003
0.005646289685037257
-0.00446225079088101
0.0023155223145313385
-0.03039605620895172
7.301990257469361E-4
-0.010692970702492787
0.017696149136939704
-0.009700694439188995
-0.01396936897901294
0.005459144157302106
0.015170151446744861
-0.0059519623839018945
0.008272674495003032
-0.002504554462848723
0.014319539656893487
0.005314364285825651
-0.016818438887768756
0.015861572830882596
0.005419206824072893
-0.010726196159369863
0.018401922736165005
0.00499209748543019
0.004727817138337894
-0.0029880686936379366
-0.016259109196721765
0.002585876053121198
-0.006490452468206111
0.0132808494317824
0.005301923306827386
0.011957106939598493
-0.018747462696018048
0.013366709091933292
-0.003125596360427865
0.0015927400051257534
-0.001985664525406241
0.0027042987542604097
0.002334378201890596
-0.005012211342358001
-0.01642623173152794
-0.005326109514417392
-0.007281081217725037
-8.373463909920818E-4
0.004220125101188911
0.0031826063036827345
-0.010845487794664295
0.001475018027043151
-0.008909492445021362
-0.028355059458418205
-0.022580608214228585
0.007517332482280109
-8.447514975084725E-4
0.0014492844852658242
-0.004288732502611769
0.014761714979058094
0.010503024806619488
0.009531711802158121
0.006492674493524319
9.267897935335616E-4
-0.014600934390429065
0.012374682650856594
-0.0030952832949203385
0.0037474817495559325
0.004898290275052154
-0.00913490167429734
0.006590706318297347
-0.028724512040570083
-0.009121271767705767
0.003999397918655941
0.014283520150121444
-4.691727609960653E-5
-0.009142580045936955
-0.011772201937862967
0.01619727025509409
-7.484808207167983E-4
-0.015229247817770648
-0.02503011295508226
1.791754071534219E-4
0.009904571083675403
0.01197959851133901
-0.0016560987465843733
-0.005768897981227658
0.00427138530926253
0.017060412564547146
0.014164821212292988
0.017709223413560342
-5.811565497870724E-4
0.031016124555790583
-0.007068326364828019
0.018119170449296243
0.023430102159696688
-0.015107887006745363
0.0015066949487582979
-0.008578814646690022
-0.013689703020813598
-0.007284398267507666
0.011276183259496928
-0.006021515425047924
-0.008040986656272245
0.004446530203508803
-0.01840448837767873
-0.0017745615994394068
-0.010532975156463849
0.002142788866629267
-0.005482581636395216
-0.031046693432507294
0.011478192760991815
-0.02756023561067349
-0.0036046453365393212
-0.0022069626170440836
0.01800282077383256
-0.006974459706979756
0.02011321445732695
-5.499894669422026E-4
-0.012140438023954732
-0.009160094069389793
0.00331258616300226
0.01033297067643947
0.0062096203077744395
0.0020102725515104935
0.010405642323686138
-0.026179110709848498
-0.0039726105619859575
0.007865796301407638
-0.003484632745912734
-0.009731708096131482
-0.0018942599450943072
0.0035411832437019742
0.00174373581945511
-0.004849577231811679
-0.006178585775278899
-0.010916195925794191
0.01282069798094925
0.02085877348584016
0.01116637094612687
0.0024979241931962584
-0.012042050790665854
-0.001214730127767979
-0.012617336549753897
0.012532002724334858
0.007566137567370759
0.006739645917129225
0.016845808115689528
0.010762988870368114
-0.009690184037570146
-0.009519188136159996
-9.243690113220907E-4
0.006219373736901959
0.0069173013776942125
-0.0032619055958477733
-0.009887037870209713
-0.02528885908706238
0.0010707582921758105
-0.001108377692858565
0.020689158427758123
0.005336607893406966
-0.004446861172101796
0.0057105865537605905
0.006661708709539169
0.011146028487688664
-0.007994575315585783
-0.010891949055230485
-0.004420883179769802
-0.013734840549911224
-2.9004376836243165E-4
-0.0016096436223800676
-3.031539846399879E-4
-0.0060033250081225654
-0.0039408022126335394
-0.013415567643570719
-0.01154328042385999
0.0016428762880343934
0.0031741095283301705
0.0010290641643573022
-0.008266493612033807
0.0054016289216308475
-0.016023489417826782
-0.006728501856601466
-0.004416770095034058
0.004342716925132863
-9.868866265737308E-4
-0.010986018524517003
0.03620518710659964
0.044652444701068515
0.005167969170250997
0.03879721168618055
0.014392590594685308
-0.015687668557410155
-0.01394153776286183
-0.014255221289670373
0.008105849334954077
-0.0013252757954197115
-0.009020266943293519
-0.011988144357622159
0.00860628550990972
0.016981727276590947
-0.0020244928222291447
0.0031455025328309626
-0.013840450958216515
2.843394081373849E-4
0.014237568793956538
0.013757364813982242
-0.02225676679348928
-0.006793158938853617
-0.007294746732615449
0.008128978917321504
-0.018137825813053468
0.0016406640529732079
-0.00722306017251167
0.015743887786907558
0.002814338103380568
-2.753079345820315E-5
-0.003575618746826335
-0.025963373766777435
0.01755834162481265
0.008524033293914487
-0.01328922433399726
0.0033804718864986396
-0.017525307618445656
-0.006335884305683209
0.006063129596834586
0.008480608153629417
0.03911283425980134
0.0010732989427225206
0.031046982517352408
0.04012592491825577
-0.009928009306298445
0.007997752208574894
5.353579408037916E-4
0.003103871282413673
-0.009641790364738398
0.0070077611760345215
-0.004925436432547046
-0.0029078570948678113
0.0015162121394432136
0.013079166477832508
-0.010305396240884477
-0.01363350932103163
-0.028347875051356962
-0.010763916158211722
-0.0076183432919569236
0.00755441173170017
0.008669912667277
-0.014424037772730575
-0.017445399979563115
-0.005544428371803508
6.595113467041423E-4
-0.005480069322218577
0.011365656357419068
-0.008560358261813273
4.503701645522094E-4
0.007425442654045985
0.011928728827682826
-0.019949880884447168
7.776261657640403E-4
0.006649173289014785
0.01403437048320261
-0.011215168013672523
-0.027993551331153898
-0.02497377793581728
-0.011216425911295508
0.015274298973862984
0.017957515485014945
0.002156625732095841
0.011786408400322147
-0.0018254788536682528
-0.01822219487514364
0.033135877549676576
0.023090489860353752
0.00433855419768974
0.006922860529740434
-0.016110943484779736
-0.015057910434112911
-0.025274394810396873
0.005237345909239069
0.02543442608683568
-0.0037396614932562783
-0.02344869989261903
0.016498928361300146
0.009473020389264859
-0.0012847459030751233
-0.014528214029513698
-0.006248818045089694
-0.011858922449588017
-7.519365588757271E-4
-0.0034870511910769526
-0.009416393411362894
0.009320117575289152
-0.0032961184275108178
0.02158164945943078
-0.0039301082930657
0.012097487936425172
0.009402963315782753
-0.025842303430929386
0.0035904759585491074
-0.02815329007292132
-0.009745319085134296
-0.0059252947548403675
0.020880712535861833
0.0010161847682059303
-0.0019630896009211595
-0.00672462459595609
-0.01599559841751231
0.005677994680925256
0.00929180067052671
0.02007413084012319
0.017643747513266504
-0.001720476016353673
-0.007310616836279704
0.006346906403530408
9.654947809554161E-4
-0.015094008724625635
0.010548690958603467
0.01266998957283835
-0.01454503356613905
0.020625617766364998
-0.016193794382946932
-0.008655907036301584
0.019054358180732388
-0.002913003394795709
-0.0017909464366210226
-0.0011689521447336294
-3.670461802454412E-4
-0.042806234492451606
-0.03213887973465771
-0.05157085275383179
-0.027718405415397593
-0.015588082989893483
-0.021690013704598835
0.008148569787721808
-0.013167390225593694
0.01566460639465047
0.013544817538340768
0.018747217520918638
0.038727856522639485
0.02130006550567206
0.007260315722239767
-0.007186942693306582
0.0019437243635471119
0.010924673857958395
0.01873212591825302
0.05622821570405493
-7.146040930332432E-4
0.014648838399999184
0.002365176949557322
0.01060673387885286
-1.8154100857241447E-4
-0.01250240782953573
-0.019675248726736375
0.023696542347889028
-3.7108968761655637E-4
-0.012375551889514792
-0.018894347212803517
0.008741391961632905
-0.0016198031953213396
-0.010691637279914836
-0.005949032038091669
-0.007942143073320591
-0.022286515479141948
-0.015940589836575553
-0.0031795402792170907
0.017114471971204567
0.008015348675679018
-0.009586373111184484
-0.019906314931419866
8.251599236081067E-4
0.008879683359986994
0.0074308021548066695
0.005043779704330805
0.007108162090544512
7.711000358555034E-4
0.0026628995113438325
0.008203273804970868
0.0010577547945932277
-0.0069735165096976885
-0.009248805957882116
-0.0149953594279119
-0.005255641918787505
0.016350742792672113
0.0069396208547032046
0.005922173549731679
0.01717019230581226
5.061149907675212E-5
-0.012443738123515862
0.011907531303755917
0.0026348521668366305
-2.309159261966924E-5
-0.01953895497116049
-0.008224481296700944
-0.006791444618769647
4.453528673995552E-4
0.03652509525960657
-0.009354021781950895
0.008174781686496976
0.004605104657913433
0.007622761809079597
-0.0020974185741819973
-0.005893453681832186
-0.0021575619017606094
0.006042328986793421
0.009481115365529452
-0.001604174785787808
-0.014410453687528016
0.002142883775496663
0.008478700709261058
0.005182626289925552
4.235438913455966E-5
9.505403007280255E-4
0.0068044432129390625
-0.006020893229473015
0.009352872174962244
0.0012467285911944956
0.021315888531876777
8.305257184866958E-4
-8.762364622121686E-4
0.008770629949647607
-0.008039789611742726
0.0037205009795322425
-0.011795593282930693
0.011521497680322434
0.01375368959083983
0.0032060681648199544
-0.0067180686141231375
0.02640356986902074
0.005750347644786645
0.009604270225044995
0.001150606826408535
0.0021663235225321685
0.003835320549147097
0.0015642240799753743
0.019046624421859833
-0.001972061298514053
-0.03803291772975215
-5.965033425363185E-4
0.004809053141114068
-0.0034656558748194823
0.00235467835338019
0.018882482354088983
0.010631114337060163
0.0013334909913708735
-0.004214575378683878
-0.012591049166760558
-0.0038823678636104456
0.0022154504267953502
-0.0010630520722975097
0.014627702893154404
4.6670435030229E-4
3.0518494545240014E-4
-0.002313727758072342
-0.0013993507110812596
0.01775929087660419
0.008906438296649541
0.016271908048589332
-0.039314966228948325
-0.007262541432717495
-0.027853704476832684
0.02448281381516394
0.008610396455179055
0.014913362694661205
-0.011738987135483213
8.047601683764849E-4
0.12395040657190702
0.03985032792021125
0.04121893572598317
0.021111555175957905
0.005908784188668974
6.268615633057851E-4
0.007050438521965979
0.006421385256110575
-0.005915929720244931
0.011245192004949573
0.004140633919398141
-0.012879004347374191
-0.025048560764567494
0.005694986545682663
0.0024903025916666295
-0.006388453704138095
-0.099744664046561
-0.04348541579980651
-0.12460252088211116
-0.080949206359518
-0.045785927191639146
-0.007978254890940109
-0.0014308083799111945
0.014280105750590234
-0.013810251564874034
4.985912087338079E-4
-0.018175960457260373
-0.013730002941809278
-0.003857043402102047
8.67780632983772E-4
-0.023807292531795372
0.007819640577947057
0.020989404991715054
-2.0449013438243602E-4
-0.015751583929125637
-0.006218325343366051
9.334557876466319E-4
0.041814246205039166
-0.01804699870141211
-0.003617933397505312
0.007024862075823802
-0.014435830419678197
0.007119030611636435
-0.0020600110900085493
0.012086402482068914
0.00540227976418185
-0.010231047839923228
0.007686796037023545
2.1181712049820337E-4
-0.014459026348004177
-0.011346906245351614
-0.010141188641217899
-0.01541707084274465
0.0024277999739722553
0.0037083531109850217
-0.01412924936767199
-0.03147577260883428
-0.02507747686468966
6.879782748544518E-5
-0.014567510023799423
-0.029239262303603568
0.009147596672559386
-0.021279012213720423
-0.01219817558423998
0.004824919011206665
0.008358551984949059
-0.0026587391454116456
0.012839065787949256
-0.029059746541801202
-0.004494711752798097
0.0019475538094225454
0.02421109908722989
-0.021872234700473187
-0.008104060739541005
-0.021808293205725547
0.09844061817573431
-0.016316892283407193
0.03097397671029377
0.015446296896938145
0.011510429009821048
0.018096750556611876
0.0016440224918036776
0.1341298557736226
-0.008016190904783933
0.11998617746723242
-0.019431705053501926
0.011963052791976804
0.002720210372491964
-0.005716391502074352
0.0015739704249704972
-0.08300234567931719
-0.007302387753087759
-0.18507103719860546
0.002613108533844822
0.01093864933572657
-0.0026101212917303005
0.010292380519805988
1.0724324265262263E-4
0.008596895410184645
-0.0494590860624429
-0.017895990623190798
-0.047633120182184324
0.0038666329194355763
0.008890184494911527
-0.01209366922447496
-0.021117463478869204
0.004653932399522666
-0.0030644785667988186
0.0055184709311382005
-0.015377483849122135
-0.015756820152998632
-0.011433299499208353
0.014259130707302512
0.002269634752904593
0.014558482956816266
-8.211677350566677E-4
-0.015681507922794973
0.004197461000556374
0.015565774871556012
0.006810076509570443
0.007453355072665327
0.006035361852037782
0.016308866407377602
0.017086881394369518
0.002929427750540234
0.014733635760438922
0.015663391499218107
0.008053514118667589
0.008242528632017711
-0.013032579167337615
8.995040948697324E-4
-0.010638262904974249
0.008700132085378709
-0.0010350668983167906
0.0034363793313730534
-0.006830139085200224
-0.004959751670844344
0.005280827585467479
0.025974519848624377
0.01640064219699184
0.0016831985451892977
0.013300192096558253
0.008267359907128942
-3.972793393535565E-4
0.007786575421171085
-0.006545852327828019
-0.029430894213676395
-0.035804008261805104
0.00340669421943431
-0.021969870557819706
-0.005817328285346026
0.009065864442006978
-0.005824802738975698
-0.02403642267159896
-0.020843483663701142
-0.002726385886690665
0.0265042035243672
0.006596423186005732
-0.013002094390015411
0.011098019806102649
0.011779388766843684
0.008520941535845114
-0.010853154386559156
0.002567488433802
0.0012604103668851572
0.007933758214138895
-0.005575211627202672
0.014084579019722206
0.0017963138457053355
0.003742611840060367
-0.008190858913335325
0.00463739272739335
-0.007482276120193523
-0.011956356549149609
-0.0032443071421980703
0.005606391215012949
0.007401538317993967
-0.01597515376699741
-0.0025555281440218054
-0.011297864781026559
0.007957078431493745
-0.0034398734006789735
-0.0038951819049348906
-0.009593224839694062
0.00455811710626769
-0.024347626822835467
-0.016825508613468168
0.0015116914696542618
-0.014542220942734928
0.0024711767614216708
0.007968837139917926
0.013786005015396223
1.4012640087602348E-4
0.0026991151952924807
-0.0032972040504545487
0.011624229332087933
0.022694861559034
0.014921529709888203
-5.312181302320267E-4
0.007371799133878619
-0.008522091670577547
-0.005646017512609456
0.0024847515421731964
-4.4507163626746375E-4
-0.005958526820940386
-0.006752161610749473
-0.00954541055684392
-0.008267189537510987
0.0031300918797773115
0.008168232236343602
-0.004788982570140961
-0.0030370293010553123
0.0029303297235806014
-0.005827789872155818
