-3.3232889207970525E-4
0.0024540364942255517
0.0024345703183968593
-0.019404229644049715
-0.02354061875695174
-0.0028705018319069523
0.03675601578789389
-0.0034120773101524453
-0.001170669841189894
0.04598201312863919
-0.034568457179351496
0.03480250159454583
0.011888199316944001
0.027504932096722584
0.012530002846946123
0.0278196146383227
0.0015038285374132986
0.009693101984624935
0.023627806819218073
0.029551611101856383
-0.0034291774756171514
0.0033810625329697584
-0.010145977818207304
0.011829598993893135
-0.01112813304389677
0.013250259073241098
-0.01054354403413201
0.003122421610905499
-0.00449005595335933
-0.004133426040852826
-0.004337310575142658
0.006323887818102125
0.004382651541444136
4.6406546280368366E-4
0.018582692079683258
1.1774674691258062E-4
-0.012361854372259617
-0.044228410308140106
0.009472341811718535
0.012009069916137767
0.02377963351539659
0.03884318090491564
0.011243123541862767
0.025831677148324628
0.016829289366272995
0.006049866890222203
0.04509341411677307
0.029495302590861625
-0.015203371813139601
0.002940087512832918
0.014822290357881516
-0.0014417970666029535
0.0014310355753628236
-7.968260537924015E-4
-0.016990326406666405
0.007581908908791178
-0.015273612990554046
-0.004999599391022567
-0.04559704042061408
8.282232103180094E-4
0.009381483142727205
-0.007680531315956932
0.011911844167301918
-0.0077553976300268924
0.0015933567114067451
0.007101090983463751
-0.008633981080007128
-0.019430338446734547
-0.06113067250709124
-0.074013632134675
0.012693220973871714
0.014233272700101485
0.015341242255075395
0.04075161430272864
-0.020489488755273094
0.03572472891865097
0.013543362742368961
-0.015281468289898749
0.039688478984166255
0.010728313637099106
0.006374857943563563
0.008678008129387198
0.030939939997211993
0.020417726201280642
-0.004693285024556627
-0.02983328934337738
-0.0028418021473085955
-0.002185997335275825
-0.04896935226065102
-0.024212517323798793
-0.01736059104870475
-0.01737124497550946
-0.0113459992258767
-0.022358811380681933
-0.004227111158943246
-5.458429390627112E-4
-0.0018841629543635851
-0.02252016362831728
5.927554369843615E-4
-0.028180206774642988
-0.002079549290640835
-0.012186908721213413
0.04035803622343602
-0.003004366258874633
-0.018053204597883784
0.05586246799811755
0.024626654407770326
0.02429087738419429
0.0157963691732981
0.019954490537703175
0.042708725316244325
0.020666983498112773
-0.005016740158590461
0.017097623313806303
-0.003725131127666079
0.03796859483413508
0.0051928519982369255
-0.001656053432772143
-0.026085994671172567
0.01310373602730437
-0.03481084639872341
0.0035143822295366405
-0.017616844877030333
-0.01842432808094556
-0.0220259314435403
-0.04581220080160295
0.0028940550805888763
-0.008467255623794143
0.006149694562606159
0.00710516026161052
9.268728630631276E-4
0.007010349491772423
-0.009222841147281913
-0.005791566960310641
0.03109253550779868
0.006377842131817521
-0.008197885066913364
0.029309188701149718
0.005498777596621054
0.03046964298494226
0.00829820199388859
-0.00677687778637707
0.04815162208891382
0.0015119883457640109
-0.0156114270536291
0.009023203932219101
0.025213900558659134
0.013584708623255212
0.01013961040388243
-0.004690967284618528
-0.014338836392727277
-0.0011306801041381744
-0.002467455643663454
0.025533566840348097
-0.007956858695585297
0.004286183463222504
0.016089010477448575
-0.027125171432565192
-0.039411628529766145
0.006604724834083496
0.014638577627768901
0.010594609198766659
-0.05218713111714421
0.025982319882624734
0.0051815901980004405
0.03180704814653502
0.019053700103036208
0.02035186964422088
-0.0040221494747331365
0.03389900649165
0.009648536279652536
0.018093125964961904
0.03196062369520566
-0.020743660116438196
0.042545705090899576
0.0066398990642909765
0.004357375456941965
0.017248024581733856
0.004589054516641045
-0.0037500364137493533
0.010537552342444965
0.010159319900656043
0.018109640596257227
0.02079510329988272
-0.06792205178800041
0.01076151059954553
-0.00592991396451789
-0.08138415761683757
-0.10509890319328284
0.15893716505391872
-0.006152294484673635
-0.01834572248184764
0.009085911711132145
-0.0038852100236772946
-0.07663177468804316
0.012619896836083121
-0.06244634029379334
0.04127685176985044
0.030319647708476966
0.023487989602822335
0.01904335030442843
0.008087496714651136
0.016757058630720734
0.006735715356599751
0.021665228980705793
-0.006856229847449287
0.016683644564203914
-0.004053709047163371
-0.011253505846697319
0.01162569702725646
0.0195185057840605
0.01357837850670629
-0.0060099097484418405
-0.013459597074864516
-0.005025465789100797
0.004072796845102099
-0.029506305774200027
0.0025234853111560703
0.009287100870062072
-0.023784236136439194
-0.2073392280148702
-0.04758379909245448
-0.1414379599394682
-0.1264971360806347
-0.006539413340722079
-0.012676427687678992
0.023321492693909453
0.015338364054286235
-0.0022938578141939343
0.02199800252617175
0.03571890990540239
-0.004800386832842778
-0.006373692888963511
0.0030396999506811274
-0.007176285468671002
-0.008091118534304444
-0.00855653199194282
-0.03097517351609775
-0.002468769226877079
-0.02903606905454854
0.01473678089588678
0.007767342289591088
0.00605605682934043
0.010758923402463127
-0.008811181685526198
-0.006871348408859886
0.009476482725021404
0.0162883867638293
-0.03350048669062775
0.032123573645755986
0.0027896993101447437
-0.007939090377652214
-0.06468838981172959
0.039166768903566615
-0.10711901809615432
-0.10050137374100507
-0.006186588911316784
-0.008524011111266726
-0.011554651600104262
-0.002784417239855787
0.002380312865799727
0.01278985466231061
-0.017808004526531727
0.005385509542268123
0.0055079257781056636
0.012508734934484615
-0.018798411068902062
0.006623858631325061
0.001574746322460528
0.0022796650327128187
0.005478291122029199
0.005322780075648181
6.920977806104951E-4
0.006654476219099263
-0.010314730301024592
0.0016024022497941788
0.001987520508534985
-0.00817756619810219
0.04593218033107912
0.00272723113964826
0.026648375844356944
0.029920979476910133
-0.014646287299905662
0.003138570111949964
0.010110603795768832
0.012153158668733968
-0.005277531012577735
-0.011970364944614122
0.006701747910278217
-0.001757314443013602
0.011188965901933374
-0.01094177117529399
-0.00607129780891429
-0.0032693648646596723
-0.007730809468752858
0.008660345045649194
-0.003355347765157394
-0.0012966206902293037
0.01890236185839105
0.016099681966705953
-0.012024764212044948
-0.006529428286145317
0.0026369519188221063
9.495431732545976E-4
-0.007315371301948168
0.014533473754345383
0.005398530054043586
-0.0035929647328812784
0.007283511267527321
0.0033291340188382943
0.02253887358212501
-0.001260717069396856
0.008666021008174728
0.020687697725124313
0.004425183831408823
0.007720002416758941
-0.006914898531767475
0.0060692287712825746
0.011189899023967647
0.012559752695986068
-0.00211173817616299
-0.009932274658220074
7.875409673447234E-4
0.004130139253081741
-2.68915569603582E-4
0.010769516737872131
0.005262917800473615
0.005020685157104824
0.0036867115240895704
0.014736867976711289
0.01196395709813231
0.001688608516832897
0.009770977540685384
0.0082528378022149
-0.006591305170921907
-0.011092040486069486
0.0011330697217921347
0.00611660723838219
0.0021686863150138518
0.002696818892973442
0.0012677213590471048
0.00835252556903431
0.02398532927597685
0.017236293083996358
0.018957724269695244
0.0561733956407802
0.020360917649719906
0.019186353401014707
-0.016449608147181844
-0.005183572110732702
-0.013130779567886188
-0.003958483187178674
0.0104206359737517
0.015315426853042255
-0.0011808889362914274
0.03364128783023645
0.0011845602601969773
-0.013228523042215737
-0.006866680947002362
0.022876651900477912
0.0019305457995507263
-0.004144805406835687
-0.012363614788774327
0.012742927212845232
0.0012287926713281383
-0.0026600602424095192
0.007259689100493175
7.579796323621755E-4
-0.001395460569615961
0.019681870855533884
0.007232742752898126
0.01949083477053703
0.015941412368629924
0.005688614740710626
0.0438911631959369
0.006772681145878311
0.023876150831056382
0.032977548544514804
0.0141395763642992
0.031838865588382385
0.008241837185155833
-0.0037616916111425738
0.015511990821962286
0.02967906597727725
0.011494549517129646
-0.002151713241938663
-5.875870439110012E-4
-0.0034645229421805526
0.0012807994567005365
-0.010583273232491964
-0.0020686530808391164
0.02386769604536473
0.008323288900193095
0.01184150437604896
0.007725533700673019
-0.014983075929761124
0.0013865671636192852
-0.007101165365260738
-0.0035130498251327675
-0.011066396831004594
0.006787581266314014
0.0019525247387696025
0.00336848954349964
0.020551218667262144
-0.010402855316825783
-0.011006258118582187
-0.00580098668377214
-0.0025805688711300423
0.012214274927051155
0.02686200111422158
0.004622872449213891
0.017979694503040634
0.004251634274786393
0.014476764412126511
0.019537866723867817
0.014441694384137416
0.08787244656626973
-0.05871188177775676
-0.04379759611908417
-0.13187318604010348
0.01379734463214168
0.011702431418948589
-0.010955139597678526
0.0010732322131646933
0.014714049705376585
0.02601482342203664
0.002590450937993852
0.006417676063014514
-0.004419848507705799
0.02259181826311077
0.011425343477104674
0.006178754153797351
0.024833141972364827
0.013018893800145549
0.027716883942676056
0.02470819408669561
0.008895192228861877
0.022113061040276986
0.017106513197167886
0.018408630553019358
0.0357654616927472
0.01334835008252588
0.02358745641489735
0.017040169404503414
-0.013438654130967006
0.026462158158337065
0.006027146398218324
0.02061190539149426
0.14658842394769808
-0.012636595819260304
0.009707464235448783
0.012683153904678427
-0.012760179530710968
0.005992451609294397
0.007548727366976817
0.006060554168919907
0.040222069612632964
0.022377565576566994
-0.010287423411472079
-0.02939621518951379
-0.0074919215758663974
0.010329500870617918
-0.002863655327529053
-0.009443930295689726
-0.004515857036364553
-0.004334778596064318
0.03186804775966516
-0.0033671602922589615
0.016036810887947
0.016533162907829486
0.006142831610921536
0.0124623486168895
0.02838739925573602
0.03221796093425016
0.027522360085345265
2.2226026256676507E-5
0.004790772392198446
0.0268354552423899
0.01181754812219692
0.029967910676390357
0.05261579287377156
0.005968820746756626
0.0762719206862604
-0.001479222341346521
-0.004656355511363271
0.019116461374764714
-0.008470537777303873
-0.013351256293142828
0.009084944763493488
0.014150269982898941
-0.001526976194428764
5.243511455906855E-4
-0.0016363626470803677
-0.004237422657534025
-0.005020087466564134
0.01506177808408696
0.022941114987815394
0.033017881964341404
-3.650508317513088E-4
0.02135953162276956
0.01411582506468826
0.027044784359202573
0.007950288514126172
0.006273113392335683
-0.0049349228899189
0.011886362104221922
0.038272119681302015
0.025751019953295116
-0.018078255597763927
0.04725324276646738
0.06397930799848385
0.008196864028482423
-0.016833229113085883
0.013169175909326524
0.01887899786960648
0.02129056966486104
0.011251977809719564
-2.2036074286111654E-4
0.0038458421112414925
0.03819347244928614
0.018299334167898508
0.009768265319116108
0.03809510987315068
0.012100423940970334
0.018081430685887093
0.021458214882158096
0.011524838262991015
0.017415395687266678
-0.014155102510285076
0.003422396791254847
0.049799520732521356
-0.009265772591654663
-0.007660860560886328
0.007499814810302461
1.301758407874036E-4
0.015114230420461294
-0.002649564371791869
-9.526623216177763E-4
0.002486086891668139
0.005002838444216172
0.0025639977102845635
-0.01046312603101162
-0.005154530712298683
-0.012023059369383284
0.0058625529241746925
0.0020786200946729
-0.02043848091549807
0.005317344317936899
0.029101607956926328
-0.005240708549682832
0.02127659325298927
-0.002260657324864049
0.024141517089010252
0.0069943704691349685
-0.006681814025626967
0.011946617764969941
0.019003818764060265
0.0030290335134764935
-0.003921129195075333
0.025131854890581822
0.010487347896199612
-0.010668820359660965
-0.009280770120876716
0.002623621148025447
-0.0028954495413202564
-3.622307949764206E-4
0.010286714575364923
0.003758290037761133
-0.023544893832593696
-0.010061625035484018
-0.03410156715085792
0.007804186365860774
0.007444913489211558
-0.013544144833545836
0.006147567412541652
0.008453980540326185
0.001514063704712444
0.017472731959695512
-0.0027055423253200097
-0.04279835104385264
-0.04561416105352617
0.01098306845018582
0.0200939191935755
0.03970782819860444
-0.00416508822594744
-0.03475376842045238
-0.014019075011501774
0.049351917614584524
0.024851224752518986
0.005828229522774609
-0.026518918336316862
0.014398404686492845
-0.007324299304462247
-0.023706935739476877
-0.009976081413589704
-0.03561265944114294
0.016013162230821398
-0.004244911660417233
0.004452982699152324
0.019012509915877572
0.005468415071694857
0.004250556247520427
0.002088589338768108
-0.015429444967722687
0.012213227554714795
-0.042252745323205054
1.234178415307069E-4
0.009198551107084764
-0.022181918400760794
-0.0020432441886084132
1.2839610539590562E-4
-0.015170718116984597
0.002625603741402517
-0.005618186206194207
0.021048442581617793
-0.00703582234921311
0.010765977056814814
0.03011034653600196
0.018611102994700493
0.003884998683166822
-0.013900214368528946
0.005035719448663506
0.0030771104130615417
-0.014264788808034915
-0.004728259265487779
0.015465269501128453
0.0013630465641310675
0.006172695260009816
-0.01872783082360826
0.04017761670416852
0.009016359126967218
-0.011803297190825507
0.03650974673529283
0.0031786343976292868
0.006506104470379087
-0.00565998255675746
-0.03132962257639063
0.012232969269829174
0.001884889086306991
-0.02985994209283257
0.008060760792561492
-0.02711350220633599
0.01478123679125922
-0.001560055430152845
0.005491764195810183
0.01549680359524503
0.002803928216910716
0.021056689345638823
0.004769421691710597
0.02220540727215165
0.0251681717155982
0.013461594641987403
-0.004243763396261376
0.008829233168035414
0.016234274492146816
0.021898539224119766
-0.001923861715015299
-0.021184783843116065
0.05251910622437051
0.007113373960210691
0.01793662638545587
-0.0161087722538912
0.07464021945182014
0.019301502486598177
0.022910915559701213
0.018371507152142984
0.009411306859857728
0.00907935878420942
-0.002957075442482268
-0.04583122477403391
-0.0021520074754305864
-0.003257683270383685
-0.005879095725854957
-0.004613471396101239
-0.009991098733563367
-7.304954246036797E-4
-0.008565593321050068
0.0244730312422324
-0.015425929985428613
0.04781638414503929
1.2993949967533472E-4
0.037219118631547414
0.03501228309235008
0.008170977126305618
-0.009684224835417138
0.005666991733647939
-0.004719887086869907
0.0044144067090713885
-0.001506954480643217
0.02065162841993476
0.014791924460358806
0.01335543234104902
0.010849114405128505
-0.05142499151523328
-0.011802333223812094
0.01697607653334584
-0.01256114659641893
-0.03199848297234781
0.0300375772420695
0.004544220968667353
0.003952272691035584
-0.05439810214931138
-0.03510839460390056
0.00552791862998156
-0.03657253278070494
0.011679863476591166
0.006792191236132172
0.0028923864073416078
-0.004970231877065195
-0.006312815893068994
0.012832942169508248
-0.037753406570511086
0.03420066740432306
-0.010916833694824013
0.06251409858097845
-0.0010915468271977301
-0.019714799100212423
-0.006498969539205264
0.03263015886942971
3.9580701353084536E-4
0.00600913435604055
-0.012791383071508768
0.00904658572895886
0.010805806557388659
0.016226279956188222
-0.0020198127439747687
-0.01765577294482926
-0.042001384726825436
0.036010458812441574
-0.007894824953582347
-0.12225733037132008
0.010186300421066777
0.006720433737373195
-0.010114635626431018
-0.0867130950487199
-0.1983223546067425
-0.056127391418353836
-0.12921903816412952
0.0016158960856751995
-0.0053136227727335495
-0.0035922022810557213
-0.011246250439433171
0.008135962440076314
0.011995642623765743
0.00690635752346674
-0.007712536266570946
0.003489978087758858
0.004115639096895528
0.01717413103261407
-0.014971067230789689
-0.008653715487174411
-0.023644061202652323
0.02052865515232698
0.009751253311512414
-0.007439649060138284
-0.013549027253123647
0.008929824931761272
-0.01775956123868014
0.005373386625637544
-0.007852210470332188
-0.015141323764142102
0.01604448628164667
-0.048611507358750985
-0.02469525394129167
-0.007785792509748827
-0.0038738016430622142
-3.6790310513139376E-4
-0.04478782955528442
-0.07327889528793761
-0.02513537932217052
-0.05383012543483706
9.910057412359317E-4
-0.008046276088633422
0.008561364088611809
-0.011523176453577363
0.0022439144745019708
-0.022322508032428058
-0.010875322255761434
0.007724564426900135
-0.003105762046645605
-0.003512095547087462
-0.013853494757317165
0.01048130166475279
-9.164450979634738E-4
0.02491334774610362
0.019321800435988547
0.0064094259961737145
0.021269687659783355
-0.011884599930316679
0.012179826595158727
0.04014846384590173
-0.0014796932784995117
0.005327617751252058
-0.01435386760426379
0.01327055640413867
-0.01167963230809386
-0.00450609998467291
0.024325386209240754
0.009971169765409765
0.028481762795164536
-0.006771169723011091
-0.00971801770244924
0.015816474662220793
8.2898155093736E-4
-0.004863726719831864
-0.0032295820330636884
-0.008513211469915292
4.154907827242827E-5
0.0054803034237448
-0.0028526604066983602
0.004506343154444292
0.009452263671598984
-0.004538428055718071
-0.013216685242927904
-0.002529739004938244
0.003880816993600009
-0.01208019016832842
7.548950621677365E-4
-0.012828628860006557
-0.006220798470692332
0.011680315328674582
-0.005465258627324778
0.0035788571290782775
-0.0048805915063999
-0.014091388406160666
0.004249875094501683
-0.0027715105526909386
0.013089143942034004
-8.402915415318325E-4
-0.001267360466058205
0.023665886619418142
0.0036711273970456574
0.021033109549096856
0.0016897166349419755
0.00699979354462217
0.021737936623170216
0.008181874137929777
0.01179826878842359
0.021506985639773917
-0.0059345059093830355
0.010260208024720156
-0.005732297985057564
-0.018465977361213658
0.010595517448663796
0.011785470981611314
-0.019225864714648225
-0.00646227885977092
0.0019204770640186201
-0.005675050851608974
0.02555047945908924
-0.006691915889789599
0.01810120317106422
0.012547955357133184
0.008260807024300782
-0.010257545506943518
0.009545372429906374
0.004776235277066713
0.011463101978554388
-0.0016257056785263884
-0.005316183620801451
0.024164958907034514
-0.004311493858458295
1.3081300548917606E-4
0.03666721917004272
0.021266598481634567
0.006578844962809193
0.023090499006777017
0.01302403676483364
0.0334777269788515
0.010880434369124881
-0.014362297667733444
0.006762674972502854
-0.00278423166623623
-0.007510122757585055
0.014016985524834895
0.014223646043855842
-0.013376556146531283
0.005801022811536778
0.014054488051445362
-0.008019103767724677
0.0018580940243471498
9.103337253171134E-5
0.01583309647636173
-0.0031760382996281265
4.6327946219484954E-4
0.021322407798492125
0.011701748324647536
-0.001849880136674106
0.00511170290876682
0.017145429738128402
0.002041351887967217
0.006748210649108813
0.0036351978524690963
0.007129242286985223
-0.001179371750844474
0.0031941835453060266
0.02447979358714231
0.009067909782178944
0.02244577731554965
0.018170580508938862
0.018038115905188116
0.03580891716610568
0.010668750425418417
0.007872059507541738
0.006920185830351982
0.009615155833927852
0.011504516448313918
-7.718988924600697E-4
9.72001370397626E-5
-0.007556631937963217
6.46516184494399E-4
0.007935281973183694
0.006783569683286964
-0.002068527703963375
0.0020532500392115376
-0.006223309773105782
-0.00931017088917241
0.007042621367600435
-0.0065842166154057415
-0.01537980432859308
-0.025075258839054974
-0.006117405337792756
0.006283849899135447
-0.0010643523400114486
-0.012049409307736646
5.572174812969398E-4
0.007776686981009389
0.009218749963914537
0.012703718494768954
0.013095514204223955
0.010662502803576732
0.024470199592002702
0.01669736486862844
0.029060631998070952
0.021439207032398905
0.014819293667199168
0.012062515723443612
0.0011555977610274723
0.02720605049033247
0.01891717144241029
0.004630209297197154
0.007942459466756813
-0.003048678259926678
-0.014742899486922114
-0.00945169601088777
0.12134777540951454
-0.1220995063545674
-0.017989034981392458
-0.11957474094107393
0.03708418031772265
0.07771801240227875
0.013351472436596061
0.024449198262463136
-0.01657354274293786
0.021114864364354793
0.031085223189035716
0.004489897164567346
0.0025692278702500247
-0.0014832697132192596
0.009565592201468576
-0.003075131443476169
0.012964962632597435
0.020589603364576606
0.010855729391566786
-0.0010740659974211168
0.03693457612098511
0.00157769033085977
0.04063775020064919
-0.006407654696821994
0.026647251856984088
0.03601536886010518
0.02225219320389055
0.029185405158901043
-0.017669742594489106
0.01244358899023129
-0.0036125244633162822
-0.005136012625785257
0.019067084089617874
0.11442441146660269
-0.08138034646252375
0.004339645503016145
-0.06288803759117598
0.07450931807073986
0.05983883495012508
0.020245989209495854
0.04295478184182066
-0.008289083288863954
0.019644520482168606
0.018670207070722557
0.03179474440569467
0.005701206172672206
0.00785945890784301
0.03316883933707416
-0.002560429159609129
0.027758025083284534
0.01933270941378292
-2.9544302545532697E-4
-0.017095894005285477
0.009748537069991414
0.021626117674294537
0.008170408406981902
-0.005135602489064403
0.021994645095284048
0.05595674294476474
0.03921783775200266
0.02676465648620933
-0.009540293454101524
0.002470262328866111
-0.005599481916932806
0.01430829568295694
0.0020196584690934456
0.01912194864481575
0.07800159885608472
0.010060567263321706
0.0016153951738735748
0.01134712589790394
0.01285827249070508
-0.005316992759697346
0.04140542004301725
-0.004040823916281967
-0.007380822511563938
0.006832919465592079
0.03463549910009118
0.02487973899795514
0.03306798839454941
2.856821667988629E-4
0.007991367771987069
-0.009940577497029549
0.023102804593942334
-0.007240811854880533
0.0050256437195409405
-7.218100667989701E-4
0.021621724874818574
0.05406608591967875
0.016332101397111453
0.01100106014821063
0.07888751704618478
0.07104638004001397
0.011688613527209965
0.013501954736621798
0.01324896674726134
0.010441676560066646
0.010624848504001624
-0.006171996851317717
-0.008608201217615009
0.004371488418135067
-0.0296689068125763
3.4849288416702827E-4
0.013835238899977688
0.05384119166325997
0.011816617861447252
-0.013368754447721233
-0.06415814851025477
-0.002799916556711424
-0.011111052153402037
-0.0038696262714615335
0.012793744875456424
0.0014354971518233347
0.022137030556642782
0.0020947582213509813
0.039790273779299536
0.006471747127357072
-0.009571107954833869
-0.009276625403649985
0.01634409595110504
0.0898210986568526
0.03443871356990325
0.08419147502704442
0.03440369327397058
0.06528573729550648
0.018482412259184764
0.009695929655763304
0.029824206239654934
0.08630071577648275
0.07860725471082078
0.03128486300559505
0.0871460006496624
0.02270758087859585
0.07155961080813997
0.002528810986816984
0.012485638611580465
0.005013911298215985
-0.018355150498514796
0.030746773892019477
0.006756267713441556
0.05810093266197138
-0.011975795057996437
0.013089740248372131
-0.0026532986528530443
0.003639703646161358
-0.0035633403102400055
-0.005706593170176446
0.03332250381550271
-0.007060728579579521
0.04109232440390676
0.007119362405740921
0.0013591517835874298
0.00441867757584323
0.009316664492599236
0.0011307976922215889
0.007175315745686099
0.015616605319451058
-0.009932773658417278
0.0317370839951132
0.41762674474494105
0.2672269124690979
0.026529182070325046
0.023452396509248265
5.796114939897281E-4
-3.550055594273651E-4
-0.016114898012874614
0.011437465009283205
0.1044781958959587
0.12075797149278741
-0.008033300354127405
0.0160372785735573
0.00233811629669106
-0.004054884381588137
-0.006485351907741736
0.002808166403250778
0.013649134183482674
0.01843877258510512
0.00347866380945496
-7.149320265047445E-4
0.008562798838867564
0.002565534130949787
0.005554777159262675
5.326211777952115E-4
-0.0029046949683625284
0.016079410494420285
-8.891733309373047E-4
0.002481480638033474
-0.01617610203468705
-0.013539465725102742
-0.002869782500829784
-0.009583329392091285
5.342352731712213E-4
-0.02333219538561093
0.016411717948048406
0.004789291151830045
0.05562222675546658
0.005758819584795052
-0.026936614269001683
-5.448923430357135E-4
-0.008561644681643103
-0.002337154412844686
0.004394070806958047
0.01640639455510229
-0.007257619205280184
-0.007729124167986637
-0.003371334185318657
-0.015889482586316565
0.012558811757928959
0.00362305097000519
-0.019180834987779307
0.009141753234479808
0.00895575183454607
-0.003524505093491106
0.01629552829408205
-0.00938457215732101
-0.0059048972470449
-0.008028885196333579
-5.470305019092292E-4
0.005670884638027904
0.005214095976281104
0.005480518053938217
-0.003664053965288486
-0.007949953462743761
0.6159003028332842
0.24121719324219218
0.042109383971551353
0.0259260763720953
0.003671097027270958
0.002229772615866701
2.5144565666551763E-4
0.002490661220262058
0.03455205705525709
0.011395501304909026
0.005502930419588935
0.0015383820163107035
-0.009480450413430165
0.008790976291788061
0.007103583615583668
-0.011435490487684837
0.021519826114782665
0.018993956956120002
0.0544736799518565
-0.00496040321551334
-0.00652046647919688
0.0037469502077405424
-0.003251702824060898
-0.028626100086752922
0.019954967889577235
-0.010174140171305331
0.003759662392092373
-8.628410191722658E-4
0.0029299409163341776
3.912798455841652E-4
0.005136796250564791
0.00776979120016578
0.005597282492970299
-0.015640099032504472
0.02260314789412531
0.010030346098009528
-0.0040528521732929364
-0.003598113009333962
0.00804274545410693
0.016037296069569038
7.29669007387322E-4
-0.004564384486763075
0.009323643825150834
-0.010179243638867635
-0.007302133307811208
-0.005238408930790767
-0.001736446645423815
-8.622631510817946E-5
-0.006657249989980231
0.008947363788449904
-0.011416290705708505
0.0024189374338482237
-0.007563122349267417
0.009068708725308273
0.005789839360363114
-0.007063243050581292
-0.0023163640555262013
-0.004774115743286033
0.009299854878123697
-0.004357462174150817
-7.259493801038447E-4
-0.012527974038816952
-0.009688007509521325
-0.0032012028519812085
0.012332420203304752
0.020331264910124772
0.004085325024665558
-0.008063506615781002
0.02325718688691391
0.0058194831977547885
-0.0014091025656413911
0.03429154818793515
0.11562114694863367
0.150935249527698
0.02358731976876481
0.17447673576710682
0.04874231253985222
0.0358119394799654
0.04105458275225481
5.52079087662746E-4
-0.007053182057350715
0.016904008074917827
0.025715607301398383
0.0034971233982817517
0.003594119661979496
-0.007437938448335996
-0.006282029876352286
-0.011671761865423427
0.007742821365278232
0.11770013602420738
0.008477839177573217
0.1365051029556534
0.002531211769630164
0.04694401989615062
0.014175502165358653
-0.00924957027634449
0.020720863291035674
0.0031392008792114354
0.004432869506467774
0.00749091551688677
0.03878709201187612
0.003798605531910631
0.005458114452340997
0.0051798155957102
0.012633771826645155
-0.004177774283539853
-0.005809302933365866
0.03284931737686251
-0.0021559475424597664
0.019607522279340706
-0.001788985626374734
0.008039870188988966
0.015096391727633244
-6.710794329278037E-4
-0.005979077356531717
0.0031714309225705176
0.0012987550103497664
-0.006757047750173902
-0.030458733226861077
-0.006463506701295613
-0.002340294804299624
-0.004932182520484437
0.004317576089623806
-0.004255460443787467
-0.0025124045701454207
-0.006403982787516871
0.00694160084797422
-0.015025242004778411
0.04075567098699981
0.03171442973852298
-0.034239799260463805
0.02697129241838792
-0.031708453634124265
-0.0069197900422408925
0.002683158282006766
-0.009052243149350587
0.030912789684041857
0.020214642378311574
0.0012591033002283707
0.010250922595847336
-0.006142146930814157
0.012318887981033741
0.020260619426909234
-4.905169554943127E-4
0.0010663063789350393
-0.004003727360114005
0.013482741303104331
-0.0044709042483923765
0.01740243485011468
0.015281836578928173
0.009420545581061755
0.010556437604641136
0.030126010269933574
0.14098038751951256
0.014489521242057008
0.16359240636032957
0.03930486846814042
0.10259553908309942
0.06916127801212918
-0.0059889214649651475
0.003966514489185854
0.034473724605109
0.014431484303802809
0.004473341301867167
0.04404531613372139
-0.009538978127901158
0.026580431135028188
0.001394567528621275
-0.0038528513469111322
0.008711852549922579
0.017548458041552882
0.083607648359432
0.011728597804860798
0.11706511931565844
0.006917396023172915
0.01275282915174393
-5.19865913421316E-4
-0.0010372262471884392
0.021273801479745967
0.0018512133230215988
0.003155468568239132
0.002354162385705531
0.03659918580834596
0.01121441416372526
0.003710162249796406
-0.012051097325853527
-0.014274360441444192
0.015514787484286419
0.006933815129724809
-0.015934890676541632
-0.00968408304135756
8.280047114288613E-4
0.5620029120490032
0.30488372592445573
0.052673401237549565
0.0029372701759355887
0.025634835393247825
0.006606511729403682
0.007425886245614473
0.007585522942883523
0.07875323852251166
0.04358308498218401
-0.0016477550018605515
-0.0013810484819982835
-1.5853424045121894E-4
0.0037205591659509947
-0.02017000228042181
0.0037705029511425243
0.007525735233047702
0.00789347557677653
0.011204449725570505
0.007509475629519848
0.003899752105480141
-0.002005491716463569
-0.011333093555783198
0.01105217809764236
-0.021702495844774974
0.018995707082658415
-0.010126397091229743
0.03268815989278287
-0.008822784574187325
-0.012261038549485261
-0.003753957052192894
-0.0061482846943008715
0.015480587503990444
0.004401156434191857
-0.02602955245543777
0.011355320480049974
0.03498289384625103
-0.020190956668239453
0.0025396982028657055
6.60295821647294E-4
-1.749127733886485E-4
-0.012037305920169935
-0.008713592266408405
0.01157670466741282
0.014783844748120204
-0.0013835944227860984
-0.003108075053810117
-0.0047636522730959965
0.004167060741803933
0.007349621574167639
0.00479797794822478
1.1586166199219187E-4
0.0032766309501155843
-9.430338737815329E-4
-0.009191994040434836
0.011000992360822838
0.00991929524014805
-0.010422858216643863
0.015443021472274188
-0.015470064779155008
-2.070122096912235E-4
-0.0030287381750893822
0.006071827781269328
-0.008256838287914665
0.6509123761062184
0.14296567865970647
0.030576277719338657
-0.012258271841626011
0.005473948759023271
0.0010578612188057242
0.021362989337335686
0.005810266764593369
0.09749695581630911
0.15365700037502103
-0.01130416518322958
0.012260941411421051
0.0048897867403976825
0.014699075540365187
0.012231391714939786
0.007059167823975939
-0.005877565111734087
0.012410872256595542
-0.012137312956865843
-0.0016750321168981547
-0.010517254510220708
0.008250489301522071
-8.053517136499896E-4
-9.869118486760726E-4
-0.003392726788267502
0.008957254060504233
-0.005416817244527193
-0.0022692290588446707
-0.0041026342746018464
0.005713174213211706
0.010769611600288536
0.002795092960661424
-0.004657108295104444
-0.0024206517578041287
-0.006777753537419632
0.00807212796010846
0.01106435308117721
0.01144877655914948
-0.013971109600205598
0.0181695046698416
0.01035469262601731
0.009695067513923893
0.004608280920141876
-6.901596377194199E-4
0.0033250014021387877
0.007986246852236376
0.01626498954639738
-0.007554096870597513
0.003652329236492286
-0.0028650590857325704
-0.0035733495778051826
0.007282496187367877
0.016139389440009606
-0.004916417381451966
-0.007883491557642333
-0.003732366082832827
-0.0233502216684179
-0.010213391155915028
-0.020288928391098963
-0.005728599194057753
0.014460247947583238
6.226272447454461E-4
0.017595697298384623
-0.001814259186617906
0.041541642109917745
0.036016073528237436
-0.014063880377763063
0.005446512486975062
-0.008034398317629735
0.005823525689250342
-0.007455357342042021
0.013221644221769687
0.18959663296566334
0.29054692796633097
-0.016044017360488015
0.24425798006577382
0.021648525695727637
0.06722974819086455
0.030994492606245382
0.0011097377496166179
-0.0017587640755438875
0.015022710716819862
0.049887377832573625
0.0052062131659259174
0.007828161222053412
0.002647787693665301
0.023093547179569573
-0.012741115445452159
0.006858406657025865
0.09112103118115475
-0.001364796284381882
0.07742843528096502
0.019704005159024773
0.07355529654052642
0.0224302375068146
-0.002021274957118378
-0.004795808436689622
0.0042222602804036745
-0.006345023378006564
-0.009228798968611344
0.01275016026254463
0.009347215362146763
0.01296655348834113
0.008105331816160558
0.0022999381178992443
-0.004876172940487944
-0.0044222687955366045
-0.031938499013117315
-0.0021535243531794913
-0.05262316144419704
-0.03726616167075767
-0.041009998914023356
-0.02664261921276447
0.010114031271155066
0.008424663089925654
-0.02561618333628566
-0.019667864087745138
-0.01531730840187665
-0.02768558411149424
-0.029292895882333702
0.0070764058533589105
0.02181348691683519
-0.014723915954934228
-0.011048954049898209
0.005482676678738033
-5.348861339271263E-4
-7.630103021702643E-4
-0.012543261973565981
-0.00130889888084997
-0.00725210401482588
0.0027249227177689214
0.005360552859120437
0.012238135148138929
3.023179273279273E-4
0.04236723719345136
-0.024601585762675345
0.0033410506921334616
0.006381411757126278
0.12465289214338193
-0.007038032958211114
0.012072543275219408
0.02067042089220472
0.04846428149082993
0.006581543769042713
0.006357340892443437
-0.01664649654753856
0.011988011405451691
-0.021272863967820164
0.024648394677536736
-0.03134002670647925
0.011588971482534911
-0.015447282160428373
-0.018029665504411728
-0.013542751472098939
-0.0684148065790913
-0.03761367052257725
-0.08501444615157132
-0.011006661276986537
-0.09911483358202677
-0.01627093204168974
-0.028183080721084722
0.0027110969148105776
9.618209650590522E-4
-0.023384583346216698
-0.04614653082484751
0.028606324668322393
0.002986726040567323
0.005139300914687012
-0.01772835506033742
-0.016661807901263495
0.008694682795533922
-0.004818826169952974
0.004972203078665894
0.0036019746361233332
0.005792687599935199
0.006947209014438127
-0.026199367794157147
-0.010620206405783197
-0.014187310946675778
-0.016567196879187715
-0.011055911973468523
-0.0024689696398334814
0.003910694826879763
0.01811664828381857
-0.021284486579196703
-0.02342298685880618
-0.016213714538005818
-0.005590987664358974
-2.584840658006553E-4
-0.01580955741856184
-0.030510666209149925
-0.024861551729947917
-0.058482939633303366
-0.006097812545989927
0.029919957767858375
-0.006045362677072712
0.008795604020779293
0.029139466384259193
-0.004288538454279996
-0.0019176141471321702
-0.008802059227958802
0.014846544216931651
0.004713610054293876
0.0363181615980192
-0.009648102588300782
1.915688625295066E-4
0.02266731945064167
0.011824693850246086
-0.14151073839503028
-0.03728990709955639
-0.023553619499047343
0.06149711762359986
0.01228280631658833
0.014519221185349927
-0.07333452667781686
0.00937199790461518
-0.028324567393929065
0.008879926322301255
0.9002312008590817
0.008912625068058608
-0.08359796543203774
0.002294051115191908
-0.11416491712350287
-0.0077622476728283355
-0.16735921363025832
-5.744602381045732E-4
-0.4045944395676623
0.016588253841150216
-0.02678463905299491
-0.0026366473640560962
-0.2646749677017069
0.007300603137241794
0.001973476144478697
-0.09427005756982508
0.012461096402216333
-0.20790135417883995
0.010036007144583203
-0.022066766264594296
-0.0012803746040148589
-0.1868453972450479
0.05358595538009158
0.016594479385842686
0.032862081457599814
0.05325033228241787
-4.119229740526255E-4
0.0018852581679972766
0.017597539166382802
0.04060508766650444
0.04361284874525753
-0.020942717108376883
0.049302274558285154
-0.019700291344777014
0.03865720186835377
0.03848810920079833
0.04097351321742957
-0.0057683663267909194
0.025107803184797498
-0.03213814276281434
0.017757313792229487
0.015196710274854716
0.032164664338491036
0.028031182022382875
0.04020292913993928
0.027376417675065785
-0.004218336413992383
0.012307475839931152
-0.00806050055613161
-0.007252089698584333
0.007225204676368808
-0.0073748374700701455
0.018275778969218448
0.009023217102898372
0.005739792129925267
-0.015623284704835427
-0.002614215890525411
0.004994086329146889
0.029266011866772364
0.00981933989068566
0.0031693845969060597
0.013433062342785658
-0.09650863541943801
0.022199962620412243
-0.0021787112792676314
-0.02988578830118763
-0.07397570763139599
-0.007208425837821016
-0.0034285705093822522
0.0019916098259365753
-0.006168483856136735
-8.557073420734357E-4
-0.0037397292231888713
-0.008243614271323321
0.00903144542952507
-0.017340233337887725
-0.021549360437564856
0.0077275457842017935
0.005954506897711842
0.0019429891046010023
3.045485525004223E-4
0.00924716806236272
-0.011573889576127091
0.009805134605380968
0.024384250946830086
0.005735377241834093
0.0014481601365122993
0.007059084657786312
-0.005043664516889982
9.747954752890918E-5
0.005597254485273683
-0.006204728574949354
0.019469952851718736
0.01936611968037461
0.004446604281615701
-0.012357863207401404
-9.309105838620031E-4
0.009699541730492044
-0.00404674359089698
0.011493189752925553
0.009101231344691901
-0.0034562782330541946
0.006061262443203157
0.019662106180356253
-0.012529808628265183
0.002958966759468104
-0.02646375931325908
-0.016393546903378665
0.023105765113509324
0.006543091465275968
0.005432577496005039
-0.0032640852146450907
-0.0049923342295027815
0.010257764415465675
0.0035970222841042393
-0.004455591993482431
-4.0032055763718487E-4
0.021657317374560982
0.011006037022846778
0.0013183100407269314
0.011322045790246836
-0.006631680340636452
0.005893024005535192
-0.003384378938702818
-0.01062964266319798
-0.016061422612750096
-0.011096403571693319
-0.013331303976727325
-6.285342416504386E-4
-0.010529084878393862
0.02300201883818037
0.003171598388080308
-0.018343593295795015
0.005363046950086095
